{"sizes": [784, 30, 30, 10, 10], "weights": [[[0.0023551152490217425, -0.006118467836650004, 0.0061720403927797984, -0.0053419862981137125, -0.005734132794250254, -0.01631444896355363, -0.001764411879784377, 0.0022271071541372566, -0.02031730016286196, -0.004411068957028734, 0.0003438804311625615, 0.016577971910776396, -0.006680434160802325, -0.002017423595762684, -0.008691801391469182, -0.016444013281718912, 0.0022920989554633376, -0.006341832872814374, 0.003453201226652604, 0.006599630898065395, -0.01113365995369561, -0.007856953329913591, -0.004535568201473984, -0.0037755715558294967, 0.0023201939733117263, 0.0036230619608181415, -0.012936058795031104, 0.00401936731302257, 0.0009124354621705385, 0.014254441486864765, 0.0025780378504059853, 0.01230729608677576, 0.008404881754138607, 0.004141618901742735, -0.013975518816482345, -0.024371949561620584, -0.05572270525635122, -0.0018927567922112996, -0.026843789185846685, -0.01022837842185129, 0.013519769367426595, -0.0022610039384143065, -0.02301071408700677, 0.004646889494290724, 0.04415918543707562, 0.02232438019767661, 0.006555336675755295, -0.012849370689019942, 0.00016320783134101443, 0.005138237218780287, -0.005995415858662043, 9.712971267167344e-05, 0.0020620003283190733, 0.004215309065551862, 0.0008176923304030473, 0.004597277980518951, -0.006002546679986109, -0.006024016137741234, 0.003790492356715038, -0.01170648193335092, 0.009081493617260804, 0.004460005416128733, -0.034496511419916734, -0.05645128714622738, -0.10118950075867163, -0.06827562153531529, -0.2174705933955146, -0.2554330337537964, -0.10873856685731327, -0.08687531981377329, -0.12979683495039776, -0.12248340787317946, -0.16519970324441527, -0.1791446130334922, -0.11853332297487819, -0.06267747556653795, -0.03734773780706448, -0.0028928546309601637, -0.00471699627377614, -0.020176697118471927, -0.019947893896318677, 0.0014133085314746577, 0.0003300405008933147, -0.004940316865001048, 0.008732196345853274, -0.003835191309574756, 0.009827655593198108, -0.002503391972481135, -0.005192406044801817, -0.05568541552626886, -0.15445208216961892, -0.07675016471249611, -0.12046893306339325, -0.18512738029574388, -0.25331274925860187, -0.22763433538128452, -0.3421547685578371, -0.29847754985355995, -0.06898659462273354, -0.1703283026109937, -0.08904797547034257, -0.22847312664228775, -0.4223247860566175, -0.2540034749085184, -0.1568200752967, -0.2506766270591238, -0.0951967871071166, -0.0684019564977637, -0.05150389169033892, 0.00012697700299581978, 0.002429027642126025, 0.0095062427765105, -0.009650847568604773, -0.012630627642282163, -0.003195402785817795, -0.0036900657768663375, -0.013628013740571647, -0.03537960878404601, -0.055121521283021675, -0.07706069992038281, -0.06687305605691801, 0.015224680873290717, -0.24365844037188608, -0.07934194889020264, -0.18719622864818478, -0.00926749587791082, -0.11267018501281784, 0.004843531420102356, -0.4952150383992796, 0.04900324719698173, -0.0671042050289973, -0.32623001056695844, -0.243995117362398, -0.28260184803780364, 0.03780591071146796, 0.04968888995286955, -0.06164338379719356, -0.04526990664940753, -0.016200318703976337, -0.000582788332979472, -0.006775909124328622, -0.0022455709553613843, 0.013631580263488013, 0.00917196933318647, -0.04247918105475141, -0.029319598883496292, -0.03386278268822773, -0.01884393738228424, -0.036685738436819854, -0.06195049172531137, 0.06601272710797018, 0.33732639365923606, 0.09739550063829133, 0.5402934369256445, 0.09280976174507063, -0.04877578050646563, -0.1817707075061106, -0.034104032070787174, -0.14995898698918156, -0.3918237154804752, -0.32109619351236635, -0.06773217937182795, 0.1015823783231499, -0.13323665352181596, -0.2565549637098534, -0.14044958465189367, -0.05334188431349595, -0.010470749404177344, -0.008026965158876333, 0.011879475837098202, 0.008063950710849718, -0.003618652172033689, 0.0011126918006859102, 0.07300156574895297, -0.037857054190311185, 0.025535837452698554, -0.10452538670054759, 0.006345639876582395, 0.238256716696644, 0.07116942537437575, -0.23779712461380043, 0.32967976172030683, -0.08551437632208153, -0.20756591868077462, 0.14982506900468054, 0.3305272858867506, -0.0033627469185329795, -0.15322808606258065, 0.08671470265292003, 0.052992094318702915, -0.020337491514345694, -0.08008305051806895, -0.31157291588804453, -0.1341403995379054, -0.02394569228296701, -0.0009261820685635324, 0.007721705266690365, -0.0003856476691879728, -0.009012465146002171, 0.029054070627509542, 0.10288259592367759, 0.05538890765682705, 0.0941982789420593, -0.19968434149129297, 0.015610280137438577, 0.3585581333618489, -0.14688827343488112, 0.0625226720096932, 0.05175851692371543, 0.11604282219728446, -0.35323733826560905, -0.08842454945421843, 0.015946535280106602, 0.13782873642335458, 0.30227749574295565, 0.21304038497368596, 0.029008655459228705, -0.0607668319869499, -0.19815356895271263, 0.0022493632970977417, -0.32074882242628044, -0.20583105397082166, -0.13041731998541886, 5.730460757078197e-05, -0.005589250208231057, -0.00938413076266851, 0.00015287527786135235, 0.047704222047122595, 0.16159747122657495, -0.06031451012237746, -0.1869675218152361, -0.2366653669333651, -0.08332722646615463, -0.24474794070162234, 0.0014705559517446181, -0.06650210435766282, 0.2293323886650867, -0.016291607442346128, 0.2835463544567879, -0.012984805612807054, 0.27291588603064315, 0.07034954611695014, 0.30612996385117197, 0.2991336053189124, 0.2202133330244511, -0.03335300065410069, -0.44317569108621646, -0.21949031876658334, -0.16995142222065288, -0.23022441411055183, -0.035101418029098344, -0.007984785887449712, -0.011514955335829882, -0.0217358128458583, -0.003856314742141225, 0.09340210618452519, 0.14405339527173677, 0.017479723986166054, -0.05697902679867663, -0.1745270921883561, -0.17247766742832063, 0.0571902641968076, 0.21620287548591333, -0.04595366264425827, -0.04856964193896308, 0.48314589865778856, 0.025422767630936333, -0.1402921321725249, 0.05956624802038127, 0.4511662367031543, 0.42588700133950935, 0.3977224168557787, 0.7105416818772818, 0.14711491455644238, -0.2198649368011554, -0.1141102918716656, -0.06894757068862166, -0.24815041444179406, -0.028728544735769506, -0.006999172522573222, -0.002380711726567666, 0.002677686316907673, 0.07612847608458682, 0.1243696192341093, 0.29028917243378255, 0.07457581577267162, -0.22107655589395633, -0.000101651236022778, 0.043268867908256826, -0.15397838510387651, -0.13972934049712185, 0.2381637452914455, -0.03587480003438155, 0.10996036405282367, -0.003489487943772813, 0.021908005328509037, 0.17999394366634927, 0.5176174358912283, 0.30952325995811086, -0.06018973318523026, -0.09336409617341392, 0.34208165379559935, 0.20178665869129872, 0.0792337634435304, -0.02450432620796694, -0.18870102325261223, -0.037211952771487145, -0.00437955206500745, 0.005587863448455465, 0.0007507131212544995, -0.0790553602957835, 0.026333753912616206, 0.05034098324558206, -0.11896268720710157, -0.2628265595687604, -0.041985080623753473, 0.13252381008890288, -0.16925019803257593, 0.053633937339093, -0.24127987748541865, -0.3770192393192552, -0.15580409258469255, -0.5984913265458173, -0.5918555841527746, -0.014593971830335754, 0.290501865181101, 0.1886993763716362, 0.0823157022292159, 0.15836864795907923, 0.2715691825964743, 0.11550918380269823, 0.09693876803003988, 0.06868226513338242, -0.11053085713604915, 0.023426430289491915, 0.00708939319093153, -0.007752816498349947, 0.019513425498550195, -0.08046921975537255, 0.03148276589782114, 0.1019244180800965, 0.2816427863682089, 0.20604735303235183, -0.17896092645330178, -0.15127304530074537, -0.3840496765677788, -0.3063750508687368, -0.09017035335292083, 0.16685779006082474, -0.2670184400114718, -0.8662324613241523, -0.8805443051548782, -0.2294416159046112, 0.22135156882327955, 0.03654954544299824, 0.1527875466197853, 0.2200277791842282, 0.3790221562403729, 0.16236168174191187, 0.04898177536402158, 0.21486223807075028, 0.07496031453958452, 0.06951341010498693, -0.0037780260676065222, -0.007856403633677029, 0.03860323727410828, -0.031254727456957704, -0.03188518997272396, 0.16861476113226548, 0.30490094411269547, 0.19584331829262022, 0.046638550961941666, 0.14708336506176298, -0.5495748616331139, -0.25854731880551457, 0.4250099466394673, 0.054126557233734336, -0.46959054035655157, -0.7576632063315804, -0.798959227343683, -0.22211632425930608, 0.10890922478410593, 0.07747398028237473, 0.12529539345646912, -0.08056737621116451, 0.4233112722235907, 0.4527016497441043, 0.09013444917381142, 0.10493470286724986, 0.15484516244174304, 0.04348663236060789, 0.011078375908832712, 0.007049394001345306, 0.017791686836997733, -0.00393420925198185, -0.013878957881599456, 0.025328060625786516, 0.35391230587897143, -0.02968557799255677, 0.049386304929294966, 0.33110213598536453, 0.030778745428638437, 0.28311891003349987, 0.40843175064114984, 0.12064906060865659, -0.20016265539548148, -0.5167104998389973, -0.8587532192579117, -0.29080107010266426, -0.11133646726555345, 0.5185083719154181, 0.2548811565967265, 0.4059085481663614, 0.2829559707063872, 0.3666601574098188, 0.014480606014355125, 0.05426017793767784, 0.06853835293180224, 0.04117102123610379, 0.004917294637642983, 0.008214683088631039, 0.018928474087128003, 0.014535295403988666, -0.014394051605492526, -0.08193843272545707, 0.13040124908113518, -0.395283506847495, -0.13562862650688512, 0.436936511381589, 0.11668708650009438, 0.4845149406075718, 0.11734113294141571, 0.17855762292628383, -0.34411397976301994, -0.36412954341894266, -0.5346461723376842, -0.6718108452325602, -0.3348570498614684, 0.39006451736193, 0.4327619446652923, 0.36542462928157876, -0.06226812658561134, -0.04277617644442683, -0.1118634712668126, -0.004727296370482666, -0.09741281632501728, 0.0940513228557455, 0.012957495291427241, 0.0009257410725543075, 0.0034309760704563843, 0.012672425918599657, -0.07161309095725547, -0.1530805918113717, 0.09608671069102077, -0.08905558751987512, -0.1303818531782573, 0.23836391216299066, 0.24941766627055195, 0.1456409401019369, 0.06807515574204197, -0.030474617705535986, -0.02226800907551657, -0.269477453962291, -0.6048279924665927, -0.512036628416847, 0.10725065071465505, 0.2703128846591328, -0.20610029884057543, 0.13766095629515493, 0.08704620230422262, 0.04153713850472631, -0.2590915896731456, -0.21565585343490304, -0.16577996629953234, 0.039770149369325554, -0.010131461007547124, 0.005768889509753851, -0.014981194751246478, 0.01798626730392204, -0.10705451515004594, -0.19529310229033217, 0.08811826498934379, 0.07220153160540012, 0.2190376765167902, 0.11413648040472121, 0.16749974843729476, 0.11631736911798363, 0.037351527875668825, 0.19540463845494527, 0.08061886761338656, -0.3292386564990005, -0.41823275361799844, 0.009859913175525443, 0.271632416651185, -0.1761316339503297, -0.23190327631929772, -0.017538824302061745, 0.01160056652277198, 0.13046615121044386, -0.22285464169390412, 0.22192569021557512, -0.005347182095020199, 0.025572762299306863, 0.0445368483111768, 0.0071020733667057, -0.005913883995052046, 0.00828222264961548, -0.20477586565701225, -0.24715562533729943, 0.1524796451923346, -0.14031540208145418, 0.332213400467994, 0.22042758345705285, 0.26099350054901366, 0.07931637021966648, 0.1439973529883971, 0.09456470856070631, -0.03318007248282155, -0.3441597589176612, -0.010568330325141774, 0.1907738600376305, 0.07706366641028095, 0.21134230512874383, -0.12289642387987178, 0.0478055165262225, -0.2959838272678072, -0.1312433919817586, -0.11805722467765911, 0.18544178683422224, 0.007213748273210457, 0.005251934367746934, -0.0028545055623603022, 0.005454798098927391, 0.004572758987208885, 0.003565961552561073, -0.06415650727600916, -0.25008514035516854, -0.07746720448703386, 0.09406262651879536, 0.20648052733835429, 0.2951959289648906, -0.18663113829624747, -0.04929011384195075, 0.1266400989340852, 0.48597459074514, 0.06120579583066073, -0.15257960781169047, -0.3294671022966768, -0.5435457737007097, -0.11969239711347521, 0.36006033154774647, 0.22595020791852727, 0.020819030803957566, -0.27902347210121564, 0.080277004543414, 0.2613213339037336, 0.1799110402662599, 0.004281519073940416, 0.021379591708328916, -0.012045784747742446, 0.0018505493409665364, 0.021386867574459775, 0.01646972594216905, -0.024424698664086756, 0.013076573606983947, 0.12781833914549262, -0.03973507810540554, -0.04235331352827797, 0.1822220575229148, -0.23243225124231492, 0.14866427055755937, 0.17892091728616025, 0.14847786290874554, 0.09128168934673271, -0.4586521288377493, -0.41296815338797427, -0.37404146584811354, 0.016202850148584517, 0.26058647926069417, 0.39748001480286554, -0.053736910719110874, -0.05205314580844424, 0.07983115243609984, 0.1748155784468334, 0.18069296999066237, 0.05095829011057587, -0.0041413666008738755, 0.0102198609872562, 0.00020329879305116568, -0.011054410624124024, -0.019112315802365415, 0.06981953089593813, -0.047161629174758725, 0.2728351386380895, 0.19686033872378217, -0.1305407103126253, -0.38674266880857, -0.40847045460353143, -0.352378830466704, -0.020711457809124565, -0.015186875851633289, -0.10658517186389573, -0.3046774840010246, 0.009328850723241895, 0.21113928790307088, -0.05998922174125869, -0.32447175755933794, 0.13377323808679537, 0.038640930474716007, 0.11278234078229914, 0.22528540372409248, 0.027122971535396237, 0.06690439680624942, -0.009325606267192369, 0.016745498843881927, 0.021705953657035044, -0.0009658497141047944, 0.010674003374543604, -0.013331317761007088, 0.04888281082376901, -0.017250205193684354, -0.024129143402486418, 0.27947914301430465, 0.04826487361953942, 0.05888067291738325, 0.0788836829349467, -0.15266096775901894, 0.02146637555545231, 0.16423700984860878, 0.19019594780992377, -0.24159582491911416, -0.26300141973543134, -0.3102112279669928, -0.10684529233023546, -0.22685121430698924, -0.07606054518548706, 0.037444105979304455, 0.16508604904281748, 0.24854617538985282, 0.11287057810673054, 0.0790349445868728, 0.002625502309840945, -0.008531614486335926, 0.013829673392254991, -0.007202322955377598, 0.0014974910948022154, 0.004349115032755039, -0.021526855389298282, -0.14796349767665262, -0.17778442225613506, -0.1413689886456176, -0.13300977834462135, 0.09984110436297038, 0.2664411128313676, 0.369764222397691, 0.20152532627459263, 0.03773972242823486, 0.0036558308210152784, -0.21376275142064433, -0.13338510846331667, -0.20055304024856802, 0.22057114808500108, -0.29063640423820597, -0.298260562876329, -0.10930773370731718, -0.08690074499486172, -0.002865648932152925, -0.05419821419445657, 0.0022463129393012183, 0.025249914152986885, -0.010606797295731324, -0.0008735029787785565, -0.0033659885760371337, -0.009153347599393319, 0.0093477656903153, -0.03925141382470943, -0.12308698673683553, -0.10564959213121114, -0.11191751942886992, -0.2332323417284506, -0.42449157552111755, -0.31231774587659, -0.4002942380049392, -0.3907179110034134, 0.11988673073624513, 0.12970400431766316, 0.011036508494003517, -0.25355467430120615, -0.37262154105319295, -0.18896300202345287, -0.12153946494581024, -0.1533194019602977, -0.12419838719877069, -0.19213388877413967, -0.03737245285323558, -0.13466469284065075, -0.16169665213794762, 0.0009382083895403025, 0.002299499849124407, -0.0013289359240399798, 0.00941674616165148, -0.01154484489417515, -0.019501705113339447, -0.010581347357479764, -0.05031606249141844, -0.05080827151767991, -0.07500734098707443, -0.11429191678020914, -0.2771659344504293, -0.37072961669509463, -0.5497906930021434, -0.4092730580619693, -0.6677838385625506, -0.5178388712470646, -0.4241305770533746, -0.5410431919212392, -0.5186943932419437, -0.34538915369269374, -0.17735936155564228, -0.18823394865585638, -0.049414931602054166, 0.029694413597964986, -0.06993535825042914, -0.1890808017225552, -0.13135325689048305, -0.003685812827627154, 0.011172890780392348, -0.009237578543740153, -0.0028964454503058274, 0.0008253392561527442, 0.0014010697929248306, -0.008648096899251759, 0.010343280781322323, 0.12453488714988561, 0.12289406168632801, -0.0216346065819804, -0.06669063509921777, -0.16063792916622027, -0.2683374454133929, -0.25788807691002485, -0.11575567458936353, -0.1354397423913515, -0.15230117436226806, -0.4067245978706482, -0.37387908410032306, -0.1771210757213004, -0.1369019945827463, -0.10140232751623854, 0.017338854210980997, -0.01577375336569975, -0.05173896021902319, -0.0013781179153347137, 0.002271569366769184, -0.0014657831983297374, 0.017275554218997704, 0.007915802699852004, -0.012546639666973291, 0.013965563794426953, -0.006453495212451525, -0.0068261423168698215, 0.014948388256972627, 0.008742889540576749, -0.004570427857776126, -0.02438090555708689, -0.01251036473625254, 0.004070622943325053, -0.01289502157018419, 0.052533542651721395, 0.09191935431243395, 0.0030960661310827854, -0.02433325793989616, -0.02972466108901288, -0.01425462212392626, 0.0012459147627963772, 0.033358070296510445, 0.022876978203311058, 0.02626493696331378, -0.012167828010104246, -0.04649589844171551, -0.01772188707607703, -0.0012906919411058418, 0.003911688917332594, -0.014994006657089302, -0.012354964950031076], [0.0007288293814944831, 0.003017352918195806, 0.004181028259350198, 0.008401366604766364, 0.007621514938765051, 0.001434137101409302, 0.007319668216913511, -0.0008374049206862677, 0.016460912407592742, -0.0009581578062619669, 0.006585403484702868, -0.006761274192810347, 0.01108850893121544, -0.011376428579567726, -0.001960474577134806, 0.003172842787781491, 0.0027583772997972684, -0.006628923003177277, 0.008651269641474798, -0.001229760336902645, -0.007298639239276048, -0.014287888841398007, 0.0014664995866195696, -0.007559675432729274, -0.0057395091395974936, -0.0007685353347018633, 0.010109064634311084, -0.012868024219504465, -0.0007814778841095049, -0.003895534088715819, -0.0019358462028147303, 0.0062478218627423235, -0.007381537716373925, 0.0020904722799126516, -0.003762662041159766, 0.0008430190029929419, 0.02483165200032335, 3.7563464635840605e-05, -0.00780499547666111, 0.007126850681386548, 0.01222503737300008, 0.009749146614092595, -0.006387943483337751, 0.0036058542482549968, 0.014392778847995608, 0.028195762381005792, 0.0017591635574006272, 0.045350126388550835, 0.01702115025823331, -0.007193578036789444, -0.0047664687964210604, 0.002048176723943591, 0.008258213595482521, 0.027643535697859396, -0.0010181580692073086, -0.00030342408235641433, -0.0030659947791209174, -0.004463904609617243, 0.0031835201454669636, 0.0017899112212934275, -0.006512831937375299, 0.0017464176441154505, 0.035448709491439044, 0.023157407510229298, 0.024323836323664586, -0.003062582405048104, 0.03962537370661587, 0.04398788066372737, -0.015638403704509855, 0.05932180564223651, -0.011294728233865918, 0.034054576738361535, 0.09068228769833833, 0.048494970554889986, 0.0630875807158295, 0.08622614357372735, 0.037903124904279786, 0.00828512790600498, -0.003764308906486425, 0.02563296409611916, 0.011837644625405735, 0.0008302579625550922, -0.01195741092210697, -0.011006195052546769, 0.00130927361624932, 0.008864193982379993, 0.004968435621546535, -0.0037210640548273185, -0.0009177750228885746, -0.023962397854197764, 0.0009887701097185677, -0.02568070228222688, 0.01773027693699743, 0.08473910755174166, 0.11522360568544232, 0.024788937775151218, 0.11170306310640375, 0.13448386341176002, 0.07149521789687782, 0.1082516437272384, 0.09345460981617007, 0.11512515764032666, 0.0961647662678596, 0.12329233300442871, 0.07382458712260162, 0.03336557888125954, -0.014489605046487958, 0.029095670329109986, 0.006543936763071047, 0.0015586954445907203, -0.016114452448866293, -0.007174624990455042, 0.005271459851329644, -0.011645432034167808, -0.008236940019203463, 0.0029076011560765294, -0.009578117905749764, -0.03407193501365613, -0.041771964676692815, -0.06949447757579069, -0.09740220858022658, -0.007336662109106815, -0.02309429520924878, 0.05420725320026896, -0.01866162125300233, 0.04895453237441264, 0.0651256306246123, 0.37448935272406214, 0.4308507904716261, 0.2986435517794947, 0.2210098327032907, 0.08885721110835137, 0.006349768204414964, 0.03447240657126166, -0.1051237127846349, -0.1315841912463135, -0.09467600625154965, -0.008152253609067798, 0.0038796954819279527, -0.008755924400610815, -0.0040820908371929435, 0.006340115718928356, 0.007404186956602803, 0.015895850347082213, 0.008454248184314573, -0.05389304417210282, -0.052439397087796116, -0.05502184116387761, -0.22478770957251418, -0.25391065699116516, -0.0835576249966657, -0.08133175581789692, -0.03135442502434089, -0.1357209345436465, -0.14123976823206047, 0.38439966804869263, 0.7208054979301882, 0.727518568052455, 0.4094681797712799, 0.24373802425971966, 0.27727099169035313, 0.08147191431598956, -0.01674638771011583, -0.13833966150859353, -0.09568280907143002, -0.0938020616591465, 0.007470980198365433, 0.004551054192601428, -0.0013431179361333972, -0.0022485866986187695, 0.01050366301559734, 0.04357946699886212, 0.022538287368970407, 0.06883364407669856, -0.05576269870042302, -0.053989576654419405, -0.07805321094443275, -0.06288664503859186, 0.04039973488121203, -0.025740721411006157, -0.026037780769105023, -0.054558214110145706, -0.05716919758500217, 0.3153047671149099, 0.08560571842023668, 0.3865193064772271, 0.3596014289657473, 0.33381017532843144, 0.09318431053129927, -0.041720058322418166, 0.0643267153437048, -0.00025742994040175125, 0.08809442492106394, 0.011601479361884935, 0.06103297073264294, 0.003715924495129083, -0.005113569699722636, 0.004052582474276398, 0.003462984228791106, 0.016444036808618338, 0.032178924549868884, 0.12380030590002529, 0.06981493677815322, 0.18963582744166665, 0.1256641321230416, 0.11055494684301416, 0.19946908330476584, 0.051130110669602616, 0.1018341786748057, -0.291457176035218, 0.14968986201537568, 0.014693360586509751, -0.06304921127394776, 0.08744231639630129, 0.19359323447673463, 0.011949449834358429, 0.06385434991251507, 0.03623115236944816, 0.07135438585606703, -0.11968447054402219, -0.012922882933879947, -0.02162196089382626, 0.037801391219392896, 0.006307665684508447, 0.007754597175034861, -0.008456284776073861, 0.020071524164119083, 0.12706056774874586, 0.01721272815289984, 0.10809456687303728, -0.05413605426420149, 0.1012343659624585, -0.08399571898232375, 0.005992676572808065, 0.08942596440812298, 0.09062439121204356, 0.21657362954628384, -0.01843166710485203, -0.14358183209385283, -0.5392532437962071, 0.18084870642008305, 0.2991109809484965, 0.22353225946327218, 0.43710357241248654, 0.14016804702023533, 0.15906624742330336, 0.22455253992120416, 0.16457611983615214, 0.13100413290453733, 0.009433573979925985, -0.03147802779997173, 0.014117322487314414, 0.003589077183921928, 0.005862710801164497, 0.03719495559590023, 0.06758764397823541, 0.07685579006961657, -0.09362046257036245, -0.05948545058392375, 0.002852980327787723, -0.1269579071456511, -0.09175427828713839, -0.0938650999005852, 0.13091419855080905, -0.08694912351782257, 0.20063533448780424, -0.0434289680647958, -0.028024577389807202, 0.02557263905318658, -0.3411917713232038, 0.13342929949350882, 0.566886771300994, 0.2175680245219894, 0.14302023912438622, 0.21388411964338044, 0.2768518044426308, 0.12058842454416449, 0.2260203175581934, 0.12620023819735807, -0.015347756873158142, -0.01237192140278179, -0.013168293257341097, 0.0062185328761179375, 0.17537255632779183, 0.19629650803137028, -0.06870280212972525, -0.09600916666444359, -0.3954536251743332, -0.12608592042709518, -0.1918665995107031, 0.021667065844568893, -0.07467656210824661, 0.21805258056397567, 0.0033201309933691475, 0.2280139329356336, 0.2842398631491064, -0.037428266089547683, -0.6153081431992296, -0.3994466264449266, -0.1046670089364317, 0.38424317711885164, 0.23652041487273007, 0.12906214839206312, 0.46668487779497403, 0.29726013861154865, 0.21120641594646375, 0.12887236614985215, 0.012124600214092673, 0.0030340304746413046, -0.009480988585245488, 0.007895665566949048, 0.14441677760457267, 0.253665524282682, -0.12682704210481366, -0.21009576772886776, -0.535740420719623, -0.29902232108635557, -0.4826830773658629, -0.43132067101203103, 0.0946111187631388, 0.11867745598173955, 0.28180637768046407, 0.18020271814393965, 0.37069081208936344, -0.1493715411615031, -0.6752041944577521, -0.36787672166936786, -0.11615439884336372, -0.09414859826679378, -0.04961050811157113, -0.11117377080502915, -0.06412087362091058, 0.22325871840848183, 0.2741713480981857, 0.07654857678110105, 0.01900090128279279, 0.008764081860233806, -0.01659960446001282, -0.035333352891546085, 0.07765088844683067, 0.07875895610508514, -0.16477316599158273, -0.21775456042650665, -0.07459931652428457, -0.13966848093183049, -0.027983838371345163, -0.03656595451451452, -0.04242963198553921, 0.07019951912768599, 0.624291270585214, 0.6247871524757685, -0.005799701772464549, -0.648702656914873, -0.1581630299339287, -0.46343194637629903, -0.2918088655717773, -0.08742629898967154, -0.22523115552882625, -0.5469316241794122, -0.29473065135181464, 0.13863320263126244, 0.16556435018269913, 0.10678842628740076, 0.015726977157951308, 0.01822724232684433, -0.0501236333828698, -0.05859188633687349, -0.012688837108022138, -0.19564170827993355, -0.07199082405379129, 0.17128954242998243, 0.07269211939412126, 0.013190240296395445, 0.16431136099682975, -0.10720183505546926, 0.20796178087508102, 0.2576816924278986, 0.2078810756160285, 0.032763329576953416, -0.44931288768767624, -0.47125732227931755, -0.3173885222716306, -0.2731226714856971, -0.35300441135740074, -0.11256296787840309, -0.40047747353734553, -0.4220701395195267, -0.2199696186045012, 0.10712102542005472, 0.11813802925564293, 0.035750634083646135, -0.010574766808852757, 0.01712656791237848, -0.030072614822420574, -0.05405124905332266, -0.10598141725793035, -0.18048049568230695, -0.01589576142289793, 0.08919521623943616, -0.08150515118821779, -0.025596112567604374, 0.16140407581982621, -0.053053321987700255, -0.0400844144946515, 0.630423244271966, 0.1272810527844201, -0.17374160404126474, -0.23688001423301705, -0.25124360567625825, 0.009924560291262617, 0.018730670167810645, -0.2047430086386733, -0.0943517132902718, -0.24830874470380884, -0.31029682954563503, -0.3025467708611905, 0.03062621662080902, -0.03453049239875221, 0.027051458373303864, 0.003749360419507394, -0.005355052686440955, -0.0005307247134722992, -0.040195081494154475, -0.2176929500519831, -0.1224642254133613, 0.015543946379023172, 0.008701429574409914, -0.052024639190502917, -0.019437706993929365, 0.26841368089180107, 0.2735080915547522, 0.2930047506925381, 0.5178749570426966, -0.20160757411070607, -0.250739748671346, -0.35451856062311077, -0.039355336725199926, -0.27143077650302383, -0.04727703933383363, 0.14532240786119194, -0.0918809868638414, -0.2535655321752664, -0.39784274034684325, -0.07319676594952686, 0.08688452248002781, 0.016183280949918583, 0.02060849567296335, -0.006370437700986307, 0.007087727942392247, 0.004594357508625392, 0.011120857319237126, -0.09801819753594973, 0.03518701672297403, 0.04841835516418699, -0.12674341547131107, -0.15532037667852586, 0.15955555546075872, 0.22848232709141872, 0.3391607363708908, 0.3128308392380013, -0.2114822905255019, -0.552630784493211, -0.5589296393462153, 0.1074122926524744, -0.1394350294216348, -0.017128045783410324, -0.341773342506097, -0.03635784675862495, -0.10601111504647866, -0.09594715421214478, -0.014287070818509927, 0.034553983974519996, 0.1744702784685962, 0.18930527867085487, 0.10556858443146282, 0.00972561957264648, -0.01269288032932379, -0.009049164502003292, 0.018029064185575667, 0.0858279022532085, 0.14110024097239987, 0.29015790359529353, 0.035500637973476655, -0.013635689426565751, 0.3996611593122924, 0.5482614994094688, 0.5749836050062128, 0.28933535915553626, -0.5396748911743168, -0.7591804050267331, -0.4359300076950931, -0.04613313491437227, -0.012927827128157288, -0.03595194927370805, -0.4467564015277594, 0.0007218246261059356, 0.06680449943017899, 0.1593545645529941, 0.053727309602866674, 0.1760996759283768, 0.12391858459653127, 0.043766775575832396, 0.06437537569775623, 0.031449736567169206, 0.008592547727857905, 0.0042235338091474355, 0.02080838733713664, 0.2234462070520227, 0.1074476535390854, 0.1888905273188467, 0.2779228407328763, 0.41855139849431744, 0.38649743200212316, 0.59231731524543, 0.5653472905936868, -0.23990576110888084, -0.45286731351998216, -0.6386527630157293, -0.27520969259993616, -0.24168262543538171, -0.39598780062669264, -0.24643015499381962, -0.269366271692869, -0.07269486536850331, 0.19890668975494796, 0.284458746970568, 0.23415555658461928, 0.3792334873336725, 0.08529978788186918, -0.054178692108177856, -0.03729797082371857, 0.002952811694912351, -0.008389490196071759, -0.0003893053013933588, -0.0010198417636580832, 0.07062913719331268, 0.05014998663759183, 0.10025934056488753, 0.28370654322365146, 0.27364464069061695, 0.31491818391003235, 0.414858649639622, -0.05867187342956619, -0.4478134457793849, -0.3583134284269886, -0.08456905336524352, -0.36758888668911516, -0.2271215041034183, -0.02236330751418833, 0.13470218596285777, 0.2615362271437474, 0.0459718816059795, 0.20150425880612677, 0.25868204682398965, 0.35825024375736403, 0.32588951593776755, 0.12068961343135569, -0.038954163793200075, -0.037027127457796176, -0.008704042120178364, -0.009705830490308457, 0.005674684328641567, 0.02671855291806633, 0.10516817535217278, 0.19558177028575807, 0.252790322048996, 0.4195842548333971, 0.49273062712822185, 0.21734088801316045, 0.2981050045294257, 0.2372894912486537, 0.05325642555165848, 0.06173913476235087, 0.07349986844847593, -0.23922108831890948, 0.13588153856951918, -0.18697465405863975, 0.11891114297880762, 0.1896616047206915, 0.24661413319959544, 0.11839207991974655, 0.4042204374551403, 0.5335981342448385, 0.29589024658775204, -0.03702398184121824, -0.03373884006703742, -0.012493834841922714, -0.01280079610021142, -0.004349107616353731, -0.0025422917318371117, 0.04322768927610624, 0.12868964885522874, 0.12702015105426329, 0.10693239708531743, 0.39983529984224664, 0.5986486634348088, 0.10289476569052634, 0.04301898722517408, 0.3352717517736091, 0.20248766505493496, 0.27786672156586545, 0.2903356477464016, -0.1473530367616394, 0.19603374382345656, 0.14813944953760516, 0.346908237749518, 0.19116446366381537, 0.0467924856557944, 0.09499850494172976, 0.33878406710844305, 0.3373910549913422, 0.0645585764840809, -0.019393413531525926, 0.015632415647844372, -0.01718863267449248, -4.258645407759118e-05, 0.000431434115302565, -0.0018710934326474616, 0.030655069724499162, 0.12318551439125597, 0.07292967575616223, 0.07801598665868632, 0.20010865375666212, 0.21883327072905678, 0.1770881350806419, 0.09092829594820484, -0.013991241189708854, 0.03006109342504899, 0.445362391439331, 0.29883703011444285, -0.06520336155874433, 0.059701035749167755, -0.2088382731924897, -0.2702133435752382, -0.044491101596604625, 0.039577568825066085, -0.0336891014692306, 0.12169733757710907, 0.09002802071157198, 0.06310591572504347, -0.017520650750406513, -0.0033295961483806582, 0.0024574309239590803, -0.014014971689361689, 0.01057596096269816, 0.005174993918602401, 0.02327571121616727, 0.15178662858347317, 0.11034728802418114, 0.09852647909605995, 0.14108937334444424, 0.053750792102622034, 0.24565636636980936, 0.31663895674302156, -0.03861258986674852, -0.09573819462525089, 0.22292518629939662, 0.49214190364758587, 0.047024967585795094, -0.004699769979991691, 0.11462373350309146, 0.007543413176162477, -0.059375376402464784, -0.06919597248323348, -0.025951221777985777, -0.09778014799142334, -0.04022920992268377, 0.10841025556538005, 0.03933617486917022, -0.017522681088793696, 0.0022849671168622965, 0.007249414730524708, -0.009274617710767943, 0.00010020860638017024, 0.0024941419178563505, 0.02678172785712103, -0.03374843116569872, -0.17905983893612543, -0.1323122728653213, -0.07154981614972744, -0.18814296993040489, 0.24549578704471542, 0.016569455619383524, 0.1024195405459029, 0.37224034005671175, 0.2164729351947649, 0.22806800287261042, 0.11805428755210226, -0.10015918283730246, 0.2170862114762873, -0.03714875970451826, -0.1320864944479586, -0.09467531278693392, -0.008526243159874628, -0.020248036229907153, 0.047777982056169684, 0.09324045448232154, 0.0016375778236195453, 0.0022604563230194832, -0.013538304100603256, -0.005382187225663532, 0.008393289165424285, 0.005142843497944315, -0.024797739085211032, -0.029185090527713457, -0.07895531460696567, -0.027897382422773603, -0.086130611516231, -0.017638839628137476, 0.14523047526417113, 0.09787285198951007, 0.005622408383443065, 0.16294622162946043, 0.07000181091641265, -0.07345935599673006, 0.13952205029085976, 0.14356461833147383, 0.1646918475060389, 0.15112138631882374, 0.3064205199997775, -0.018147263712986725, 0.01634787785675245, 0.00047055083090979586, 0.0660938876017866, 0.05740535232745903, 0.005042947232217882, 0.010322140662364797, -0.00415721561721156, 0.010745753104015309, 0.01069931177832536, 0.004981708846453061, 0.007144466767662934, -0.004838428083586837, -5.4508336526348896e-05, -0.019004765056519372, -0.0076139344463081364, 0.025300156513497627, 0.024609315710316475, 0.019132628581298793, -0.030106094417846136, 0.02017282046357463, -0.07189956290255982, -0.22831398005487263, -0.10576810967412033, -0.023053480572539645, -0.03855935687011903, -0.05879202501689966, 0.04962612584488503, 0.007740957766814766, -0.014430588067178072, -0.015766390283270332, -0.009875365448326437, 0.011375696514446932, 0.007836190390537739, 0.0088091185778312, 0.0028436530550132975, -0.0103249241356426, 0.0022796788290921997, 0.0001374852998558562, -0.001008709966823183, -0.013288190825448805, 0.0029057218818570843, 0.004406012040490951, 0.03546785694403691, 0.02635830981236816, 0.004710826743603949, -0.009843087525590573, -0.011687102198487495, -0.003873464356850197, 0.0034848353917943864, -0.006552654360950317, -0.004036205496458644, -0.004464613972387369, -0.028632872235717827, -0.015355906166283313, -0.013470964726911514, -0.026464363440173565, -0.010905320918556904, -0.02071544245075966, -0.01524401766421001, 0.00700545900336898, -0.0027877979463110675, 0.001736446218764893, -0.008566408702580536], [-0.0019092081607464551, -0.006425046661051203, -0.01702284863799614, 0.0022182747372302943, -0.0028357339404964147, 0.005526108421044366, -0.01314100699119625, -0.004936680163180493, 0.005501057486134003, -0.012369024068701483, 0.003584597313331777, -0.00768340081113697, 0.0063523678911896, -0.0055898730437584235, 0.0012154745822973068, -0.008081688300753568, 0.005075882843111872, 0.005501662719618853, -0.01475923647658849, -0.006456967211056821, -0.005521235035754209, -0.004826720443465339, -0.005998994410332979, -0.006262878056440329, 0.007845626318131401, 0.007475571639933121, 0.003894030830474676, 0.002573388319906921, 0.004248891338360452, -0.0010853169254818277, -0.0012766169501191688, 0.010527878401523135, -0.017004861117072247, -0.009138370459785175, 0.007479816120787039, -0.008696618966423148, -0.003953625515760269, 0.005894259145711439, 0.002882037190168881, -0.020979900751772872, -0.004154374023665022, 0.008835605019209011, 0.11747492449068048, 0.14175331129913524, -0.023862666524432502, -0.024394088520357265, 0.007688654574509545, 0.013273969167394243, 0.023054958181192825, 0.003950401756823118, 0.00399720958895612, 0.003368582116087211, -0.010127597658359418, 0.005414734336025254, 0.006872715677255278, 0.00817238510799588, -0.0011190069449318364, -0.001893091445024385, 0.000965314157741081, 0.0012408129509495181, -0.006031509360708735, 0.008337009975510632, 0.006619401755523198, 0.01041502108398034, -0.004625688298931044, -0.0055358046862850965, 0.030859224350757494, 0.01641801557296488, 0.05440775384180711, 0.08479121981014698, 0.13542271201905057, 0.2505581304721836, 0.2128749131238824, 0.07593584233571635, 0.013589254614580716, 0.0032428723493062657, 0.04037293352770327, 0.07794504937120433, 0.06028348007648353, 0.022640744665149832, 0.028798233528355158, -0.001972838697350319, -0.002941426774540357, 0.009469977086654105, -0.004316815312843234, -0.0002041983102908798, -0.004834634657838736, -0.008856967396968585, 0.007237248263383851, -0.000711583879704974, 0.005352393643320116, -0.04032764092404478, -0.13824434705932293, -0.08788650768117877, -0.04250256502262628, 0.017751857199378263, -0.021807958513276736, 0.07977107095003473, 0.26732402449854004, 0.027119035566214866, -0.08012326215127374, -0.017480045035274352, -0.0758460325598555, 0.0675033130922905, 0.24305954599663096, 0.1926889447800966, 0.1310155171258012, 0.07006359762101359, 0.04721144316031713, -0.09855271096436213, -0.014990091259412471, 0.01219676294824836, 0.009860012307894406, -0.0017246813232319835, 0.005591171832350928, -0.0026484484027698273, -0.020083502596223976, -0.007747440958452198, -0.05870240279814263, -0.15283855667236956, -0.11950055361305514, -0.005764607285511649, 0.061392407272311336, -0.21130992108827867, -0.20176189357943936, -0.1266852158528142, -0.1985796452800338, -0.07372540225002704, -0.07638099253929626, -0.024950378061125673, -0.03480532074176359, 0.17194410265744128, 0.12125062304540124, 0.18329318021187613, -0.01521477542382001, -0.12606377092042698, -0.1418346308771367, -0.129813571098867, -0.0028194862444469245, -0.0015981363447154482, 0.013431644097349586, -0.013753689535616022, 0.01025885021352656, -0.014926896923348901, 0.0018854689284578316, 0.004355109735247772, 0.06688893942296631, 0.043250152645896815, 0.003942649705560059, -0.1426070591582769, -0.21136697196426568, -0.5053387386632343, -0.22412748191537255, 0.024173268468741797, -0.13013380304898794, 0.0757134279176417, -0.18589607246505901, -0.32842564924097306, -0.0280396476023501, -0.06096377016680093, -0.14150875514200387, -0.06141365693970014, -0.08294574334572796, 0.10894403172949273, 0.05961467136161345, -0.010353010948083257, 0.04083592407841002, -0.001529835589313677, 0.00941502033561035, -0.005523978508743714, -0.0053880980632853345, -0.05634135125718822, -0.10595262475650141, -0.11703137210417075, -0.08595759812976116, -0.143659712087536, -0.2693286142970016, -0.2498147837420964, 0.05693103709612217, -0.06771449608799036, -0.18326984820460085, -0.17313863336032662, 0.08032837938678922, 0.14227355967520175, -0.04372628692677821, -0.44399551695748996, 0.07663297082115732, -0.5028535332988523, -0.2845365099803108, -0.19518144990960648, 0.17100854266135798, 0.05169019684953263, -0.0022188641991570212, -0.09187155932315887, 0.0460646934368512, 0.04966677232198509, 0.006169607924557483, -0.006883811943487051, -0.02863839466785724, -0.1350544462461549, -0.23223282330514997, -0.173864381852346, -0.16086926268307417, -0.20380741563716512, -0.4125623988421275, -0.19349582272347343, 0.04271033484654376, 0.21439191456147969, -0.04325333209559561, -0.08629377230109592, -0.05823299720515015, -0.36398424540916235, 0.026445883509688982, -0.24671917280746797, -0.05367169896170552, -0.5078674459840036, -0.31523595697856116, -0.2308705417459574, 0.1928439427029665, -0.13069143481047832, -0.25630795623527036, -0.1952243030861939, -0.0222530426745022, 0.02297741231605998, 0.0038619425817005945, 0.0015719526880562651, -0.020745126226973862, -0.13775932525126275, -0.20838410084545958, -0.12760481219745037, 0.05170104166176743, 0.08818820596370756, -0.19805088539295765, -0.42324399561260934, -0.26231181825049205, -0.2555570476032385, 0.2286557574324991, 0.17613225853012696, -0.06964015630881658, 0.08109587037232663, -0.46418004748219377, -0.0529493621884631, -0.37613342055908705, -0.6538925603095972, -0.2356004757158665, -0.18919222523324086, -0.1626064395381257, -0.40545465179819185, -0.3539876081024356, -0.18166209329841418, -0.058095120131966986, -0.020770616219205205, -0.003033864726361533, 0.006639841228862646, -0.00299313891497043, -0.1371469529968806, -0.32372789369926397, -0.2823682372655263, -0.123890345229979, 0.1602642184938403, -0.12495529022706395, -0.488992400113307, -0.165064720226602, -0.0013659544636373258, -0.0705326757251931, -0.13771668209765556, 0.0684297466060731, 0.17880697333877918, -0.02987512494758911, -0.5330039001975292, -0.38724529644696976, -0.492242841615973, -0.253407422002565, -0.12583967527876255, -0.2604166569042475, -0.20771693511970554, -0.29849791300584005, -0.20918422987391602, -0.04491150175313612, 0.03958042277076959, -0.006044492262400679, -0.010638274893381951, -0.05544405754943135, -0.20141278487165765, -0.312265037049153, -0.38724499490959297, -0.32284824628254327, 0.06324905280157382, -0.17528141121413812, -0.425903863706894, -0.26125230035240965, 0.00016507799198528473, -0.08576146344729818, -0.06489131521652765, 0.26982821284884334, 0.46172485498222443, -0.49152928433844234, -0.5074434502966403, -0.2638593175256853, -0.32276502743790786, -0.3190126166797798, -0.13871757936819681, -0.14125840290577546, -0.2475322071998964, -0.2525418274135158, -0.21274262420038997, -0.06417892463646734, -0.010599932662435089, 0.0024959912718972616, -0.007991520516744444, -0.009267312808847863, -0.09610623714944735, -0.12370496793544476, -0.2920662584478829, -0.28930170832578134, 0.013511768638525152, -0.13866522719623336, 0.13057883712113547, 0.1268636511521761, -0.12763770366898114, 0.36596360747900947, 0.16590183437421607, 0.40822766375527186, 0.3827980833032009, -0.1833399433584599, -0.4986717791633681, -0.6610703456277839, -0.05135242383524895, 0.09129036697427816, 0.01704120796485336, -0.1746139108903212, -0.287894788696643, -0.527682406186499, -0.34904931713297493, -0.15198444156338947, -0.020188860873133898, -0.016872350958987727, 0.006640131589202004, 0.014027851352914712, -0.01648987962818023, -0.12133945341480805, -0.30408243665772305, -0.2993417819996279, -0.20655589430705576, 0.03481837859072061, 0.15273714124626683, -0.10573133143264334, 0.2127064559769999, 0.3650632680586532, 0.2817951830752886, 0.7207759828182977, 0.11658980919913368, -0.014006206633847855, -0.41179349321469966, -0.5373590468550575, 0.06364499709477885, 0.18185819291406213, 0.2547438143829011, 0.027096082159005885, -0.25699512241831607, -0.20211171095106267, -0.1340309499499013, -0.09909912451667172, -0.0043105264051571425, 0.003499368656183976, 0.0011144694135026632, 0.019384849186106314, 0.007007876218528923, -0.0662144984934327, -0.06169300113966817, -0.19438503699228582, -0.26809953405666925, -0.013983324184377314, 0.2766682002248117, 0.33965324395218804, 0.029513394468508994, 0.4258164193684836, 0.5744004916757554, 0.8773123234797606, 0.17981225769953685, 0.13720472393584723, 0.012405961217978342, -0.09085338742624162, 0.2760241585125708, 0.4106153413803401, 0.18694429748759475, -0.0418697461852203, -0.07208048207303706, -0.06977412283257325, -0.08676355225209235, -0.0376166378818502, 0.0036928954880763054, 0.0034588121211943292, 0.007920456055954548, 0.0021027282234312166, 0.022883135706519835, -0.010232234908973915, -0.06848796749608124, -0.22551206075970376, -0.45188640827480103, 0.1299884143358227, -0.036431312614553894, 0.09924853785953555, 0.1498911645904788, 0.21024044725036714, 0.2884270833826282, 0.5972333663625924, -0.09003021462872057, 0.1923962862814225, -0.24664980058419395, 0.4503080415002317, 0.3142391086188321, 0.3040837724479911, 0.2225439410196037, 0.19375426558328646, -0.031114446777186562, -0.03167480145236149, -0.017677141236307897, -0.02205815283743721, 0.012658088326376132, -0.004933280221831771, -0.00040426861104250473, 0.0052022222250007934, -0.01178552910151493, 0.0018549871288001478, -0.12550877202556832, -0.25231435402464564, -0.4887875917437852, -0.059324001884812995, 0.06210978264934993, 0.03810628232682772, -0.023325726571947387, -0.061768314989773726, -0.020940425714863365, 0.3790219618685473, -0.3502206434563534, -0.32237201413733385, -0.18006160280503583, 0.09565942167017687, 0.3778677220628791, 0.07027722774718842, 0.159273985849236, 0.10607578892439555, -0.023251390997300222, -0.053337439917693553, -0.03971531542892332, -0.049395780423665436, -0.001947119983856592, 0.002544591326836843, 0.005532750608498165, -0.0018774594697435665, 0.00012620148508250313, -0.012518880335728204, -0.13398594349987095, -0.36357316874200324, -0.233378949331471, -0.14318615486222436, 0.26579238968294067, 0.17296180548621756, 0.38075342858220645, -0.14641216135367946, 0.08241276637126052, 0.28820054876054546, -0.11188648089644497, 0.04380231823410634, -0.36253976515145026, -0.2454110068382386, 0.025437118290086044, -0.06995801129562736, -0.3173521282813934, -0.24314810649612367, -0.07311992907103426, 0.0025543871687398042, -0.026121774491574903, -0.03981486450397478, -0.009363271702440128, 0.003658618000937329, 0.009315957346839012, -0.0010989507604836292, -0.02564125890995481, -0.04266391810941055, -0.19943733372516126, -0.35075621030653226, -0.3502541301758854, -0.21220410593647873, 0.22184366279979664, 0.7090357606159952, 0.010870279521223922, -0.21177639702636086, 0.41723433564996687, 0.4321841932040591, -0.11691865059946024, -0.20755717263058623, -0.3787166529518096, -0.3304566368156163, 0.06822528907656437, -0.1885415159767427, -0.014843866839484226, -0.2239755550355726, -0.00856468717922057, 0.06199788713326373, 0.031285943288076774, -0.013183483413969315, -0.027339745936076024, 0.0033051739944207816, 0.0024344693078445436, -0.01580243398140929, -0.0006732299836211887, -0.06900270640967217, -0.20031516875218974, -0.3980314376702798, -0.6015359740832528, -0.265545154357593, 0.4644730606060763, 0.34030571216467004, -0.047854677675390846, 0.2890885052453727, 0.3930316648751594, 0.25110216865390916, 0.3070451055993505, -0.2270404465953835, -0.25116829047013306, 0.24541835924941302, 0.1336643281609978, -0.29740917431617775, -0.07721305118648093, -0.21741112335700463, 0.056925156030470846, 0.08095216514501423, 0.051150666132774796, 0.006602543209653996, 0.013958311214911368, 0.007351295699067153, -0.010187421682857148, -0.00771596724915877, -0.026548486839846872, -0.044105421955077474, -0.219903302084993, -0.2622420021896899, -0.3131591468656365, -0.35604976534140903, 0.1291128092144649, -0.2143409730844386, 0.3363757838620243, 0.24216060932759592, 0.2197047074131919, -0.09111124208639221, 0.002829416725933705, 0.12475470330670851, -0.2491321191356321, 0.0077749090989578185, -0.17838163437917498, -0.3851000695850852, -0.294551372647392, -0.26666003895494245, 0.001668668474584716, 0.06263486911363689, 0.03259426429837082, 0.015981812667650176, 0.006724071877974168, 0.00219846055185886, -0.026869027353803296, -0.018838978721409026, -0.02695261850431612, -0.06383433623206033, -0.24291083954201287, -0.25778526689232617, -0.4244254872986332, -0.4602276516652996, -0.34355713325333403, -0.3908560146948221, 0.08952167443046388, 0.4403233965196726, -0.06047607448168312, -0.08348539933381406, 0.1393876326036605, 0.2722920607027657, 0.03859248419688692, -0.022800222497626196, -0.126003588503621, -0.12469593371207816, -0.11932192485846754, -0.278912839177968, -0.1038561896074309, 0.02209694522451028, 0.013813691368962471, 0.009857021232886867, 0.010173098515588522, -0.007171209473442164, 0.00869058879406486, -0.007341864826665861, -0.018241818819884015, -0.09545734606628727, -0.13533154469211905, -0.22723687939921472, -0.46595524929505916, -0.3089309961647036, -0.2295256794556727, 0.03672291081236665, -0.17035809316270448, 0.37473991938990353, -0.05846527631642173, -0.14793088237141047, -0.16396845221689887, -0.06309197995006377, -0.20550342328325902, 0.12214160066299096, 0.09792234540565721, -0.1491845491514884, -0.18841674266563507, -0.24320734876363376, -0.1042261447247085, 0.016577984077669024, 0.016367514325455582, 0.023162647721789588, 0.007330653894378558, 0.007196201877281418, -0.002074056790730012, -0.0007785627969139772, -0.013302495728129363, -0.042420188879886224, -0.05501010445668767, -0.1834323515519445, -0.3734926577082694, -0.2466492083087106, -0.3887330400365046, 0.003059009256813262, -0.23779411974685952, 0.039382160577083734, -0.154227810014661, -0.044502935423459886, 0.253529776997705, -0.050033425589825486, 0.10930771382936554, 0.4548543762225062, 0.3503012282430577, 0.16998224222893205, -0.005647850910138997, -0.1787950457068315, -0.06694647580047225, -0.02172244197107339, -0.007405962199386413, 0.006231932146578925, -0.016874298488910595, 0.01574094662534757, 0.0026134482812888416, -0.0120525625124353, -0.01909203930157183, -0.03505548089183031, -0.050015929012055774, -0.08221407417361128, -0.3056509519590291, -0.32462734661301684, -0.0054818310351554475, -0.3148536724835267, 0.2293352189436146, 0.0928118059690577, -0.23469566743738116, -0.05848156131288982, -0.24605630848193255, -0.18520151376685978, -0.06565902542881871, 0.25014997597897043, 0.13478806982430339, 0.23205125259134554, 0.1280366977069305, -0.06846787014746332, -0.05370379516742762, -0.013680313151156039, -0.008342798220862853, 0.01947585337197645, 0.007928100563406898, -0.004679617778214878, -0.007739132648383171, -0.0032065702893258447, -0.002401185267040441, -0.021373723279377206, -0.045129558645795195, -0.05633407036670353, -0.15090690549079322, -0.07076866246416161, 0.14279283473095544, 0.14404273507066664, 0.4761800553733445, -0.1422855824388123, -0.40003063500398905, -0.23609201939401278, -0.22960404862257805, 0.006099327476768428, -0.259837163630487, -0.0724581498306685, 0.11456880705711212, 0.148353518022005, 0.2092774446711524, 0.13863844870343445, -0.005490322534771481, -0.014552946055027658, 0.0020466743932860357, -0.00104826398385033, -0.012150019417026746, -0.011427380876985166, -0.011409600639084855, -0.0031812125270658785, 0.005624461066285526, 0.012040338709306667, -0.03177203191319065, -0.051774548532054904, -0.12607053726235812, -0.0682035647839562, 0.11787371018180617, 0.10251048459928484, 0.185850812376106, 0.026794836794681573, -0.00971382904231119, -0.02273824654737405, -0.29748433826605564, -0.4890195768164701, -0.524765256015285, -0.36015624167550314, -0.3788679832985053, -0.10995916401245251, 0.07053878927586514, 0.10167608908394518, 0.03906997163330155, 0.005875240863125588, -0.005597243850663356, -0.011397159499873905, -0.01571530214034225, -0.0031753028002933707, 0.01057470538926802, -0.008827983192276645, -0.011506094695714533, 0.006607935886995353, -0.012659120790863851, -0.02510869320095656, -0.05431373848547317, -0.09193312361435636, -0.11152158826392451, -0.03491499725650618, -0.05153218626922866, -0.24114754953021636, -0.22440616195306662, -0.2867157938464298, -0.22460398868704648, -0.13736752552211945, -0.14259239874616733, -0.10595101275204352, -0.106983107826983, -0.17539956227541756, -0.09443984176979897, -0.03922028953649094, -0.0022055786955666365, 0.00600246946904099, 0.02058306854873216, 0.006404383486300079, 0.0063058924514264, -0.004831685418174096, -0.0053129204528377764, -0.00647784894642227, 0.005979900612057615, -0.0021163455824729665, 0.008200784845650625, -0.023988562293491757, -0.07021990811384939, -0.06840286084027547, -0.026683684857834865, -0.0009434793682032295, 0.006903984557367917, -0.057899200700380384, -0.019834310601782177, -0.02135258199867302, -0.007782318188997019, -0.016633231254931897, -0.01733429897901175, -0.006711718094032493, -0.007942692246837585, 0.007237348208466595, -0.0026030754374611648, 0.0026151279563492924, 0.0018447206663242514, -0.011019275700280738, -0.006525127664934243, 0.0024520184965934073, 0.008676713911704546], [0.003846446193214627, 0.01572628318461698, -0.004260834599428551, -0.012003669189793708, -0.0031898579312500627, 0.014259900937761846, -0.010709612689042585, -0.0066163735902419335, -0.013421793601601166, -0.0022606753715810877, -0.0036968038261944473, 0.010816978736727979, -0.012775987242442914, 0.0031225537259773053, 0.01478988911324541, 0.004672620277968555, 0.004929122336004458, -0.011683145480238863, -0.002315806958492235, 0.013153125423635337, 0.00936302646839089, -0.0016757438122895275, 0.002730792357856232, -0.010916433455329473, 0.0011796278257446774, 0.0054866062488601736, -0.004881308157419974, -0.0013505222603293692, 0.01336320760960033, 0.00010352853853403472, -0.007658452859049338, -0.002832749867167028, -0.0026323517677254776, -0.0028413002907138702, -0.041988249328909696, -0.0644143898533998, -0.06302247991791401, -0.027933738229295606, -0.03308328583965802, -0.04185322764481478, -0.06896949038556358, -0.030588478387053638, 0.005593628955319512, 0.012958791492425029, -0.00044086293289611386, -0.017977307612628994, -0.006868707044294677, -0.08604812877990972, -0.057456288020192314, -0.030441271337744373, -0.04701945806661333, -0.016523004506613724, -0.008467964709594657, -0.008042243177741631, -0.0037444046266356724, -0.00018672615744766148, 0.00044561327642567036, 0.014781802144064979, 0.0019837589229582484, -0.010466233400581412, 0.0019441912559436585, 0.0002053203574867013, -0.052734366357273174, -0.09939819618249882, -0.11983713940308602, -0.13427014727948153, -0.16435249886586528, -0.15259567971725552, -0.2594345249479067, -0.28039082133551324, -0.17631702581197206, -0.06655816693647112, -0.08764750517155614, -0.08945628685698337, 0.023149420807096272, -0.08121893034826021, -0.05028314993756401, -0.06082071017577202, -0.05524646596861211, -0.02964684118470928, -0.003965027073022419, -0.009866459232141302, 0.0011653752770229816, 0.0065024363467499685, 0.018015596203497977, -0.01413686760687199, 0.011538418909717714, -0.0024582196078777375, -0.013254576143776405, -0.06073667720455071, -0.22819929923360213, -0.35099955680369754, -0.3965944770568846, -0.4287617381287692, -0.5115302805891723, -0.6209419902015733, -0.5039846479929996, -0.5195785244150879, -0.54742387977116, -0.058122736891936366, -0.044059664248864566, 0.08210374999906438, 0.09572691219180178, 0.06459274950066934, -0.1038774263301296, -0.09970957614047349, -0.1586007069561173, -0.16065090132512377, -0.17195488915252677, -0.044148232667770335, -0.047956751141060135, 0.006612610515650004, 0.0035639332922706357, 0.006928052789885463, -0.017504302720735703, 0.003708707798116796, -0.04291828292443831, -0.12462191129430587, -0.21816918078837008, -0.349464375846394, -0.34324387841253784, -0.5247398701895064, -0.5589140121191951, -0.19677575668113076, -0.16002169108813868, -0.2508503859858129, 0.0017823129035539622, -0.04591862704194092, 0.09370404274021601, 0.08403746330186516, 0.16910892803728445, 0.03896831859292466, 0.04593117170994383, 0.020580711552042368, -0.19391956331404483, -0.18462964751105426, -0.08273791913229042, 0.030216624676935627, 0.04412215591688811, -0.044144868171955974, 0.01019498845405187, -0.00752251252394199, 0.005988837272733155, -0.0028801396099760127, -0.031610500173238854, 0.05499403484872069, 0.08246682461198729, 0.16321464244503978, 0.08971153712471124, 0.20599680257077402, -0.17622595060047108, 0.019390883833552437, 0.3103551125909531, -0.28762826782217915, -0.4043376219198989, -0.12959962818387225, 0.009505589393300932, 0.05158871326841341, -0.46324764679094077, -0.45178334344358584, -0.1575510840763199, 0.00901436802686346, 0.3025336124826268, -0.1417533997161424, -0.2858772178486696, -0.1323324660952569, -0.10832348172551903, -0.02686892553606403, 0.0010592464947793122, -0.01029427787662546, -0.021377363420628154, 0.037469860057717345, -0.008769588773335881, 0.0642118096608398, 0.1325515708635861, 0.163659984747012, 0.43360528887585925, 0.3138881391651959, 0.07033224834749541, -0.03975213529818823, 0.0471577527034059, 0.173327850475423, -0.05713932521063034, -0.0864170596878793, -0.09438406811649855, 0.12746571962902206, -0.07301394604790619, 0.2960285807673903, -0.046638502355899364, -0.2354081856461431, 0.08469561754659952, 0.16668977889044692, -0.16909794407614565, -0.205979651671436, -0.057433975225574065, -0.06327239689895367, 0.010420990234162656, -6.430488395943356e-05, -0.017211747178486093, 0.07201309570499131, -0.0007269360277194595, 0.07924864071461611, 0.15824445280256094, 0.17643054446443526, 0.4135173347450407, 0.285220701726694, 0.23731692778403407, -0.10211719789366147, -0.04641440591095502, 0.04641807374599536, -0.2978382454813113, 0.021454601763022153, 0.306039365225047, 0.34244870670953664, 0.007516385277101777, 0.10143098932852121, 0.16031984360703683, -0.08142631426024213, -0.07482523379906601, 0.3876566721388703, 0.09551096872009505, 0.08460823542868348, 0.020240576111559723, -0.031907068084289926, 0.008821674265830318, 0.009626973424128585, -0.010701751143123, 0.061479542104512744, 0.1747222196262692, -0.010477790447870079, 0.09240140986387983, 0.33573612434099637, 0.49950577044610195, 0.10180356238221099, 0.16861783128289648, 0.10285417912993769, -0.00024302822611503398, -0.015748869640351965, 0.008123595021091274, 0.53832642231257, 0.3720219769070346, 0.2673378146458667, 0.6519154087002578, 0.3960752750178117, 0.31716484574273907, 0.1293475781141982, 0.14309061652339278, 0.2934206632407879, 0.44725029030500235, 0.3302294277946178, 0.11943290778852655, 0.03407490809205466, 0.0015003140790243522, 0.005805711484796404, -0.022836736860386085, 0.10105784601508308, 0.23709873439804882, -0.01507502474323717, 0.16316970124193508, 0.22986274464230286, 0.5705242932030399, 0.22862209087782442, -0.15744235386569094, 0.5003243938680093, -0.2599203775417775, -0.09762580249898034, 0.09765111222127751, 0.04089403746337785, -0.015221930440778988, 0.1463924973300666, 0.07244299452992954, 0.24316709252882826, -0.011514586881333087, 0.15506944693501032, 0.2839485925713881, 0.10699785228093639, 0.35147505480802604, 0.4602115636350748, 0.10708563386601386, 0.005580695208662377, -0.010352937922713655, 0.00035903179101902556, -0.001535051438086043, 0.08247110720119369, 0.22441632011428025, -0.04608206122804509, 0.051353856631363604, 0.2088614245299691, 0.4234144994620038, 0.15592556257871878, 0.2951711836416849, 0.17117939719278724, -0.11316439479628004, -0.002782675075679684, -0.26332800423302677, -0.11416217271260694, 0.27624147884619205, 0.13463348642713485, 0.15280067894563987, 0.38147965846539056, 0.3648776679695119, 0.18506396195520292, 0.16671923615091142, 0.19240200895761686, 0.2053984316481069, 0.2946779484646245, 0.0788291114476217, 0.007178216032410497, 0.002167595889378634, -0.014238835598365883, 0.007036220629139544, 0.04635660945313167, 0.06025553916041472, -0.14089561634070574, -0.2217140776734296, 0.08018841010368943, 0.3686760718389629, 0.448845682323854, 0.4015846410819655, 0.05485078248224789, -0.2408818404357587, -0.18832645698581163, -0.21791784007924528, 0.3773523515076595, 0.2327312098837622, 0.2436793465083372, -0.15194094927705912, -0.3403328516911555, 0.3137526048196628, -0.24991982997520504, 0.11528174756470141, 0.34673895147232575, 0.12428944976130328, 0.28666473802181863, 0.1930622013423322, 0.01760891902797392, -0.004431899490817228, -0.001071710848851915, 0.007647321492351648, 0.04476370100319813, 0.08711299221126262, 0.07731656430318899, 0.20275818933421044, 0.29131963521210513, 0.12126539899559634, 0.2291685439825895, 0.24987580744229873, 0.27114774720995727, 0.16614326811234592, 0.26313014162503257, 0.19936481967864392, 0.14066401169497775, 0.11820237926469764, 0.018012812935460427, -0.017936426773805417, 0.35849046684216623, -0.19019354080553724, -0.15409070151344145, -0.0497592527328068, 0.21580834746363287, -0.29610487377919203, 0.1736267612131213, 0.1987753541387765, 0.0010291295437822288, 0.006147328802596466, 0.007443139814011079, 0.003965122856762241, 0.04014982844602641, 0.3105783437446257, 0.11307468057811566, 0.2971177668916461, 0.29927781899508443, 0.08774975976383834, 0.40623467995262813, 0.31079979884686787, 0.6475945403959238, 0.5556544779844131, 0.09396787544951314, -0.05710182704713828, 0.0774229700800119, 0.290629835516143, 0.011931860331964389, 0.05262648405554263, 0.020757944913799287, 0.4508336249737354, -0.07903024059473969, -0.13056528266605746, -0.29176164960234396, -0.44060623286073786, 0.10745064410804123, 0.11061935744106509, 0.01721836273445168, 0.0009936659964976653, 0.002464041464340932, 0.0032055594168985254, 0.0036601179648555597, 0.22361443469089765, 0.049724645597571684, 0.205083792435148, 0.05542155302565356, 0.07256087953617754, 0.06512616546646309, 0.25580020426916217, 0.25968878510600246, 0.1992088367938201, 0.14947066740664944, 0.31527266561926925, -0.1085602834492389, -0.08541706100752694, 0.4561440649898992, -0.10013931219988736, 0.033169227836082574, 0.03570946753757995, -0.14779834741687725, -0.059415473832874016, -0.19289770459660097, -0.17218412853480777, -0.03446577085933081, 0.011705633468822998, -0.0004030861645387968, 0.01038936879844527, -0.001716039805209033, -0.015038329558137341, -0.0075972832349771365, 0.2581350083821673, 0.13265700585143603, 0.2851694096854233, 0.12265320323759833, 0.07218549371324218, 0.2036155873239034, 0.05579212649373271, 0.12655748846585066, 0.13398400024114143, 0.21520907062484737, 0.3879418343787376, -0.03415070691749006, 0.05032697699746286, 0.21085600954522876, -0.023004489792209464, 0.2570941513183953, -0.26113300605803386, -0.10955810338321215, -0.0014548731735287157, -0.020999419980514567, -0.056379251361918944, -0.14279399441121443, 0.07033239645348452, 0.005390363098612509, -0.0021523032293379093, 0.005072486351815045, -0.020569384727335858, -0.009853042618381451, -0.04796232286440311, -0.13987680392848093, 0.029734163333372598, -0.13384796003224325, 0.007383145047700285, -0.0574554196602768, -0.3207704963905168, -0.5567523186222813, 0.3843793009557089, -0.11817014553542113, 0.015639912858726557, 0.21898248983943777, 0.363225034296699, 0.2189872282601022, -0.15891735656775388, -0.3273732291563483, -0.28699545804552457, 0.06083624641516418, -0.1327635405516808, -0.19617540142480494, -0.16285543379202455, -0.16529967167912157, 0.05735984248156814, 0.00437120058550732, -0.0003639711823770557, -0.005380258376819246, 0.001293502411998139, 0.0005158432307498451, -0.3603073364855711, -0.32139303556015714, 0.18528919751612363, -0.0017502239044158293, -0.15797566409392533, 0.11152775039240682, -0.19808813236231784, -0.3550775867600191, -0.10764557447677077, 0.1779974405150344, 0.49981511847348986, 0.5858535356937908, -0.05198656874804824, -0.15674840449654126, -0.13874920515203187, -0.1387312810954696, -0.21829780592962847, 0.023883507167654392, -0.12607470876516452, -0.09872211989726737, -0.1034908000076685, -0.25019501252580073, -0.04167061377461015, -0.003967924972358086, 0.004195216509777242, -0.006663064089789272, 0.0025121504705984525, -0.10160756296047148, -0.535826114669397, -0.3464683406645853, 0.18362252726175646, 0.05097439171833122, 0.042957126400130004, -0.10331550518233104, 0.17814701827777427, -0.011472074631573154, 0.024332109627865865, -0.184347640901767, -0.08979944122462, -0.45967054376850364, -0.6953480044588392, -0.04448468617607844, -0.350933443350613, -0.24323057376108778, -0.19139756825199442, 0.05076938780205609, -0.1198143336637053, 0.0313694378955019, -0.2376141927008191, -0.06333027882967489, 0.026217065199945495, 0.01053072219238026, -0.008529800195323524, -0.008736621826887512, 0.03173679413372488, -0.12493386629340798, -0.5015661521821649, -0.5420049836448507, 0.025732356004118308, -0.11230316839773151, -0.4329414981321755, -0.3276874888367518, -0.537693352820318, -0.5457594795154698, -0.4981505711867195, -0.28438877862116546, -0.6151335582279273, -0.527697099698261, -0.16289453726671738, -0.4162615345456306, -0.3916270194506541, -0.28691049583690487, -0.11641305040684619, -0.18570409899930274, -0.29108595318172614, -0.08388301028503378, -0.0902583136253618, 0.018927601318423005, 6.571969254818843e-05, 0.0052879868157519, 0.003636237042492037, 0.007420226881737572, 0.005714294849227421, -0.11451367141511343, -0.45466566886658055, -0.5934593679967408, -0.32502938643398527, -0.554409564402926, -0.5237951436521827, -0.4613206726285391, -0.5543376830432746, -0.6484479218847037, -0.6466767067230537, -0.36430530327936905, -0.419947935825148, -0.0693525705224005, -0.24051291970886463, -0.3476535112037439, -0.3756450925051265, -0.35683160595201624, -0.3655862990124663, -0.270921240014103, -0.3730083725058818, -0.20648186808878624, 0.009182033289099502, 0.06566677098723459, -0.013948284415222223, -0.021687655324636228, -0.005384900497645199, -0.0069282572192412165, -0.004791934439519056, -0.12047118109592418, -0.20002075493168894, -0.22272324645354247, -0.03148242876782643, -0.17868984688688944, -0.42167345502108444, -0.49910314768729136, -0.5251565098205757, -0.4255108802298099, -0.38235195526369425, -0.44881863832518504, -0.5490138920547708, -0.0018308321488567742, 0.05197928300038641, -0.13925470775599338, -0.40613330610503595, -0.2435079373225621, 0.05947208276767508, 0.03517938045358328, -0.37487240912353276, -0.3034908666356872, -0.013902137055999146, -0.05644951986234524, -0.0568433118730169, 0.006504529235065568, -0.010775221798171131, 0.013418676602593346, 0.00261495541002132, -0.06668914912452875, 0.12969797053537918, 0.09925321328698357, 0.14452924827992458, 0.021147989456214263, 0.045417116130420716, 0.12338618953476424, -0.3409929058958801, -0.15228806911639786, -0.1605620329823687, -0.40578239708450214, -0.4154037258659913, -0.3041705144193929, -0.40214808273945657, -0.10109947689293296, 0.06692813001272885, 0.09105535443101632, -0.025863241501651698, -0.18842224707103172, -0.17335395325065828, -0.18224914131140935, -0.04466472720819021, -0.018312731632474474, -0.004390893208876742, -0.005957013931086993, -0.009347549113110662, 0.00649986866824737, 0.009013461585611412, 0.03792103126731455, 0.17047950593226444, 0.1079281165544801, 0.012855612527966985, 0.11613255788615705, -0.0028294813040007716, -0.14630539330538636, 0.06644237291076799, -0.07915004935306955, -0.10554635069572858, -0.2532867686905841, 0.006663729335533894, 0.07949567570126846, -0.017051157194265334, 0.09917877974219977, 0.16852116820947527, 0.2943223584409853, 0.05968255960469611, -0.04167348862708777, -0.061669293328608175, 0.022519391795217048, -0.11392614549738667, -0.10587687038017854, 0.0027328821596104913, -0.005230229910301563, -0.0008026243297960672, 0.00051443241079701, 0.030429645779997724, 0.02708211808323128, 0.049719027848008794, 0.08092983985458163, -0.0009052293792256099, 0.007433604619371557, 0.15045235439824958, 0.17965462976691232, 0.5429462551581652, 0.4298180847655347, 0.2957247318814335, 0.2787393958334512, 0.23050087031316777, 0.5290054040199723, 0.20596996561245856, 0.632894610901688, 0.5424069335426183, 0.4188357949009979, 0.40343754313844377, 0.04087448213395318, 0.04356448190711359, 0.10845512119673639, 0.021410295243291105, -0.031720512486417274, 0.006517234985568169, 0.010709110289374775, -0.002176893031135933, 0.0001757768751493829, -0.006704738814258986, 0.013809145174858433, 0.028413780508771063, 0.10605584950366125, 0.12815731491204696, 0.15463826956742333, 0.2239918733224192, 0.4513308068853904, 0.5499948407638963, 0.48761500814699005, 0.44700793673181116, 0.5078768049130903, 0.5711910504199933, 0.5362679910801711, 0.3008666815774217, 0.187217291309117, 0.24666530609166298, 0.3157662471129076, 0.35096795497184613, 0.2353877117523221, 0.07162103119205508, 0.06265409224238071, 0.017422152384751238, 0.0022081177554798105, 0.016113555432224955, -0.001486992619177267, -0.010542279257063645, 0.006037289876925965, 0.009238360408374445, -0.003108621595593696, 0.007600755860488617, 0.08251391275112056, 0.05896789894214638, 0.049451052646723975, 0.04207785463135838, 0.09017880701210698, 0.04294111753371393, 0.086569571275592, 0.06186241937255378, 0.05493694344524871, 0.020017706229507777, 0.037355161432174926, 0.04723309727498216, 0.015199402213316997, 0.0220381033275344, 0.021550043448851683, 0.10011352235992338, 0.060343963506442506, 0.014308555131594304, 0.00519184629205559, 0.006226961045266099, -0.004418419493990885, 0.0022261658527065018, -0.010490423121368986, 0.007005152538523522, -0.0013467163252809493, 0.0044982518831690405, -0.004211683033973538, -0.01066981812975083, 0.012296391910171815, -0.011722439283583559, 0.001310533969258608, -0.015613093213086467, -0.007311770329291168, 0.023599631656256816, 0.005515547378996824, -0.0018175649228881075, 0.004867319679403013, 0.022932665574073648, 0.005810689712858728, 0.0048882577645238115, -0.0026684562350827593, 0.013010119640211072, -0.0019125936581272512, -0.006727528087035051, 0.00937499058747572, 0.008881822095196275, 0.003597470602816476, -0.0010534242500242915, 0.01642704278502287, -0.0004742262176049745, -0.00039121471430337906], [0.003944181305421769, -0.0017642696363600557, -0.00716093959177533, -0.003053029873128968, 0.001305762273106534, 0.0021383711903136438, -0.005912312257193944, -9.425094858765889e-05, -0.014079367753397663, 0.0031469700035422063, 0.00892588758547506, 0.004867969217638064, -0.011738382341351907, 0.004981675909383052, -0.012627766254972759, -0.003232884712593715, -0.002704872553281176, 0.008801994398377097, -0.0020170397710860487, -0.0005133236229937192, 0.007135828823689468, -0.014442172697147235, -0.006446379261522837, 0.0033842894228960667, -0.00922396005863415, 0.003548145466624966, 0.020062715883486192, 0.0024898206235935056, -0.0022360105481635745, -0.0042406454666229255, -0.0064381898606953245, -0.007963179459510179, 0.008373741384810418, 0.004036629292796902, 0.00678132842570924, 0.006011782990252968, 0.010275898818001509, -0.0038366387840813466, 0.006252749852402725, -0.014977844164933462, 5.8137236205293364e-05, 0.010475417570490158, 0.03699027905250652, 0.09937243741765293, -0.06532549113306278, -0.02619364209642405, 0.007615480753105412, 0.01718344946677845, 0.007674340297127862, 0.007644604280100771, 0.014596355070154875, -0.0008320094617855221, -0.0034615168118849963, 0.008732050977086823, -0.011593674533793012, -0.006363354607191452, 0.0073603968673842095, -0.00652131404139163, -0.006734797013553049, -0.01313274716763825, 0.00855111503367803, 0.009701457876486524, 0.00545015327712668, -0.0035860949131651687, -0.004875823549662755, -0.008991361069632836, 0.0005974616504649134, -0.017128002336414927, -0.02696573577588304, -0.07428999788368389, -0.1417869824967486, -0.05657842630827206, -0.09803167096331492, -0.023849667242106562, -0.0010348667495335329, 0.020452543794602065, -0.0025152121552986084, 0.02252048353623155, 0.00464359710187588, 0.004455030181519122, -0.004761016172365633, -0.008081791201581102, 0.005849012287945564, 0.0042542427689490955, -0.0035762010739084963, 0.005427736262607106, 0.017388372979976037, -0.004131056423774061, 0.0045882222133864, -0.004304885638696953, 0.011345144830533293, -0.011923037226313382, 0.0046540127309408815, -0.022782219657870997, -0.04636160881471394, -0.09515608220188777, -0.12309471360247619, -0.3634065242805671, -0.6481469410244758, -0.5788617469040627, -0.5821122102766697, -0.3946788857360389, -0.26954075113990167, 0.061211765384773055, -0.015724488727603826, -0.13352914171475053, -0.03185428738744292, 0.016661616156328926, 0.031694362372201156, -0.015911126351702217, -0.001531019156178608, -0.01573660194152109, -0.012519118970057471, 0.0025037880133225716, -0.008697994201863625, 0.00782148263412287, -0.013426709172320944, -0.005020670631363933, -0.014543831893704196, 0.0025281004244508535, -0.007477406816134556, -0.087105227934139, -0.17820240036754223, -0.3587776503040913, -0.3781674559783616, -0.4237157403958342, -0.3257633919653579, -0.19145842128545526, 0.3213004882840567, 0.04418399737368738, -0.2870808461145697, 0.11060476309144052, 0.11970955337206489, -0.262766274893553, -0.12380001560801528, 0.1600683675784212, 0.10042490787875127, -0.07527966713863281, -0.024426583197655616, -0.022645586797647513, -0.011338467589465936, 0.007902905122580253, 0.005092390513067656, 0.010132896107228333, 0.009518062418757118, 0.010283283111626369, -0.010361279573247935, 0.00018867935821605938, -0.1638933693483637, -0.23051268879073628, -0.37121659050698574, -0.5890846134584463, -0.602065289375365, -0.3554020197840003, -0.12194551979112656, 0.117891978096452, -0.07992260176159684, -0.2644797725355815, -0.3878480260984764, -0.29089250152842316, -0.038413660348592976, 0.11360938755779354, 0.08331115594254447, 0.26776725722099803, 0.22690859166328575, -0.10150882102763692, -0.018238740398172342, -0.014627959535097454, 0.009106332339433483, -0.008892845716019093, 0.007076917232587807, 0.058953528053503144, 0.016262176613700798, -0.025558125696446648, -0.06217006108645657, -0.02804125013553989, 0.06288911078405841, -0.027799794298161585, -0.23002630636398255, -0.4302800418588146, -0.47967408170793213, -0.4381619745639764, -0.09459763056103118, -0.5055241327752805, -0.2462317724410308, -0.010357296134469755, -0.19028390514330826, -0.14639238821475814, 0.14884279508931475, -0.08817081563383164, 0.20084177770966055, 0.24381116079198434, 0.07887105953174978, -0.03839185477334432, 0.024559252346571442, 0.0029101718114445427, -0.002096776275545575, 0.006674123512315574, 0.001817607506494128, -0.012282987332488605, 0.010437671666642752, -0.010736189701993222, -0.06621769087373014, 0.10434331919736052, 0.055438040369426136, -0.018026110141362916, -0.31328412495677366, -0.6434678797499827, -0.5717964785287175, -0.046466872016479185, 0.33908590747486433, -0.15082672798807936, 0.06627734178344502, -0.09913130353859087, -0.1462218790886581, 0.14004860591037085, 0.1882086044921284, 0.030393398856159375, 0.05827816126636793, 0.023861548879225487, -0.18813305828587212, -0.09583556536153957, 0.07867726897726332, -0.00342906405742208, 0.003107213683372014, 0.004298049060185568, 0.0012447810120425717, -0.007739467676914836, 0.01672421943765621, -0.016291294098867152, -0.1478220175044907, -0.05721109964358602, -0.11892463191707929, -0.24231918139435032, -0.36904197341769235, -0.6582495392104474, -0.8734264282522117, -0.3902366517268923, 0.05648592210798672, 0.18205169993461529, -0.10010847625273546, 0.19070508750068096, -0.1716214553456574, -0.19877938705428114, 0.017686286335128205, -0.16148224514213386, -0.06745790770709968, -0.3382414022336707, -0.30756637850387575, -0.0325897834073849, 0.017768249521637646, -0.008966807124828495, 0.009708078658427646, -0.0108821576102013, 0.010603934026145538, 0.009764810789863172, -0.007527971689480026, -0.09075481298341369, -0.21748086292616373, -0.08876424936233152, -0.19494497715897602, -0.2551980778165875, -0.2939597615418815, -0.5655459009138648, -0.709324528006748, -0.2561818795770349, -0.2430329556784467, 0.12894707465519314, 0.7225864304916316, 0.4051881845065527, -0.034329188460799624, -0.4525640938676646, -0.18856059112119156, -0.13190757907260472, -0.03585221597216312, -0.2043666278265873, -0.09870205778517616, -0.07824541502946125, 0.04393693313595138, -0.0011746638949876643, 0.007205547621879272, 0.005013338103793958, -0.013914554349277547, 0.008562891440657219, -0.0021705627749526264, -0.07662265086885227, -0.16525449134083509, -0.1625019582630584, -0.24236446012097787, -0.30840950026843295, -0.2708194235667344, -0.6853251999701112, -0.5230329525084758, -0.3920057745585457, 0.06683481215503677, 0.39564140113977697, 0.5879002220606512, 0.5136512381799475, 0.20882645877080705, -0.13089037737798181, -0.08031794626399427, 0.03305849982590052, 0.12370971458085805, 0.06403219652963425, 0.1657905464039802, 0.1643332850845713, 0.02602617500797181, -0.008365521570683845, 0.0037855811814131095, 0.011965362890519323, 0.0011110016523283586, -0.0016133367072916193, -0.002055681795128642, -0.06118178985112072, -0.12221289927013966, -0.2506644878488105, -0.2982887297056692, -0.32718608657510784, -0.3612669931507119, -0.2703410315848076, -0.18289677161222506, 0.2284372480830948, 0.11079894071413902, 0.29050049797088034, 0.1960887468124373, 0.33841290944058544, 0.381908030392458, -0.14850032222144913, -0.02751706448474582, 0.26032270172608163, -0.04157992609527855, 0.06862817351223265, 0.07604773542534338, -0.012086352801845302, -0.011774850902777967, -0.013310719144081792, -0.006463933329025102, 0.004796047572576425, 0.00835026590988841, -0.00683544270683053, 0.02154813440751889, -0.10823241382283619, -0.20501643787172977, -0.2087257675794074, -0.4017394398554561, -0.3367597472226819, -0.2552395398403181, -0.1928417790060739, 0.11087199177842237, 0.2249563961835082, 0.4427708906346363, 0.09435137920053277, 0.14570055173087013, 0.14729454753421276, -0.0690719223585584, -0.26746559155988375, -0.334657878459314, -0.009531700262865277, -0.11435688654240077, -0.079578585495008, -0.0872591917810794, -0.06487866749204951, -0.01224953077680492, -0.003931020683203259, -0.0008992631126042123, 0.016419100122792338, 0.0004714258576949435, 0.011154853597624598, -0.022129560910171917, -0.13186866159715493, -0.23760620411179248, -0.16935790011197357, -0.2448053039875926, -0.1540927622268903, -0.06533639964720314, 0.17367236943361264, 0.36916777835931514, 0.005291627583846007, 0.25926932481449716, -0.29715086689752, -0.0025886019084296586, 0.4557512738824348, -0.3887008074066433, -0.3203513295582744, -0.4033258454964602, -0.1868380406912776, -0.1353385565076128, -0.13071442735785802, -0.09972937428744343, -0.054137726597475656, -0.04490883164342793, -0.010372299025437307, -0.0056431238367449735, 0.009131590988250634, 0.0006599570234596384, 0.024624993194873462, -0.060903419371336975, -0.05648629118431696, -0.1725318170635355, -0.046555170550998996, -0.1268979178801534, -0.03362750792071357, -0.015099797792158347, 0.352063263106563, -0.15825531705272852, -0.20237094886508977, 0.07748396046944071, -0.240380075345065, 0.11588563884040129, 0.06848327734775995, -0.4686185351707616, -0.35372906119252034, -0.3039510119322347, -0.11246270468068949, -0.16503627881379307, -0.14730256835042366, -0.10796687028913912, -0.0701703728923947, -0.040859140271996865, 0.0010469394608199135, 0.013389951711789373, -0.003917217719891512, 0.009766715101734637, 0.01672080693752533, 0.03993536368387778, 0.0899159328328679, -0.01881970062225551, 0.06959596259303628, 0.16126394390788806, 0.35325985002030313, 0.1194402164981872, 0.2236447633903254, 0.12166433077471298, 0.17331757635117023, -0.036683667654953206, -0.015556143888562787, 0.2808148338409192, -0.20158944283288563, -0.36530921844350894, -0.4464601579873916, -0.2371816899014622, -0.17690658989474303, -0.16617543525026435, -0.14676209501523613, -0.1556564051645014, -0.08659102586337156, -0.021735995081444637, -0.0014661236380615298, -0.009644564065299848, -0.0007214982218441591, 0.0015545725011880548, 0.017377987892890263, 0.021586275700202502, 0.2409725856679033, -0.014041515767113884, -0.24569599269843903, -0.1561578067426937, -0.018689836792821726, -0.21419644220195908, 0.21650358393163374, 0.07589859802542988, 0.6616113090358732, -0.17545924944008173, 0.1818400704853975, 0.2368574686428677, -0.09654748158250695, -0.021169397878874816, -0.15802527805267372, -0.18200329887983574, -0.1520604851674505, -0.11516051314718323, -0.05893610692563872, 0.029774986543544248, -0.02035332317405918, -0.00457760671361213, 0.013852539206909176, 0.013943481306071483, -0.006490226746799392, -0.022547158539528482, 0.0008827915696508782, 0.020485248888926826, 0.04402536550963254, -0.12124312439149257, -0.42280684384706774, -0.47475645238413067, -0.36268447101992307, 0.05122927764176006, 0.11738993190453344, 0.33223025532724026, 0.31395670480443144, -0.15597872504294083, -0.24676277722537607, 0.033937038392273494, -0.18407978011663179, 0.09932184780604184, 0.033981253089371714, -0.10952045763330992, 0.00880149409794471, 0.04292353653894602, 0.03972217743796315, 0.10339006702285235, 0.11000648618604585, 0.06302889609305824, 0.002082000798430725, -0.011213607048894675, 0.010081306278889087, -0.00876688458634943, -0.012725963328314448, -0.027470968362313924, -0.1542849058290905, -0.5068498976378434, -0.452154584433115, -0.2753536809031445, 0.03155797855784469, 0.18808677975416774, 0.2685696985131101, 0.3637079932059308, 0.09962930799032281, -0.29278474929574044, -0.2355854962431873, -0.21767138395817745, -0.46196452477426825, -0.00010786687442117768, 0.06640806247167425, -0.0793685765836058, -0.06767528942117827, -0.08858361796724751, -0.05731720899640797, 0.043722041834450415, 0.09989500197840627, 0.06849052780167576, 0.02420527336653676, -0.006572143093288503, 0.01696105010730792, -0.020697593142869706, -0.03642027857028203, -0.17447731151117965, -0.3156282910423758, -0.22522556756638337, -0.07679318985050662, 0.1036204885900159, 0.14465722884022175, -0.18582436855589593, 0.21928522546248727, 0.30392488085166397, 0.2725766655469586, -0.24475556966792109, -0.397246122659617, -0.36357461606248004, -0.3588121172594106, 0.07661871535823224, 0.05361231339147089, -0.08586292232829126, -0.11383433266371405, -0.13044180522673707, -0.07995818034939454, 0.0408727441230578, 0.09262152948990389, 0.05030170309718707, 0.02343816128990427, -0.0005295071602021636, -0.010120228808921664, -0.009959931348568919, -0.05945064271561185, -0.04833107067169799, -0.22468825205214882, 0.20476681056642693, -0.1958012190488652, 0.11875689860818033, -0.06167161963202266, -0.1752560650043119, 0.07944576234494927, 0.22342061380114606, -0.21000509648816226, 0.10669182839582049, -0.16626699580954862, -0.2301309363632256, -0.30011116255604386, -0.07344724287511177, -0.03508367280829234, 0.02751498321061904, -0.12575729811542638, -0.0775216490446849, -0.0024117927493365436, 0.0938939318675592, 0.05832480504114188, 0.04032460455619832, 0.008952739354340579, 0.012057940582946491, 0.01603026894457884, 0.0007590736851918822, -0.019353572784121965, -0.10336039197910746, 0.05795324604973827, 0.007473351911395362, -0.30088217833816167, -0.0536247180288613, 0.006005241462570689, 0.018546078785433164, -0.3062995191253155, -0.09343782312989661, -0.4395336849638289, -0.06646914342491181, -0.300597193500463, -0.5883651271266559, -0.3368643629438457, -0.20197208403059258, -0.1630848753209101, 0.09889601156041003, 0.05523183328568744, 0.047567942163580366, 0.02227502874895934, 0.10127967034422707, 0.014914232093660188, -0.007984065447941004, 0.0046210238212874575, -0.0011041648531735615, 0.001725483239137748, -0.010593036154706999, 0.00042273810523064395, -0.0413989319255455, 0.13084930115456692, 0.1433467900686711, -0.3207209183144601, -0.13277129283461653, 0.0001734635209768155, -0.1712295856679715, -0.3790441264716, -0.6098925158512635, -0.16061640219013484, -0.06133702184836275, -0.3068448954399377, -0.2012981747198662, -0.1874377135284128, -0.2031029158814099, -0.025694086097407587, 0.0930486577901268, 0.09555382050545173, 0.11376521070222206, 0.12094709825998871, 0.010868074490641252, 0.0037688328420242205, 0.0034601968689802094, 0.004883008362484226, -0.0038629882075244294, -0.00372911890836153, -0.01458022310748362, -0.015110825611975987, -0.13380434976658165, 0.11289608606485878, 0.1827547653720687, 0.020136209081137346, -0.08772178945516663, -0.2303007919903115, -0.20748423148562864, -0.05982551967598239, 0.13531783757372876, 0.15646461117101937, 0.17376521087679475, 0.1963902110921285, -0.01866951513888907, -0.13528549750648688, -0.26572141398035143, -0.23821841779364117, -0.04471874702204082, -0.08968682511939678, -0.030605278208804272, -0.002810464909334099, 0.014539832022402615, 0.021693243509561564, 0.03251623333792349, 0.002529852578223113, -0.01136451599548568, -0.011241519873578364, -0.0004769380966866823, -0.004622643364236657, -0.09931339725784855, -0.17303546751160342, -0.22119276743756336, -0.19327089783256432, -0.14312824423081794, 0.1183784217620299, -0.3385846377192146, -0.28490138770501505, -0.5282437337447964, -0.1616735541310034, 0.30996864195522505, 0.3039344451218645, -0.080615671835026, -0.12981576158660352, -0.12103319326489982, -0.0947065640394952, -0.07867627594437271, -0.05325528960472732, -0.015415116958885177, -0.004110506138350902, -0.00558729217689854, -0.007185640371797359, 0.0041568877847443135, 0.006426574987955647, -0.0008015312035668766, -0.008541932750926852, 0.008558835272650292, 0.008980693507890946, -0.017046788207310124, -0.07932447919275513, -0.16571968629224662, -0.19208429984070383, 0.12856275973034673, 0.19314045409837882, -0.34148243882192875, -0.29513979937134743, -0.23217984614018713, -0.03334061994683651, -0.09006036272502847, -0.1788061172862042, -0.14527946122750932, -0.03685981018730477, -0.029724449530625398, -0.005084558453867233, -0.014915841269743504, -0.008178797855346578, -0.004413690845719202, 0.0155680695906641, 0.0015377295033760867, -0.005550940666427315, -0.009666037199477534, 0.014033985330643225, 0.004652821854521292, 0.00903875169513113, 0.007551465772307221, 0.01592072881014284, -0.005484300586386019, -0.021317833031261193, -0.02699149636277413, -0.02374845977141509, -0.0014371355424534623, -0.006563497844376621, -0.09700372114063346, -0.14959326723426844, -0.19924583674277183, -0.10874271843820048, -0.030618157132081606, 0.021934688496295904, -0.032908130528809636, -0.015985696991983673, -0.026366141810680536, -0.008799970560594167, 0.006100049812299997, 0.0025658833253461378, 0.0014713965974264432, -0.02362814745737481, -0.004464229210683031, 0.001196222126817783, 0.02072025198481874, 0.01000477220717206, -0.012501144465952145, 0.0024748133879215757, 0.00023101992015902285, -0.006916757617939789, -0.01270477402567524, 0.0026813417264572948, 0.014956385353418906, 0.0004236481772511631, 0.0018706023019011706, 0.0024995229091733227, -0.004283767619160791, -0.009290122536250858, 0.004106606421520523, 0.01187134352912621, 0.008426630310971954, -0.0009316175868421969, 0.000205381747452106, 0.015285210481959959, -0.021138118539973567, 0.02087529588533278, -0.0014022370859892192, 0.008134132213651337, 0.006193815079860545, -0.006364194921710915, -0.004558455226903945, -0.004135476903859186, 0.0015571480493122602, 0.009797294142471956], [-0.00879373673087636, -0.0010084526727164192, -0.0007474129847943617, -0.006927414853020916, -0.005720204135436795, 0.0035756480154181987, 0.011450714883332156, 0.0017397965486984294, 0.00621979004990863, 0.014451648611008162, -0.0034243507485275907, -0.00038134610002578574, -0.005377429717876835, -0.012017651582891717, -0.007679842730676095, 0.0037052747753180855, -0.0001396874289898407, 0.0045668428037506335, -6.149757267520749e-05, -0.005028822612769226, -0.008656939317877784, -0.008281272882885264, 0.0001943265927356763, 0.007788710274167017, -0.003446048957902379, -0.0031629168079377406, 0.019471413165576865, -0.006724529078973678, 0.012175263762280068, -0.017210856033848396, -0.003668977479818233, 0.012517539615443331, -0.007362398004278418, -0.00024184031548070504, -0.017604664231940813, 4.600204240302307e-05, -0.008164214910654236, 0.000555734120068386, -0.017231055822967908, 0.0007934145208835768, -0.011521130329587003, -0.00532625334444225, 0.004203549845550634, 0.001185025098272626, 0.013191116834363796, -0.00946487791374453, 0.0022622034076454204, -0.004004776136743581, 0.004784042554131005, 0.0066345960432424265, 0.010821278731350047, 0.005154804880084714, -0.023538278321170114, -0.0013026100898452235, -0.006259784302900983, 0.00693160142600332, -0.004710723907852124, -0.0061613294167019135, 0.002226278301146244, 0.0003877686387460856, -0.0017816650132884788, 0.0034916417691035198, 0.002342955032900466, 0.007085473717347998, -0.013287177170576491, -0.007572226053457243, 0.002298893846129252, -0.0008885489575217963, -0.006169107298548211, 0.046099072090595467, 0.008552089738058358, -0.09426021999959748, -0.09881053448310133, -0.18158209968091743, -0.15345222411454842, -0.10647900129833678, -0.045757141985810386, -0.008518910993224499, -0.019562449124028818, 0.006007358017444219, -0.00010552610865179435, 0.008421396961947743, -0.0006352524644184265, 0.013996589241287738, -0.005226269224294711, -0.002059946418083354, 0.006796349918841586, 0.0033542745222847397, 0.002690033004512188, 0.00025417469503876273, 0.009185177423648933, 0.005070256333413661, -0.0022863902721114346, 0.016118404094522146, 0.051716872884547536, 0.0922571367206769, 0.045098729384863076, 0.0378064600921296, 0.12646775707065275, -0.29351308713116164, -0.2832273905159503, -0.07171060746752726, -0.00017179319621409437, -0.1124451031331595, -0.01942800169167153, 0.08186102871951902, 0.1297943654276764, 0.17556797267666005, 0.04154382364398548, -0.0036706529305443147, -0.00373582937435178, -0.010040694821549108, -0.005744247196322483, -0.006704065532672804, -0.009269618640744298, 0.00029854587307477816, 0.027646126008578856, 0.08029339699904915, 0.05245587063803391, 0.11769560954463797, 0.06088323031748822, -0.13998973328014594, -0.11721367477475125, -0.008794773085573596, 0.2972461921490815, 0.3742863224251215, 0.10991420708921705, -0.08361738803021451, 0.06679600537836115, 0.30141828718783886, 0.08441169182389703, -0.019861188243977687, 0.03399636675394099, -0.18953763158754783, -0.1323994676200015, -0.11452432752434738, -0.15479180374578297, -0.1167661506805726, -0.02184435237712167, -0.000747387594680724, -0.009191410823325384, -0.007463471235412531, 0.00253581502964688, 0.01523367225305686, 0.14617627137179845, 0.14273119373195925, 0.1296011405674873, 0.2979630074934951, -0.06586203261049153, -0.07930348249976756, -0.010987635223225416, -0.008441330871027546, 0.05865760564825574, 0.021814197974335262, -0.03536269739607068, 0.321451818969616, -0.07628982809934491, -0.30017780759286894, -0.45705065327453415, -0.04454124768611546, -0.31132568166813024, -0.006174993248803355, -0.006571984598725546, -0.2745152896267178, -0.12840116580622338, -0.08814470894142712, -0.03250821944618119, -0.003551114432925303, -0.003091068688927521, 0.0018908073459877222, -0.025614378513614068, 0.024143836604381505, 0.12735855062427937, 0.10261387065779431, 0.39036359531577186, 0.07082372815077184, 0.008498023420423727, -0.1857632669339832, -0.1460908569147409, -0.19944973126093546, 0.040780154585168676, 0.1411521471417243, -0.1253527960091509, -0.13627910083606407, -0.09072614294577733, -0.3077949451241474, -0.1411747156504462, -0.3829156898317211, -0.42682494530330156, -0.3382619547957782, -0.02872238954570365, -0.15127351192047772, -0.40698495995357037, -0.1812744821684971, -0.04631927199446181, -0.002264892269974409, -0.002212687333193547, 0.012822341813190745, 0.0357036975616058, 0.02304764270881738, 0.07406376870929085, -0.024455537010078826, 0.2554504638164478, -0.025422285585899113, -0.17486624293469089, -0.02082985178780149, -0.09505865263059285, 0.11011811817407761, -0.16345556135913936, 0.3710966643829495, -0.12686577614985825, -0.4799031811866248, -0.42480020430424975, -0.2712355667705213, -0.6097624543745352, -0.2389063763596087, -0.5347060038237866, -0.5395692979345672, -0.1689182069183391, -0.060199191505112055, -0.33191518086234223, -0.2489844793771123, -0.03834553971121489, -0.0045179357136622056, 0.007675785883510354, -0.004838672709322997, 0.03019048820076121, -0.09273788919903546, 0.15967151931751342, 0.07275035091722637, 0.1492386648909766, 0.14546550178153902, 0.04014428188360932, -0.01938785796896453, 0.24357892249930638, -0.10676578781213326, -0.18415452668823953, 0.08049568892847643, 0.3374519066156738, -0.4952074807909022, -0.5752030030255298, -0.4127519780101973, -0.50607354883192, -0.153581176037482, 0.06054249392273466, 0.19371024692274752, -0.06751268042742488, -0.1574177632059564, -0.1438857673182851, -0.012600215752751692, -0.011902583788548263, 0.010147199281376546, -0.0022635514824493335, 0.01223334465478215, -0.00861498096236448, -0.11468629018957935, 0.08375718485120058, 0.16603794616802245, 0.22906534819615687, 0.137535153372919, -0.062252612540643903, -0.26123917148700676, 0.0034254463951091467, -0.04685090641538875, -0.3200336479707807, 0.37298093679963706, 0.2248840652685936, 0.49002627805799737, 0.3828492653862879, 0.5745120953506472, 0.4763011313487806, 0.6659259717143328, 0.49814859502057096, 0.5879442407355406, 0.26292080831885417, 0.35757425047000924, 0.1840094833991915, 0.05139935322080132, 0.011713156945538693, 0.0004918919907691519, -0.00426198648320911, 0.004906915178839359, -0.038026235128269255, -0.22501281824188854, -0.06187606512210528, -0.008209321114873238, -0.2266868967872585, 0.04607708195075996, 0.19360177221874472, -0.1364228654555595, 0.00575683236402687, -0.021967570042113048, -0.20402202215012039, 0.8923068555056872, 1.2515082081788513, 0.8843639812865041, 1.3336172594398492, 1.5041671196870352, 1.4470072657809465, 1.1580522305212613, 0.6832112261666685, 0.7124891508199257, 0.6003258264983914, 0.5932812184962934, 0.23834064172896155, -0.04004490652131316, -0.03170278863190651, -0.012681887863913124, 0.006670319642641454, 0.0015650357487291054, -0.07486271817920315, -0.14097616220530224, -0.17614230752519827, -0.18980181519856368, -0.14774596603882975, 0.10632916644957603, 0.22899883916206767, 0.029195873022681253, 0.17439009287058596, 0.5191598039458304, 0.41528554057760286, 0.3351720850567522, -0.047344332870318716, -0.10633026522501676, -0.18727909032728918, 0.28129228797528255, 0.48866968879433526, 0.565806472339817, 0.48605829880159757, 0.7511201314654923, 0.6286348672220218, 0.44786612910825807, 0.3668058623390215, 0.07256164993813695, -0.003860494569740071, -0.0044770943645383934, 0.0023642197645497463, -0.004152393091159756, 0.001816707088429183, 0.005166593213859806, -0.11378111107215425, 0.11143792013810574, 0.10069006981253603, 0.06173456528777774, -0.24992574805883097, 0.20351648454219892, 0.23267059274016866, 0.24815344646813045, 0.3871117807883138, 0.0024569323560607297, 0.0800341298604274, -0.16394818608835798, -0.03777273459668433, -0.2224191938332793, -0.36289937828077307, 0.013982735465475526, 0.1753067350185242, 0.3629421940960609, 0.1519217839870269, 0.1461553201639388, 0.23206717408425998, 0.05639824047022141, -0.004246011113024927, 0.006612719767198094, -0.008445283934053924, -0.002153095047778792, -0.0010415361326823185, 0.04928439021792046, -0.006163695714342914, 0.04995969789263357, 0.01618325295226684, -0.06844330182153997, 0.2314152429195062, 0.24277751649629378, 0.2046602877469687, -0.35530023738939803, -0.18823459960531982, -0.1404458144570828, -0.11751107035631157, -0.1782672903282027, -0.03177267607006935, -0.11665882077497004, 0.005327177352655417, 0.0810922568277297, -0.16317237118073916, 0.2595406690036251, 0.09455831839281982, 0.0767639968005497, 0.05167303508424342, 0.07936994820780076, 0.03884863443677164, 0.0032821751999974995, -0.0071946009889798206, -0.011539520577662481, -0.0012084564414925015, 0.05711553680979031, 0.13669763452296252, 0.21381847714110205, -0.07582390415857401, 0.10955678347210092, -0.056502747840522616, 0.13984851067027143, -0.031213254598461252, -0.10656939664344076, -0.10580675571602184, 0.1588276897817665, -0.3728197693100609, -0.24717096189701016, -0.14605393818077642, 0.25106974951953226, -0.06112173420418371, -0.05112710809024328, -0.2694302018149793, 0.35182905956088345, 0.21862183933359497, -0.09270860696661187, -0.05875717697539022, 0.14642068123817606, 0.05208667459949146, 0.019464930562282542, -0.00685056841137469, 0.0024703592163576715, 0.002260261819741545, 0.09365512085302619, 0.2550522338071553, 0.14553590524993554, 0.1793475922607239, 0.10724997990008066, -0.08864887892107028, -0.16404798095960818, -0.07370521911248643, 0.037617902684670246, 0.0188964677312898, -0.022237700368660462, -0.010731266358472795, 0.08870281466601801, 0.2699775030988864, 0.23006342012335906, -0.012704689907601822, 0.11837563877515811, 0.0029984597551007334, 0.15658791763082708, 0.23477655467178205, -0.09060930204396449, -0.1245021239017822, 0.16102029929028047, 0.018347688808760868, 0.0069461896853547506, 0.0005195234098250632, 0.006245302886935056, -0.005473998434389657, 0.034811926915665196, 0.10813413074657612, 0.062561109558135, 0.25769061268488713, 0.07856425836912913, 0.12250038372160921, 0.14173325586737334, -0.18111602038752989, 0.02502975154526638, -0.11624770708738483, -0.34169805782915813, -0.02661633069169378, -0.35513084854345617, -0.049990377067106406, -0.23929897574639802, 0.2417480387417908, 0.19299498173692764, 0.13172927079592253, 0.12400616400729697, -0.025334660904744018, -0.14574219590878704, -0.09460403142150617, 0.12389989598408982, 0.057219402600168556, -0.008180893739823034, -0.004514891558424111, 0.016738873774244534, 0.007421750299592008, -0.01939351008307207, 0.062357929677973184, 0.10588071713270339, 0.17268967432232954, 0.17438995679180067, 0.48838019857533926, 0.642146770809242, 0.030772226373578234, 0.2789573785568526, 0.19620299944378924, 0.030320576774334057, -0.15961575786078014, -0.14149776495377608, 0.38813842461772746, 0.03684547832170715, -0.26741270845087317, -0.054399021301583285, 0.005768230751735739, -0.312521992904124, -0.1368069305385153, -0.057560970498454024, -0.0681010735313815, 0.06255144850477966, -0.004225160206441932, -0.0024162974226924123, 0.005359313404422347, -0.024270735721000414, 0.02040972399148046, -0.05613683294512294, -0.14890779089738315, 0.09847341580832256, 0.2332689920772207, 0.40578674174039664, 0.82503471200979, 0.6197121975110078, 0.8207741939274957, 1.2248048724853162, 0.9861427854662974, 0.7555647787479025, 0.41696258133978004, 0.25661402541327283, 0.1333847123915584, -0.02165296630827573, -0.14306293114196858, -0.027807758969005347, -0.20024474596012717, -0.39307868193134077, -0.07796189293084685, 0.15173256977575605, -0.03689282209079086, -0.005646510062551975, 0.0006619023518343233, 0.016127814495202456, 0.005162976678504398, -0.004638967102981024, -0.0024715392639669672, -0.01922858681137571, -0.20028325711248807, 0.011048319831977902, 0.15944784004178517, 0.3843127594535947, 0.29545746921574356, 0.45443138302167263, 0.5710502430656811, 0.2592878671928286, 0.0578268209177172, 0.19495154072707424, -0.013291604685047337, 0.28269977312977684, 0.013558562541477163, 0.012946396505709062, -0.05212167355282056, 0.06606245507511861, -0.054525206007109264, 0.1343180460315273, -0.22337817328192708, 0.04680131549628271, -0.26703817281305237, -0.10121995636638075, 0.014287653953648153, -0.004806773500957864, 0.0040917677175437055, -0.012074449242072667, -0.002860267864548078, 0.026918984323004023, -0.1564796449004407, -0.1393795414121074, 0.11751260419504167, 0.19616627942898898, -0.18459294614692776, -0.47247338566115143, -0.021928062572100806, -0.35796347114187127, 0.3277334458942657, -0.2872765231228024, -0.18610306034204596, 0.17799312669651154, -0.3314632303712257, -0.35966499095172494, 0.03160287502198304, -0.32142706766774315, -0.053139958557315146, -0.08447673816210369, -0.03800387027668696, -0.021360596354650974, -0.16331214193547292, -0.11613438152538935, 0.006573237463531019, 0.004490310216604886, 0.00045150298404499566, 0.006848317198741428, 0.056038828975538205, -0.009973961697378849, -0.2085285607746949, -0.2385406115998259, -0.15043760480095242, -0.403187598799079, -0.17908578192950886, -0.18474907178584285, -0.24247979618740953, 0.00264001482232912, 0.019635658027791412, 0.04779563983483166, -0.005057872341863593, -0.06975947758822298, -0.0748119475550708, -0.09278348551049447, -0.06618946440421496, -0.22028217851135634, -0.3597382269508502, -0.11892075079229278, 0.3123769817190731, -0.10855564631237091, -0.12550055212088798, -0.12861708776963796, -0.0014595930149051328, 0.009637617335112626, -0.009586224188951276, -0.00873766655905016, 0.025693479496989576, -0.03437465570385347, -0.13526899534978323, -0.11127486985177634, -0.27735824430688366, -0.10631077630716158, 0.010722215833133738, 0.24415783741504546, 0.09910850284539256, -0.2474155562206262, -0.1346803274973075, 0.19585649929966467, -0.05014430203280426, -0.1714292276955296, -0.07876028044077654, -0.05852914326376734, -0.03554353928539459, -0.23184339121506517, 0.05292125340458692, 0.10937544784794123, 0.11870798643522033, -0.13699890372116214, -0.11078508575698601, -0.12391726786300787, -0.0011665614841551164, -0.0015398279285484175, -0.012161616789426741, 0.0013944910216989457, -0.021265506011006977, -0.12352275379550157, -0.3185493873987205, -0.29723665121083737, -0.3257592179378057, 0.015769707356530074, -0.059664384153373766, 0.041401688496645606, -0.09374673709423369, 0.06151246815971824, 0.07547449943816872, 0.05024774528451522, 0.08026213273888068, -0.1148409941500298, 0.1039701327895384, -0.14309977742069285, 0.008606207774661735, -0.05128001471680971, -0.24727604376816767, 0.14252423626007707, 0.014437110730542274, -0.16022094593131134, -0.1830739263242735, -0.062119872836803335, -0.0031420558093174407, 0.002180995865851411, 0.0063339769089798105, -0.01189144637675258, -0.004983108475042733, -0.059820086641508244, -0.12645944001360768, 