{"sizes": [784, 30, 30, 10, 10], "weights": [[[-0.007926374673843384, -0.019749440252780914, 0.07612226158380508, 0.01671195775270462, -0.002652764320373535, 0.07859698683023453, -0.04527376592159271, -0.07061441987752914, 0.0015923082828521729, -0.06319782882928848, 0.053374968469142914, 0.06106007844209671, -0.10328411310911179, -0.1830868273973465, -0.03320547193288803, 0.02483152598142624, -0.08002148568630219, -0.016719162464141846, 0.00670904666185379, 0.06954570859670639, 0.04932338744401932, 0.07062169164419174, -0.02982945367693901, 0.012645944952964783, -0.026166774332523346, 0.05123644322156906, -0.04475419223308563, 0.07981281727552414, 0.07311331480741501, -0.05307196080684662, -0.0022930577397346497, -0.010133109986782074, 0.056157730519771576, 0.1671782284975052, 0.7385417819023132, 0.9807221293449402, 0.7319146394729614, 0.8866305947303772, 1.1153669357299805, 0.26762503385543823, 0.1404908299446106, 0.056730449199676514, 1.0839347839355469, 0.2770819664001465, -0.04333996772766113, -0.39276763796806335, 0.878014862537384, 0.9722718000411987, 0.4993681311607361, 0.42346101999282837, 0.27262386679649353, 0.2616100609302521, 0.07946775108575821, -0.021646395325660706, 0.0016015395522117615, -0.008389376103878021, 0.03302183002233505, 0.014095522463321686, 0.21132613718509674, -0.22333724796772003, -0.21837115287780762, 0.9073225259780884, 0.6374819278717041, 1.2057284116744995, 1.598034143447876, 1.4799522161483765, 0.99748295545578, 1.3010519742965698, 1.0998015403747559, 1.0031042098999023, 0.9319364428520203, 0.954564094543457, 1.0460586547851562, 0.7116169333457947, 1.356135368347168, 0.6141029596328735, 0.8019106388092041, 1.8151733875274658, 1.0987063646316528, 0.8757734298706055, 0.2316983938217163, 0.16981248557567596, 0.057033754885196686, 0.07512605935335159, 0.04843390733003616, -0.04570319131016731, 0.7139196991920471, 0.2638506293296814, 0.12848259508609772, 0.47600099444389343, 1.0616916418075562, 0.6371411681175232, -0.042538728564977646, 0.7779015302658081, 0.10079875588417053, -0.27522680163383484, 0.34205615520477295, 0.44652166962623596, 0.5831305384635925, 1.04899263381958, 0.07908323407173157, -0.43657368421554565, 1.0090949535369873, 1.1522395610809326, 0.740472137928009, 0.6979318261146545, 1.5181370973587036, 1.391890287399292, 0.832255482673645, -0.33324548602104187, -0.38228026032447815, 0.017910204827785492, -0.061846181750297546, -0.009601223282516003, 0.4655792713165283, 0.10764053463935852, -0.19516721367835999, 0.41766592860221863, -0.4419889748096466, -0.742094099521637, -0.38354283571243286, 0.3245686888694763, 0.19182099401950836, -0.5333275198936462, -0.4831627309322357, -0.25457027554512024, 0.34611305594444275, 0.11236901581287384, 0.15640611946582794, -0.42498597502708435, -0.2829585075378418, 0.2509276866912842, 0.6969203948974609, 0.1478419154882431, 0.33698391914367676, -0.21788278222084045, 0.24010275304317474, 0.26774144172668457, -0.3891357183456421, -0.07090801000595093, 0.03292492777109146, -0.07181379944086075, 1.1033796072006226, 0.16694851219654083, 0.1005481407046318, -0.6962606310844421, -0.49669429659843445, 0.36823326349258423, 0.34311315417289734, 0.5483603477478027, -0.21316225826740265, -0.35254743695259094, 0.22954599559307098, 0.15340295433998108, 0.2888065278530121, -0.07140122354030609, 0.3170105218887329, -0.11914368718862534, -0.38685959577560425, -0.10438929498195648, 0.4697646498680115, 0.5434303283691406, -0.04599737748503685, 0.03461667150259018, 0.16425774991512299, 0.3811545670032501, -0.6911283135414124, -0.711007297039032, -0.05901084840297699, -0.14973625540733337, -0.5703094601631165, 0.05535101890563965, 0.5321816205978394, -0.08425997942686081, -0.19957666099071503, 0.16228820383548737, 0.2916829288005829, 0.09304849058389664, -0.212755486369133, 0.09585747867822647, 0.33544570207595825, -0.15156415104866028, -0.393636554479599, -0.21469078958034515, -0.09087605029344559, -0.41837358474731445, -0.4620240330696106, 0.23675298690795898, 0.37268558144569397, 0.5722684860229492, 0.3068523705005646, 0.4340173006057739, 0.7057470083236694, 0.5437738299369812, -0.3514349162578583, -0.7296136021614075, -0.06116199120879173, 0.01171459536999464, -1.0448849201202393, -0.1819756031036377, 0.7032235264778137, 0.30736780166625977, 0.05384744331240654, 0.07616309821605682, -0.2709978222846985, 0.1905515044927597, -0.09874333441257477, -0.0020994404330849648, 0.08519186824560165, -0.49992966651916504, -0.31122341752052307, -0.4109463095664978, -0.5355108380317688, -0.7776417136192322, -0.34280288219451904, -0.05289753898978233, -0.022930098697543144, 0.13791435956954956, 0.561586856842041, 0.6470956206321716, 0.6960049271583557, 0.4913989305496216, 0.3271264433860779, -0.16070516407489777, -0.03752528876066208, 0.6868742108345032, -0.691052258014679, -0.02095271833240986, -0.13180501759052277, 0.32263049483299255, 0.2936282455921173, 0.026587368920445442, 0.03512599691748619, 0.040945280343294144, 0.2750084102153778, 0.1387176215648651, 0.25361835956573486, 0.04815954342484474, -0.6983029842376709, -0.8236242532730103, -1.0554323196411133, -0.5658876895904541, -0.528566837310791, 0.16500651836395264, 0.12010262161493301, -0.14776991307735443, 0.3438437879085541, 1.1209981441497803, 0.349752277135849, 0.0032857756596058607, 0.3131101727485657, -0.18416020274162292, 0.35575470328330994, 0.5818513631820679, -1.0210281610488892, 0.39399710297584534, 0.1419072151184082, 0.12236209958791733, 0.14060945808887482, -0.06455020606517792, 0.09157933294773102, 0.49751999974250793, 0.13579581677913666, -0.14707927405834198, 0.050554078072309494, -0.07874217629432678, -0.33249059319496155, -0.7056684494018555, -0.750290036201477, -0.2327113300561905, 0.06536556035280228, 0.21953526139259338, 0.4409584403038025, 0.43052011728286743, -0.10267607122659683, 0.23054052889347076, 0.7910142540931702, 0.38765352964401245, 0.5724080204963684, -1.1013438701629639, 0.47551846504211426, 0.43904757499694824, -0.03081526979804039, 0.21859236061573029, 0.5666095018386841, -0.03698250278830528, -0.033239223062992096, -0.11721781641244888, 0.08259113878011703, 0.1949816644191742, 0.5244253873825073, 0.2526109218597412, 0.4228470027446747, 0.36875784397125244, 0.09792042523622513, -0.5127195119857788, -0.32326993346214294, 0.11269359290599823, 0.44929999113082886, 0.12162988632917404, 0.16254407167434692, 0.11790643632411957, 0.47550010681152344, 0.5577950477600098, 0.5389012694358826, -0.011266732588410378, 0.35049498081207275, 0.4694737493991852, 0.11062326282262802, -0.6233576536178589, -0.1697530746459961, 0.9415452480316162, 0.5888713002204895, 0.16335688531398773, 0.15149220824241638, 0.04033162072300911, 0.07440921664237976, 0.20153653621673584, 0.1691102683544159, 0.348080575466156, 0.11312073469161987, 0.002231332240626216, 0.6041355133056641, -0.09535600990056992, 0.02054605633020401, 0.07540950924158096, 0.1154891774058342, 0.06626023352146149, 0.2402409464120865, -0.02190561778843403, -0.01988837867975235, -0.15395906567573547, 0.4080691337585449, 0.6397557854652405, 0.6929688453674316, 0.20813506841659546, 0.0052924323827028275, 0.06476524472236633, -0.6438550353050232, 0.5708411931991577, -0.4960658848285675, -0.4011681377887726, 0.3381386399269104, 0.42359599471092224, 0.4452582001686096, 0.017122099176049232, -0.11909008771181107, 0.11025676876306534, -0.11325962841510773, 0.41608962416648865, 0.6636716723442078, 0.3001108169555664, 0.441655695438385, 0.39926791191101074, 0.03100372850894928, -0.09023065119981766, -0.08191195875406265, 0.06172831356525421, 0.25778117775917053, 0.15993759036064148, 0.13991999626159668, 1.0914943218231201, 0.3535847067832947, 0.2665747404098511, 0.3160765767097473, -0.11101358383893967, -0.2198261171579361, 0.19663536548614502, -0.6721205115318298, 0.025778546929359436, 0.23634925484657288, 0.09051590412855148, 0.24793316423892975, 0.06311588734388351, -0.22405406832695007, 0.0709676668047905, 0.04615755006670952, 0.3938310444355011, 0.6146060228347778, 0.5775688290596008, 0.29123565554618835, -0.046837300062179565, -0.21024279296398163, -0.005479979794472456, 0.21443964540958405, 0.14927056431770325, 0.08232392370700836, -0.03999738395214081, 0.25740018486976624, 0.10541054606437683, -0.4044727087020874, 0.21517744660377502, 0.6087070107460022, -0.6464968323707581, 0.08375497907400131, 0.18367944657802582, -0.5781322717666626, 0.058240361511707306, 0.009329521097242832, -0.2162407785654068, -0.01074547041207552, -0.19319327175617218, 0.17983277142047882, 0.5341551303863525, 0.2562713027000427, 0.02547205612063408, 0.2901097536087036, -0.07406509667634964, 0.2517582178115845, -0.17515616118907928, -0.10756991058588028, 0.19420212507247925, -0.0017392926383763552, 0.08537101000547409, -0.24222122132778168, -0.011556372977793217, -0.6733093857765198, -0.10508986562490463, 0.6436359882354736, 0.6661649346351624, 0.4519345760345459, -0.7736388444900513, -0.05975445732474327, 0.43558263778686523, -0.4528138041496277, 0.03605933487415314, -0.4696992337703705, -0.6073561310768127, -0.43189823627471924, -0.5284342169761658, -0.15501274168491364, 0.255032479763031, 0.20695312321186066, 0.3708688020706177, 0.7864460349082947, 0.4128517806529999, 0.38622140884399414, -0.007304197642952204, 0.03238646313548088, 0.1099938452243805, -0.16042117774486542, -0.238917738199234, -0.009952831082046032, -0.5984997153282166, -0.5124710202217102, 0.005382146220654249, -0.0013358460273593664, 0.10419464856386185, -0.30874964594841003, -0.13182571530342102, -0.012008371762931347, 0.4677242338657379, -0.03500057011842728, 0.09813868254423141, -0.24518129229545593, -0.019588008522987366, 0.009527030400931835, 0.019852645695209503, 0.4520888030529022, -0.10139121860265732, -0.30653974413871765, 0.5944964289665222, 0.7343582510948181, 0.5693569779396057, 0.2467491775751114, -0.0993419736623764, -0.24859993159770966, -0.23905830085277557, -0.3854323625564575, 0.15333715081214905, -0.03911576420068741, -0.08428802341222763, 0.2167527824640274, 0.4278642237186432, 0.8222973942756653, -0.380741149187088, 0.042906634509563446, 0.19159704446792603, 0.7047682404518127, -0.5903325080871582, -0.46527010202407837, -0.399812787771225, 0.31896379590034485, -0.07020910829305649, 0.26653802394866943, 0.26870766282081604, 0.28453677892684937, 0.15323978662490845, 0.30535241961479187, 0.6971830725669861, 0.5846307277679443, 0.27100884914398193, -0.06620491296052933, -0.6091745495796204, -0.2695842683315277, 0.07976089417934418, -0.22633439302444458, 0.30651888251304626, 0.16371949017047882, 0.07035890966653824, 0.13313071429729462, 0.6114292144775391, 0.06005745008587837, -0.30048272013664246, -0.3276267349720001, 0.22105512022972107, 0.5458565354347229, -0.33514586091041565, -0.3299155831336975, -0.4596801996231079, 0.09313534945249557, 0.09398924559354782, 0.25608018040657043, 0.11108867824077606, -0.07609017938375473, -0.22533965110778809, 0.5977897047996521, 0.830812931060791, 0.28273770213127136, -0.24381354451179504, -0.7237222194671631, -0.4742407202720642, -0.24909523129463196, 0.16189774870872498, 0.40640464425086975, 0.12461192160844803, -0.11584863811731339, -0.12752403318881989, 0.265731543302536, 0.5774871706962585, -0.24726954102516174, 0.500316321849823, 0.2479427605867386, 0.11383242160081863, 0.22201013565063477, -0.1816677302122116, 0.07607961446046829, -0.05276915803551674, 0.18466675281524658, 0.13441064953804016, -0.013148409314453602, 0.37467265129089355, 0.17329393327236176, 0.10744448006153107, 0.07499664276838303, 0.6474713087081909, -0.12731684744358063, -0.1830616593360901, -0.4165170192718506, -0.20192545652389526, -0.27225881814956665, 0.22647634148597717, 0.04680288955569267, 0.2571851313114166, 0.3940170109272003, 0.6893900036811829, -0.10956630855798721, 0.7825731635093689, 0.46713605523109436, 0.6267691254615784, -0.0758671760559082, -0.7005074620246887, -0.2208399623632431, 0.2395036816596985, -0.5540744066238403, -0.366321861743927, 0.05045812204480171, -0.023433076217770576, 0.10987503826618195, 0.22517427802085876, -0.01453706156462431, 0.07124198973178864, 0.14318490028381348, -0.12437725067138672, -0.3807932734489441, -0.26212987303733826, -0.7559321522712708, -0.42258238792419434, 0.09295196086168289, -0.04511360079050064, 0.5074061751365662, 0.6951061487197876, 0.8726938962936401, 0.5202879905700684, -0.47837257385253906, -0.29564839601516724, 0.6539096236228943, -0.01246915478259325, 0.35872527956962585, -0.03350111469626427, 0.04943489655852318, -0.47647276520729065, -0.48357176780700684, -0.13395746052265167, -0.46287885308265686, 0.11031166464090347, -0.19011911749839783, 0.3422256112098694, 0.1825414001941681, 0.12001519650220871, -0.12349401414394379, 0.11012644320726395, 0.0076345233246684074, -0.09782839566469193, -0.6202269196510315, -0.08235939592123032, 0.11025433987379074, -0.012895596213638783, 0.29392510652542114, 0.7966521382331848, 0.1376890242099762, 0.5815510153770447, -0.3806620240211487, 0.031557824462652206, -0.39038997888565063, -0.30632495880126953, 0.35358157753944397, 0.3536909818649292, 0.5268572568893433, -0.23716729879379272, 0.1238480657339096, 0.3635174632072449, -0.4647795855998993, 0.060508064925670624, -0.06107667088508606, 0.25336429476737976, -0.06806910783052444, -0.19658365845680237, -0.1195393055677414, 0.1392463594675064, -0.04250728711485863, 0.17969803512096405, -0.5832357406616211, -0.4545918405056, -0.565477728843689, -0.38436904549598694, 0.5160765051841736, 0.26649510860443115, -0.2811571955680847, 0.3229078948497772, -0.39478549361228943, 0.2554972469806671, -0.2861725091934204, -0.47953468561172485, -0.04323737323284149, 0.05807875841856003, 0.42347636818885803, -0.24505478143692017, -0.3708984851837158, -0.09868773818016052, -0.4010230302810669, -0.5715255737304688, -0.39549943804740906, -0.30653631687164307, -0.647597074508667, -0.5158408284187317, -0.24104025959968567, 0.0061706057749688625, 0.03957240656018257, 0.27286848425865173, -0.3688926100730896, -0.7217109203338623, -0.49878206849098206, -0.2539302110671997, -0.1965111941099167, -0.6768732666969299, -0.7013893127441406, 0.3935706615447998, 0.1851854920387268, -0.06191565468907356, 0.052454933524131775, 0.07940816134214401, 0.018562793731689453, 0.002116180956363678, -0.18486221134662628, 0.048392392694950104, -1.062259316444397, -0.4283101260662079, 0.15104305744171143, -0.2607751488685608, -0.0386163555085659, -0.3905720114707947, -0.1514434516429901, 0.529017984867096, 0.022229589521884918, -0.00924526248127222, 0.2634950280189514, -0.03149014711380005, -0.5216752290725708, -0.8091765642166138, -0.3465937376022339, 0.01920757070183754, -0.5884047150611877, -0.3627820611000061, -0.19200091063976288, -0.40995943546295166, -0.1786281317472458, -0.5170611143112183, 0.1531328558921814, 0.027788884937763214, -0.08362564444541931, -0.006044737994670868, -0.7739328742027283, -0.7830898761749268, -0.22847391664981842, -0.1361229419708252, -0.2955319583415985, -0.31999367475509644, -0.504301130771637, -0.4912763833999634, -0.5894005298614502, -0.32649779319763184, -0.19341427087783813, -0.12229817360639572, -0.041009340435266495, 0.2971634566783905, -0.33902549743652344, -0.05919845402240753, -0.040333427488803864, -0.7943328619003296, -1.6951818466186523, -1.501399278640747, -1.137250304222107, 0.024341976270079613, -0.5608991384506226, -0.509499192237854, 0.06882823258638382, -0.08470134437084198, -0.018914207816123962, 0.04493137449026108, -0.038415536284446716, -0.6789343953132629, -1.4253040552139282, -0.3360265791416168, -1.0880438089370728, -0.5611165761947632, 0.1330290585756302, -1.4719998836517334, -1.4688369035720825, -1.3357930183410645, -1.0375052690505981, -1.5701844692230225, -2.1868340969085693, -2.6747779846191406, -1.923781156539917, -0.7268657684326172, -1.0509928464889526, -1.7225990295410156, -1.5776164531707764, -1.3213942050933838, -0.6926616430282593, -0.7985700368881226, -0.27626365423202515, -0.011797000654041767, 0.04670243710279465, -0.01723691076040268, -0.02764546126127243, -0.0058561936020851135, -0.0004958063364028931, -0.004432693123817444, 0.06828972697257996, 0.2889825999736786, -0.5714882016181946, -0.15449158847332, -0.26539725065231323, -0.4199044704437256, -1.1133570671081543, -1.257568597793579, -1.0645238161087036, -0.3805886209011078, -0.7298274040222168, -1.002808928489685, -0.8152734041213989, -0.6485219597816467, -0.5440160632133484, -0.443510502576828, -0.7863756418228149, -0.9404128789901733, -0.1253444254398346, 0.7271163463592529, 0.08016618341207504, -0.03968418389558792, -0.045411910861730576, -0.07428237795829773], [-0.015538178384304047, 0.02113770693540573, 0.043707169592380524, 0.049134813249111176, -0.06662881374359131, -0.03594142943620682, 0.007312089204788208, 0.03290151059627533, 0.038436971604824066, -0.0194411501288414, -0.02415308728814125, 0.019477955996990204, 0.36485233902931213, 0.12259998172521591, -0.3748469054698944, -0.024860041216015816, 0.053230948746204376, 0.08501558750867844, -0.0717039629817009, -0.08138558268547058, -0.0739222839474678, -0.06322294473648071, 0.008370660245418549, -0.055972855538129807, -0.07230305671691895, 0.026310309767723083, 0.04931815713644028, -0.04738276079297066, -0.040976475924253464, -0.029492631554603577, -0.07048464566469193, -0.04579847678542137, 0.19472262263298035, 0.21148276329040527, 0.2500402331352234, 0.6440251469612122, 0.7712116837501526, 1.038482427597046, 1.3189010620117188, -0.3728388249874115, -0.35973092913627625, -0.23121052980422974, 1.1105940341949463, -0.2443505823612213, -0.8182851076126099, -0.1097170040011406, 0.929155170917511, 0.8105272054672241, 1.2393109798431396, 1.0173466205596924, 0.8180261850357056, 0.25865986943244934, -0.001802489161491394, 0.04751824587583542, 0.0800972655415535, -0.019967474043369293, 0.059482403099536896, -0.037801437079906464, 0.40802261233329773, -0.5472276210784912, -0.496040940284729, 0.569968044757843, 0.7958272099494934, 1.216707706451416, 0.10104202479124069, -0.38707688450813293, -0.058224618434906006, -0.06053510680794716, -0.6759387254714966, -0.7321492433547974, -0.06096162274479866, 0.09662780910730362, -0.09977863729000092, -0.036801330745220184, 0.39195340871810913, 1.9511160850524902, 1.5949387550354004, 1.5625790357589722, 1.0584014654159546, -0.14125211536884308, 0.3435811400413513, -0.12602534890174866, 0.06315843015909195, 0.07914627343416214, -0.06843288242816925, -0.0288800448179245, 0.635594367980957, -0.41036856174468994, -0.6756675839424133, -0.02172713540494442, 0.3888920843601227, 0.4284946918487549, -0.6296467781066895, -0.23437772691249847, -0.5605759024620056, -0.2759530246257782, -0.7346360683441162, -0.7592712640762329, -0.0879896879196167, -0.2923862040042877, 0.3364447355270386, 0.5766363143920898, 0.5439392328262329, 0.6534992456436157, 0.5967025756835938, 0.7467260360717773, 0.8957409858703613, 0.8264129161834717, 0.7885363101959229, -0.3462226986885071, -0.29216113686561584, -0.04639933258295059, -0.012176528573036194, -0.18460869789123535, 0.4538436233997345, 0.11692702770233154, -0.10807264596223831, 0.5158331990242004, 0.09979148209095001, 0.06745810061693192, -0.4551989436149597, -0.0005705110961571336, -0.7597494125366211, -0.9219591617584229, -0.427785724401474, -0.3711785674095154, -0.7013139724731445, -0.4846470057964325, -0.0156991146504879, 0.21673035621643066, 0.12225884944200516, 0.41070273518562317, 0.5656823515892029, 0.6084349155426025, 0.36869972944259644, 0.37236687541007996, -0.402708500623703, -0.3946899473667145, -0.8998486995697021, -0.43399304151535034, -0.0343756303191185, 0.02245134860277176, 0.4547254145145416, -0.2504495084285736, 0.06298070400953293, 0.33872032165527344, -0.62220299243927, -0.5146800875663757, 0.23125939071178436, 0.41815412044525146, -0.3525677025318146, -1.0045437812805176, -1.3144805431365967, -0.5681602954864502, -0.11947999894618988, 0.03784037381410599, -0.28948545455932617, 0.011665319092571735, 0.40315669775009155, 0.48046714067459106, -0.1806764155626297, -0.02844206988811493, 0.09529133141040802, 0.46594303846359253, 0.2403552085161209, -0.2909565567970276, -1.2765346765518188, -0.3506019115447998, -0.0078062862157821655, -0.4404599070549011, 0.35334065556526184, 0.522720456123352, 0.27664366364479065, 0.1579657942056656, -0.7066576480865479, -0.5261543989181519, -0.053588028997182846, -0.10586343705654144, -0.25955647230148315, -0.529851496219635, -0.4674050211906433, -0.20981432497501373, -0.07632887363433838, -0.28749045729637146, -0.31728094816207886, -0.16853117942810059, -0.037160784006118774, -0.15288348495960236, -0.3275473117828369, 0.0145630594342947, 0.11574877053499222, -0.07762379944324493, 0.15767712891101837, 0.4134696125984192, -0.310016006231308, -0.2687283158302307, 0.13854286074638367, -0.5342493653297424, 0.3154519498348236, 0.5637220144271851, 0.3364610970020294, -0.4494073987007141, -0.2576358914375305, -0.12435141205787659, -0.07180999219417572, -0.24778348207473755, -0.3656679391860962, -0.2578791677951813, -0.03783349692821503, -0.09420603513717651, -0.27160292863845825, -0.14208103716373444, -0.18872123956680298, -0.07569560408592224, -0.013495177961885929, -0.07728734612464905, -0.13283948600292206, -0.06875867396593094, -0.012555846944451332, 0.6264102458953857, 0.08579423278570175, 0.13205985724925995, 0.38411763310432434, -0.1674826294183731, -0.2411872148513794, 0.4804469347000122, 0.515347421169281, 0.15195098519325256, 0.08795006573200226, 0.007334815803915262, 0.005376648157835007, 0.007058913353830576, -0.17674291133880615, -0.2979746162891388, -0.1795150637626648, 0.2022809237241745, -0.08024785667657852, -0.11807767301797867, -0.13741940259933472, -0.23299287259578705, -0.8122037053108215, -0.28504058718681335, -0.38839107751846313, -0.47744396328926086, -0.6674298644065857, 0.18946096301078796, -0.17878273129463196, 0.28647172451019287, 0.27877089381217957, 0.49586477875709534, 0.20609280467033386, -0.6215766072273254, 0.23697569966316223, 1.0298548936843872, -0.03150787577033043, 0.28732284903526306, 0.6109995245933533, 0.43821313977241516, -0.03987324237823486, 0.14259964227676392, -0.10689137876033783, -0.4314423203468323, 0.04969370737671852, 0.21631954610347748, 0.05041946843266487, -0.05137583985924721, 0.126181960105896, -0.6359423995018005, -0.6423523426055908, -0.2721698582172394, 0.2427724152803421, 0.08663641661405563, -0.21106493473052979, 0.34744149446487427, 0.13458433747291565, 0.357414186000824, 0.4031747579574585, 0.5596417784690857, -0.5151758790016174, -0.23855993151664734, 0.24223627150058746, 1.7558754682540894, 0.37337806820869446, 0.24821659922599792, 0.4091310501098633, 0.168409526348114, 0.13277843594551086, -0.024363555014133453, -0.3814089596271515, -0.047819770872592926, -0.16830915212631226, 0.1915622055530548, 0.0367310605943203, 0.297254741191864, -0.0513993538916111, -0.3765869736671448, -0.256342351436615, 0.14098159968852997, 0.1291838139295578, 0.1337767392396927, 0.08999024331569672, 0.4624176621437073, 0.20223909616470337, -0.015103808604180813, -0.13202551007270813, -0.09223660081624985, -0.9505308866500854, -0.7013989090919495, 0.6591324210166931, -0.5045923590660095, 0.5374882221221924, -0.5186871886253357, -0.21948778629302979, 0.046317122876644135, -0.09600172936916351, 0.11606602370738983, -0.601103663444519, -0.25738540291786194, 0.23301221430301666, 0.25192025303840637, 0.6243144273757935, 0.4713636040687561, -0.6523988246917725, -1.1602518558502197, -0.607660710811615, -0.035147108137607574, 0.20418724417686462, 0.26136845350265503, 0.10096848756074905, 0.10893778502941132, -0.3677738904953003, 0.060593340545892715, -0.4486812949180603, -1.400359034538269, -0.40616220235824585, 0.2439837008714676, 0.5363792777061462, 0.26696109771728516, 0.20668341219425201, -0.022831736132502556, 0.1151738241314888, 0.047280747443437576, -0.101004458963871, -0.016561385244131088, 0.054882269352674484, -0.08527729660272598, 0.17783881723880768, 0.5742883682250977, 0.8851377964019775, 0.4073862135410309, -0.5046683549880981, -1.3215214014053345, -0.2539885640144348, 0.19064651429653168, 0.3753800094127655, 0.18584121763706207, -0.23133336007595062, -0.3941313326358795, -0.2308369278907776, -0.3553049564361572, -0.734086275100708, -0.9722185134887695, -0.47751715779304504, 0.12081468105316162, -0.10825659334659576, -0.6224187016487122, 0.5929415225982666, 0.13234511017799377, 0.14094091951847076, 0.5338538885116577, 0.3657713830471039, 0.09110677987337112, -0.07844891399145126, -0.03910467401146889, 0.5934339761734009, 0.8452565670013428, 0.1964183896780014, -0.29496341943740845, -0.9011659026145935, -1.1170710325241089, -0.18192589282989502, 0.3804105818271637, -0.06440488249063492, -0.5010074973106384, -0.11267278343439102, -0.35460740327835083, -0.09947958588600159, -0.4003671705722809, -0.36098921298980713, -1.7789771556854248, -1.3495333194732666, -0.6875028610229492, -0.42812657356262207, 0.033300161361694336, 0.8666974902153015, 0.3492567539215088, 0.010658437386155128, 0.3913220465183258, -0.1503145694732666, 0.22411169111728668, 0.12009952962398529, 0.22120267152786255, 0.1670980602502823, 0.02223268151283264, -0.3174920976161957, -0.485921710729599, -1.2569552659988403, -0.6571313738822937, -0.00406189588829875, -0.042488422244787216, 0.12122523784637451, -0.07527614384889603, 0.24208281934261322, 0.09874182939529419, -0.017400434240698814, 0.0378100723028183, -0.46846628189086914, -1.2382107973098755, -2.006551504135132, -0.43741899728775024, -0.21759729087352753, -0.22920012474060059, 0.36239001154899597, 0.15157775580883026, -0.11773300170898438, -0.2921978235244751, 0.2866155505180359, 0.20716553926467896, -0.46075811982154846, -0.021127482876181602, 0.17470848560333252, 0.3731396496295929, -0.04942692816257477, -0.6027998924255371, -1.0952460765838623, -0.38980892300605774, -0.06714459508657455, 0.22080595791339874, -0.10060371458530426, -0.22497305274009705, 0.28956013917922974, -0.03439775109291077, 0.6164426803588867, 0.3076346218585968, -0.831842839717865, -1.0451301336288452, -1.1937259435653687, -0.12174415588378906, 0.45354875922203064, -0.15344323217868805, 0.14652734994888306, -0.761390745639801, -0.16407275199890137, -0.09220153838396072, -0.051039986312389374, 0.3236302435398102, -0.10854830592870712, -0.31778958439826965, -0.1937204748392105, 0.21696770191192627, -0.15334530174732208, -0.5978789925575256, -0.4927777647972107, -0.20851781964302063, 0.35876765847206116, 0.06262683123350143, 0.4489750266075134, 0.5350836515426636, 0.1875685602426529, 0.45430266857147217, 0.6547496914863586, 0.7632760405540466, 0.056362517178058624, -2.1085760593414307, -1.5068002939224243, -0.6827929019927979, -0.08405404537916183, 0.022623488679528236, 0.6419101357460022, -0.20245502889156342, 0.16378946602344513, 0.24602557718753815, -0.4904789328575134, -0.4239400625228882, -0.23507529497146606, -0.529413104057312, 0.16267815232276917, -0.07958126068115234, -0.5214250683784485, -0.6631569266319275, -0.19442793726921082, -0.06505970656871796, 0.24918481707572937, 0.634539783000946, 0.8700765371322632, 0.2346097230911255, 0.2629644274711609, 0.25354090332984924, -0.08050187677145004, -0.5473306179046631, -0.9490371942520142, -1.509280800819397, -0.07206424325704575, -0.8705666065216064, 0.040985677391290665, 0.13303866982460022, 0.4704389274120331, 0.16488133370876312, 0.2204209268093109, 0.10158490389585495, -0.1160222738981247, -0.3342612385749817, -0.08204306662082672, -0.4849739074707031, -0.5056201219558716, -0.58235102891922, -0.9291011095046997, -0.8485502004623413, -0.38450074195861816, 0.04849851503968239, 0.8741909861564636, 0.6531021595001221, 0.4061257839202881, -0.07397721707820892, -0.007160278502851725, 0.25829455256462097, -0.0766586884856224, -0.5340524911880493, -1.1585264205932617, -1.4677844047546387, 0.3902023434638977, 0.21267350018024445, -0.0702330470085144, 0.48819103837013245, 0.4588690400123596, 0.5431844592094421, -0.1100807636976242, -0.28442147374153137, 0.30942678451538086, -0.18449868261814117, -0.6608017086982727, -0.40866968035697937, -0.3872353434562683, 0.18930985033512115, -0.7184749841690063, -0.9798219799995422, -0.39215168356895447, 0.18772979080677032, 0.5809351801872253, 0.027867738157510757, -0.19749970734119415, 0.2167540192604065, 0.29641345143318176, -0.19743917882442474, -0.6023997068405151, 0.019311467185616493, -0.2523679733276367, -0.07752725481987, -0.39680036902427673, -0.021758534014225006, -0.0606914646923542, -0.35463955998420715, 0.569329559803009, -0.18158107995986938, 0.13385365903377533, -0.2949780523777008, 0.1242523342370987, 0.048003725707530975, -0.002732261549681425, 0.1698169857263565, 0.1204669326543808, 0.046243514865636826, 0.10678065568208694, -0.27378159761428833, 0.15747377276420593, 0.2510957717895508, 0.2653803527355194, 0.016077641397714615, 0.05151807889342308, -0.05067439377307892, -0.16882926225662231, -0.624011218547821, -0.20244139432907104, -0.28007879853248596, 0.0035667528863996267, 0.032260265201330185, -0.021153070032596588, 0.5024208426475525, 0.041601162403821945, -0.4311445355415344, -0.35339221358299255, 0.5367946624755859, 0.23051054775714874, 0.022434934973716736, -0.050831638276576996, 0.2015874981880188, 0.4421923756599426, 0.6159063577651978, 0.4183083176612854, 0.41747280955314636, 0.4473457634449005, 0.3761708736419678, 0.3126598000526428, 0.4294678866863251, 0.43091002106666565, 0.21448130905628204, 0.6124085783958435, 0.0341421440243721, 0.02810385450720787, 0.14551909267902374, 0.6062983870506287, 0.2617274224758148, 0.5556332468986511, 0.6554888486862183, -0.8842013478279114, -0.27304571866989136, 0.038489047437906265, -0.052556395530700684, -0.3603322207927704, 0.5219874978065491, 0.4183272123336792, 0.33817312121391296, -0.3794126808643341, -0.1323518455028534, 0.31128832697868347, 0.6879342794418335, -0.03852875530719757, 0.006460986565798521, 0.29808109998703003, -0.030965175479650497, 0.11114491522312164, 0.658456027507782, 0.5107560157775879, 0.22158312797546387, 0.24749818444252014, 0.3434372842311859, -0.09279440343379974, -0.012212279252707958, 0.017005322501063347, -0.5827460885047913, -0.20396026968955994, 0.45103752613067627, -0.3057215213775635, -0.3217085599899292, -0.03340460732579231, -0.06292825192213058, -1.1668027639389038, 0.15259703993797302, -0.16092588007450104, -0.045693289488554, 0.06466745585203171, 0.1345657855272293, -0.08477353304624557, 0.5634299516677856, 0.1486463099718094, -0.04430776089429855, -0.1091541200876236, -0.4184044301509857, 0.1926809698343277, 0.25769585371017456, 0.0983237475156784, 0.3477800786495209, 0.11547724157571793, 0.24796563386917114, 0.04470212012529373, -0.11719557642936707, 0.04058795049786568, -0.5577535629272461, -0.23980513215065002, -0.39610886573791504, 0.2672586441040039, -0.035539086908102036, 0.06571189314126968, 0.023415453732013702, 0.3378157317638397, -0.3867407441139221, 0.1047474592924118, 0.32221952080726624, -0.3244263231754303, 0.2013603150844574, 0.10273546725511551, 0.6275916695594788, 0.39619940519332886, -0.4239101707935333, -0.3585464656352997, -0.05732923001050949, 0.1169695258140564, 0.789425790309906, 0.9803869128227234, 1.2637932300567627, 0.8432069420814514, 0.8529691696166992, 0.4951449930667877, 0.5588959455490112, -0.10868323594331741, -0.791804313659668, -0.8156106472015381, 0.013230335898697376, 0.06384246796369553, -0.05915085971355438, -0.06712648272514343, -0.02591807395219803, -0.8186296224594116, -0.7979276180267334, -0.6866502165794373, -0.22657008469104767, -0.5056670308113098, -0.297672301530838, 0.03873301297426224, -0.10321901738643646, -0.3939407467842102, -0.3119100332260132, -0.05888728052377701, -0.45611122250556946, -0.14729705452919006, -0.05801998823881149, 0.49800997972488403, 0.573771059513092, 0.7496670484542847, 0.5547919273376465, 0.22574272751808167, 0.4436717927455902, 0.041876405477523804, -0.24872331321239471, -0.4648345708847046, 0.06633853167295456, -0.004003135487437248, -0.018712669610977173, 0.08343327790498734, -0.016759134829044342, 0.0017783716320991516, -0.2570216953754425, -0.6744850873947144, 0.1277121901512146, 0.14703883230686188, 0.06425551325082779, 0.3387126624584198, 0.49685677886009216, 0.012325835414230824, -0.01974331960082054, -0.29447174072265625, -1.0267993211746216, -0.839194118976593, -0.5020485520362854, -0.6679849028587341, -0.2757563889026642, 0.07131697237491608, 0.3082329034805298, 0.2288055717945099, -0.5584319829940796, 0.25346237421035767, -0.02612827718257904, 0.5333870053291321, 0.3553508520126343, -0.022955037653446198, 0.04349663108587265, 0.026028282940387726, -0.01448628306388855, 0.07049860805273056, -0.00901544839143753, 0.5714433193206787, 1.2895070314407349, -0.00042626034701243043, 0.7780354022979736, 0.5308764576911926, 0.7991839647293091, 0.14831116795539856, -0.06842222809791565, 0.2226521074771881, 0.5457677841186523, -0.22463668882846832, -0.1577882170677185, 0.486976683139801, 1.3168671131134033, 0.39069244265556335, 0.31135889887809753, -0.07847753912210464, 0.020846934989094734, 0.5248624682426453, 0.672003448009491, -0.0216793492436409, 0.017446622252464294, 0.012331396341323853, 0.06164621561765671], [0.07680726796388626, -0.01461857557296753, 0.025182485580444336, 0.032563626766204834, -0.08136419206857681, -0.002201393246650696, -0.0662652999162674, 0.001295521855354309, 0.08570694178342819, -0.07883946597576141, 0.06164412945508957, -0.0641917809844017, -0.4533472955226898, -0.7309955954551697, -0.38728809356689453, 0.014209038577973843, 0.08537597209215164, -0.07668370008468628, 0.05774461477994919, -0.0008668527007102966, -0.08336152881383896, -0.07590275257825851, -0.06653381884098053, 0.033501796424388885, 0.07931213825941086, -0.06321725249290466, -0.06431254744529724, 0.030294127762317657, -0.014471262693405151, 0.008528336882591248, 0.02007158100605011, 0.013720467686653137, -0.2029186338186264, -0.33546698093414307, -1.013387680053711, -1.2575875520706177, -0.432933509349823, -1.0732311010360718, -1.5091052055358887, -1.0078192949295044, -1.1568630933761597, -1.374313235282898, 0.8616282939910889, -0.34869349002838135, -0.4459151029586792, -1.061081886291504, -0.7886526584625244, -0.9472191333770752, -0.8771795034408569, -1.1734651327133179, -0.7743575572967529, -0.42503196001052856, -0.033779583871364594, 0.028806522488594055, -0.04014541953802109, 0.06439463049173355, 0.013599656522274017, -0.0696103572845459, -0.24511286616325378, -0.663145899772644, -0.6953055262565613, -0.8586815595626831, -0.8581748008728027, -1.5125625133514404, -0.5105518698692322, 0.41595715284347534, 0.3305303454399109, -0.37090811133384705, 0.3436490595340729, 0.6064102649688721, 0.8680738210678101, 0.5575615763664246, 0.20177379250526428, -0.03874950110912323, -0.3229292631149292, -1.1026500463485718, -0.43873000144958496, 0.2475893646478653, -0.19569936394691467, 0.19266004860401154, 0.518145740032196, 0.5009397864341736, 0.04070001095533371, -0.04438075050711632, 0.032432377338409424, -0.03137018159031868, 0.2252204418182373, -0.5277890563011169, -0.7829185724258423, 0.2158001810312271, 0.45787927508354187, 1.212942123413086, 0.20401139557361603, 0.33054351806640625, 0.04705861210823059, 0.25366318225860596, 0.5596671104431152, 0.21736305952072144, -0.049145180732011795, 0.3342461585998535, 0.20117346942424774, -0.07860514521598816, -0.16552168130874634, -0.4895284175872803, -0.4877677857875824, -0.4043559432029724, -0.647056519985199, -0.7320402264595032, 0.20401674509048462, 0.6143603324890137, 0.5115702748298645, 0.07964741438627243, -0.027485307306051254, 0.26023536920547485, 0.6232811212539673, 0.21748995780944824, 1.017099142074585, 0.1792386770248413, 0.06861764192581177, 0.0670827329158783, 0.4735329747200012, 0.033395517617464066, 0.3851294219493866, 0.3771023452281952, 0.2757594883441925, 0.052549444139003754, 0.011017879471182823, -0.21253041923046112, -0.1639028936624527, -0.5135093927383423, -0.4661652147769928, -0.1481359452009201, -0.18426993489265442, -0.5060645937919617, -0.5157256722450256, -1.0923415422439575, -0.24243579804897308, 0.3793015778064728, -0.02999018132686615, -0.07781467586755753, 0.020264998078346252, -0.022386252880096436, 0.21569623053073883, 0.41167670488357544, 1.1468255519866943, 0.9113721251487732, 0.1851000189781189, 0.5541365742683411, 0.6401866674423218, 0.3483256995677948, 0.5342289209365845, 0.37101972103118896, 0.25106096267700195, 0.08549279719591141, -0.2107778787612915, -0.023555438965559006, 0.03843725845217705, -0.3573135733604431, -0.2278459668159485, 0.3423176407814026, 0.08580739796161652, -0.015562424436211586, -0.6756470799446106, -0.3642108738422394, -0.9756061434745789, -0.09364748001098633, 0.3563607335090637, -0.006540975999087095, -0.05407354608178139, 0.012702468782663345, 0.4299241304397583, 1.2023236751556396, 0.41578176617622375, 0.4887714982032776, 0.42513012886047363, 0.05689118802547455, 0.39530131220817566, 0.45403221249580383, 0.7399381399154663, 0.45230191946029663, 0.4327276945114136, 0.211962029337883, -0.030064979568123817, -0.054817553609609604, -0.25878214836120605, -0.2562740743160248, -0.1592518389225006, 0.06358998268842697, 0.10095949470996857, -0.5699600577354431, 0.04690774157643318, -0.3052169382572174, -0.915830671787262, -0.6145700812339783, -0.10891491174697876, -0.07710664719343185, -0.1674957424402237, 0.07333075255155563, 0.42186200618743896, 0.8342342972755432, 0.2484413981437683, 0.3818719983100891, 0.5179668664932251, 0.2500040829181671, 0.4341914653778076, 0.5775500535964966, 0.28235960006713867, 0.4004877209663391, 0.7274647355079651, 0.4896838963031769, 0.45368659496307373, 0.007424111943691969, -0.45204418897628784, 0.01599600911140442, 0.10048055648803711, 0.17366255819797516, 0.14613395929336548, 0.20342285931110382, -0.31878378987312317, -0.32879164814949036, -0.159235879778862, -1.7344200611114502, -0.8871171474456787, -0.34437692165374756, -0.7593500018119812, 0.8824945092201233, 0.18348392844200134, -0.014468020759522915, -0.11619843542575836, -0.04736859351396561, -0.1543990671634674, -0.2576475143432617, 0.050771310925483704, 0.4366755485534668, 0.5024675130844116, 0.6198529005050659, 0.8488906025886536, 0.834986686706543, 0.8298250436782837, 0.5017899870872498, -0.22585010528564453, 0.1581914722919464, 0.3107732832431793, 0.43323904275894165, 0.044833987951278687, 0.1621323525905609, 0.06332486122846603, -0.6977812647819519, -0.2547543942928314, -1.0840156078338623, -0.15718327462673187, -0.3096221387386322, 0.15471404790878296, -0.3941839337348938, 0.621671199798584, 0.29310867190361023, 0.5284041166305542, -0.4253328740596771, 0.04757180064916611, 0.04860314726829529, -0.1599736511707306, -0.11139553785324097, -0.4284205138683319, -0.2050521969795227, -0.13371111452579498, -0.5052863955497742, -0.03369707614183426, 0.288061261177063, 0.3038274943828583, 0.1513683795928955, 0.4222593307495117, -0.03382546454668045, -0.36583417654037476, -0.4222910404205322, 0.08371216058731079, -0.18279807269573212, -0.49133697152137756, -0.8039548993110657, -0.06138751655817032, 0.18856512010097504, 0.1975380927324295, -0.8974586129188538, 0.6937212347984314, -0.24162518978118896, -0.3824422359466553, -0.7843225002288818, -0.281857430934906, -0.7816386222839355, -0.9489814043045044, -1.3912644386291504, -1.360454797744751, -1.446974277496338, -1.6472892761230469, -0.9675089120864868, -0.9278044700622559, -0.5841798186302185, 0.02741383947432041, 0.21134968101978302, 0.09683426469564438, -0.13435930013656616, 0.09194578975439072, 0.17973235249519348, 0.09540846198797226, -0.4954948425292969, -1.0593767166137695, 0.4665868282318115, 0.47314611077308655, 0.39574527740478516, -0.019748026505112648, -0.6298938989639282, -0.7449512481689453, -0.8709048628807068, -0.8821362257003784, -1.5190918445587158, -2.50711989402771, -2.576756477355957, -1.8141372203826904, -1.5346145629882812, -1.5275750160217285, -0.8133790493011475, -0.6524236798286438, -0.8727152347564697, -0.7522211074829102, -0.37362316250801086, -0.15000183880329132, 0.05924748629331589, -0.18406237661838531, -0.03411341831088066, -0.054758910089731216, -0.2610611915588379, -0.5709941983222961, -0.1292305439710617, -0.543556272983551, -0.2679349184036255, -0.7154445648193359, -0.2556532621383667, -0.09517084062099457, -0.6493702530860901, -0.3740551471710205, -0.5497134923934937, -0.9462646842002869, -2.4006080627441406, -2.8090200424194336, -1.550203800201416, -0.3429926037788391, -0.7045015096664429, -0.31387174129486084, -0.2526994049549103, 0.2278553992509842, -0.23491278290748596, -0.07057962566614151, 0.39321109652519226, 0.14448592066764832, -0.20758585631847382, 0.2119193822145462, -0.027987128123641014, -0.40780431032180786, 0.14241431653499603, -0.41596049070358276, -0.19801045954227448, 0.49040016531944275, 0.4071308374404907, 0.44338497519493103, -0.5678645372390747, -0.4191526472568512, -0.7807303667068481, -0.715442955493927, -0.5227875709533691, -1.3250187635421753, -1.742861270904541, -0.5072370767593384, -0.2684195637702942, 0.375261127948761, 0.5926392078399658, 0.5763115286827087, 0.4461595118045807, 0.05412288010120392, -0.09059615433216095, 0.10582724958658218, -0.5129331946372986, -0.47803857922554016, -0.03355656564235687, -0.025625456124544144, -0.27581483125686646, -0.08460820466279984, 0.1765817403793335, 0.02906958945095539, -0.10653109103441238, 0.2969053089618683, 0.23232518136501312, 0.22985440492630005, -0.39773401618003845, -0.3192625939846039, -0.5241602063179016, -0.39594143629074097, -0.37432411313056946, 0.12220677733421326, 0.026770014315843582, 0.5099101662635803, 0.4511030316352844, 0.438399076461792, 0.6639122366905212, 0.45447206497192383, 0.3830544650554657, 0.11742637306451797, -0.1819378137588501, 0.06698264181613922, -0.3427444398403168, -0.14890821278095245, 0.05258762091398239, -0.034670524299144745, -0.277584969997406, -0.26846805214881897, -0.11388044059276581, 0.21381224691867828, -0.1409427523612976, 0.2264328896999359, 0.16183356940746307, 0.31114712357521057, 0.3470374345779419, -0.27426302433013916, -0.07792747020721436, -0.1791839450597763, -0.08393983542919159, 0.14713025093078613, 0.5026337504386902, 0.8817312717437744, 0.4807705879211426, 0.1414167881011963, 0.25442996621131897, 0.08034596592187881, 0.05422849953174591, -0.3140872120857239, 0.043832797557115555, 0.041094496846199036, 0.021834846585989, 0.00909128412604332, 0.1888471245765686, -0.4128010869026184, -0.17069341242313385, 0.053934935480356216, 0.24323268234729767, 0.31904926896095276, 0.07023163884878159, 0.08509232848882675, 0.22130832076072693, 1.1429270505905151, -0.020487340167164803, 0.13232149183750153, 0.23626600205898285, 0.6379207968711853, 0.13753263652324677, 0.537138819694519, 0.6525384783744812, 0.40455377101898193, -0.050857387483119965, -0.39533916115760803, 0.14793150126934052, 0.010280321352183819, -0.8097805380821228, -0.6782956719398499, -0.3435836434364319, 0.001364407828077674, -0.16945666074752808, 0.07577043026685715, -0.07710389047861099, -0.31113556027412415, 0.1613921970129013, 0.13184578716754913, 0.03886786848306656, 0.1702289581298828, -0.058466918766498566, 0.532785177230835, 0.10552474111318588, 1.456261157989502, -0.062324848026037216, 0.02758050709962845, 0.1508198231458664, 0.6444151401519775, -0.19823232293128967, 0.23831768333911896, 0.18677328526973724, 0.11872031539678574, -0.3181784152984619, -0.14954720437526703, -0.19758497178554535, -0.5100485682487488, -0.5976146459579468, -0.5935360193252563, -0.27515751123428345, 0.3069799840450287, 0.48378315567970276, -0.048523202538490295, -0.14493773877620697, 0.15864604711532593, -0.058069858700037, 0.14448387920856476, -0.35897964239120483, -0.38830307126045227, 0.01087558176368475, -0.04908417910337448, 0.5569539070129395, 0.9331588745117188, -0.4543900489807129, 0.025044381618499756, 0.7119560241699219, 0.42504146695137024, 0.4902021586894989, -0.15185563266277313, 0.2278633862733841, 0.23344896733760834, -0.048506639897823334, 0.1366601586341858, 0.0074933976866304874, -0.36759787797927856, -0.3010879456996918, -0.04245278611779213, 0.3401365876197815, 0.4483562707901001, 0.4234330356121063, 0.445152223110199, 0.5831027030944824, 0.41327938437461853, -0.002301321364939213, 0.21859867870807648, 0.31372004747390747, 0.07295260578393936, -0.20478349924087524, -0.16974151134490967, 0.4554530084133148, 0.4197671413421631, 0.8716883063316345, -0.13107600808143616, 0.3153381943702698, -0.13305699825286865, 0.25411349534988403, 0.11578568816184998, 0.042816512286663055, 0.11993823945522308, 0.174037367105484, -0.06149761751294136, 0.012814880348742008, -0.1899193525314331, -0.06744302064180374, -0.5137248635292053, -0.5481148958206177, 0.01496086735278368, 0.2595212161540985, 0.33946624398231506, 0.04178405925631523, -0.3387061357498169, -0.37313738465309143, 0.018564434722065926, 0.3159039318561554, 0.3727072775363922, -0.028686411678791046, 0.10381044447422028, 1.1738970279693604, 0.9529759287834167, 0.3677807152271271, -0.05562960356473923, -0.36093929409980774, -0.47875088453292847, 0.19629456102848053, 0.12780748307704926, 0.3506586253643036, 0.4179973006248474, 0.2375447005033493, 0.11231017112731934, 0.0022568954154849052, -0.10562950372695923, -0.19410423934459686, -0.5094280242919922, -0.45415350794792175, 0.15425211191177368, -0.017664145678281784, 0.06689304113388062, -0.046595580875873566, 0.15420381724834442, -0.0112870242446661, 0.03580112382769585, -0.12353911250829697, 0.1296835094690323, 0.18979360163211823, 0.3705778419971466, 0.39912867546081543, 1.3195087909698486, -0.047424450516700745, -0.10602620989084244, 0.5566989779472351, 0.6442781686782837, 0.05211832374334335, 0.08069933950901031, 0.25581449270248413, 0.22597740590572357, -0.12275916337966919, 0.04663660004734993, 0.10148049890995026, 0.04304010793566704, -0.427187979221344, -0.3500506579875946, -0.13032318651676178, -0.08000442385673523, -0.3169027864933014, -0.08188942819833755, -0.10120955854654312, 0.5428034067153931, 0.08321460336446762, -0.24686315655708313, 0.11897586286067963, -0.4360751807689667, 0.4541161060333252, 0.012288348749279976, -0.16219674050807953, -0.8075553774833679, -0.19792114198207855, -0.11343710869550705, -0.0943906232714653, 1.4250775575637817, -0.01584014669060707, 0.2673446238040924, -0.0218647550791502, 0.1883021742105484, 0.07750287652015686, -0.13546234369277954, -0.1503179520368576, -0.1857423633337021, -0.29883426427841187, -0.09917272627353668, -0.08747097849845886, -0.14399734139442444, -0.18057455122470856, -0.10375596582889557, -0.17231012880802155, 0.024551067501306534, 0.20479190349578857, 0.2998025715351105, 0.03208652138710022, -0.25705161690711975, 0.42377427220344543, 0.14442762732505798, -0.18400727212429047, -0.849161684513092, -0.3450186848640442, 0.07114885002374649, 0.07243850082159042, 0.28381308913230896, -0.6205500364303589, -0.5073920488357544, -0.017774537205696106, 0.13506130874156952, 0.16729749739170074, -0.5072194933891296, 0.17528599500656128, -0.5931307077407837, -0.3390372097492218, -0.13298960030078888, 0.14244385063648224, 0.035205546766519547, 0.16547216475009918, -0.03245331719517708, -0.6030173301696777, -0.2536035478115082, -0.1904163956642151, -0.48675793409347534, -0.05749545618891716, 0.14545372128486633, 0.25513383746147156, -0.042765479534864426, 0.0031214796472340822, -0.3175041973590851, 0.0013811290264129639, -0.04098621755838394, 0.011481285095214844, 0.7507357001304626, 0.6898851990699768, 0.14651450514793396, -0.12407008558511734, 0.03360538184642792, 0.4641530513763428, 0.29260188341140747, -0.06578933447599411, -0.08075270056724548, 0.20622588694095612, -0.02607523277401924, 0.11954750120639801, -0.2562776505947113, -0.286231130361557, -0.4719718396663666, -0.42839592695236206, -0.3998337984085083, -0.06639552116394043, -0.3474922776222229, 0.20826220512390137, -0.02052002027630806, 0.4307047128677368, 0.8130108118057251, 0.44852516055107117, 0.4820711314678192, -0.030962206423282623, -0.06609370559453964, -0.0015792474150657654, -0.5653128027915955, -0.1933641880750656, 0.3954307436943054, 0.534417450428009, 0.17425456643104553, 0.3506951332092285, 0.07681583613157272, 0.6874823570251465, 0.5531819462776184, 0.31667765974998474, 1.1605044603347778, 0.6307456493377686, -0.12622188031673431, -0.2708262503147125, 0.07848848402500153, -0.18538448214530945, -0.2834377884864807, -0.5764912366867065, 0.0945705845952034, -0.6475083827972412, -0.23303291201591492, -0.24444837868213654, -0.8245097398757935, 0.25081267952919006, 0.27616384625434875, -0.04384361207485199, -0.0004924088716506958, 0.07191198319196701, -0.08254294097423553, 0.08601899445056915, -1.0194082260131836, -0.5385598540306091, -0.2063273787498474, 0.23155182600021362, 0.5159070491790771, 0.41055285930633545, 1.3084120750427246, 0.9886307716369629, 0.9177390933036804, 0.20482076704502106, -0.02747800387442112, 1.0346955060958862, 1.0006705522537231, 0.2456105500459671, 0.296878844499588, 0.18238525092601776, -0.26674699783325195, -1.0111538171768188, -1.1660341024398804, -0.07939016073942184, 0.008691925555467606, 0.056134145706892014, 0.082127146422863, 0.0007547438144683838, 0.009375400841236115, -0.036205075681209564, -0.03800887241959572, 0.03205336630344391, 0.16599023342132568, 0.09435352683067322, -0.27041390538215637, -0.12472143024206161, -0.46932560205459595, -0.5407751798629761, -0.4136112630367279, -0.7276819348335266, -0.7388152480125427, -1.2560430765151978, -0.7386777400970459, -0.7456653118133545, -0.8586047291755676, 0.21334892511367798, -0.096101313829422, -0.6336902976036072, -0.3969856798648834, -0.5287544131278992, -0.4929649829864502, 0.275088369846344, -0.007590353488922119, 0.007633544504642487, 0.0033223554491996765, 0.018430516123771667], [-0.0502326637506485, 0.03682851046323776, 0.03369653970003128, 0.05694825202226639, -0.009388357400894165, 0.08554371446371078, 0.026618003845214844, -0.0792522057890892, 0.024598538875579834, -0.003063581883907318, -0.021551109850406647, 0.06640326231718063, 0.054275937378406525, 0.2641032934188843, 0.17426039278507233, -0.03732551261782646, 0.04708512872457504, 0.06768345087766647, -0.029199428856372833, -0.031726326793432236, -0.05227390304207802, -0.009848915040493011, -0.06311165541410446, -0.013622641563415527, -0.07440052926540375, -0.023979689925909042, 0.035725682973861694, -0.0482802577316761, 0.06515403836965561, 0.03254465013742447, -0.07210779935121536, -0.005053631961345673, 0.15183468163013458, 0.07832972705364227, 0.46654313802719116, 0.4570004343986511, 0.4224866032600403, 0.8941848874092102, 1.410505771636963, 1.434367060661316, 1.5405980348587036, 1.6279089450836182, -0.4270446300506592, -0.8161342144012451, -0.5050325989723206, 0.4579716920852661, 1.9207514524459839, 1.2124463319778442, 0.8683968782424927, 0.7633041143417358, 0.406870037317276, 0.1428401619195938, 0.014892682433128357, 0.009812340140342712, 0.047239549458026886, -0.05957488343119621, -0.03724440559744835, 0.016693979501724243, 0.3318924307823181, -0.02022946998476982, 0.3543214499950409, 0.7432369589805603, 1.2082186937332153, 1.6084959506988525, 1.4348660707473755, 1.9727684259414673, 1.3185826539993286, 0.3814305365085602, 0.4802361726760864, 0.3284383714199066, 0.5926564335823059, 0.18487124145030975, 0.03183114528656006, 0.508601188659668, -0.04558989033102989, 0.17792581021785736, 0.04288361221551895, 0.6695791482925415, 0.3234719932079315, -0.03582264482975006, 0.046855006366968155, -0.379180908203125, 0.0032520219683647156, 0.026432469487190247, 0.08243086189031601, 0.0053223296999931335, -0.2946741580963135, -0.34687820076942444, -0.5091688632965088, -0.28437182307243347, -0.07214830815792084, -1.1131850481033325, -0.4288007616996765, -0.05497574433684349, -0.0759238749742508, 0.2555692195892334, 0.08045602589845657, -0.23244568705558777, -0.24399082362651825, -0.9086537957191467, -0.6439592242240906, -0.2519060969352722, -0.850783109664917, -0.324139267206192, -0.9371500611305237, -0.3181682527065277, -0.21191759407520294, -0.6275908946990967, -0.8769491910934448, -0.5118467807769775, -0.278758704662323, 0.07343494147062302, -0.058320336043834686, -0.09577484428882599, -0.48317164182662964, -0.17680203914642334, -0.40254640579223633, 0.1620914787054062, 0.4149915277957916, 0.09495707601308823, 0.005787351168692112, -0.15002939105033875, -0.6834215521812439, -0.26681843400001526, 0.0863100066781044, 0.38559481501579285, 0.2361522912979126, 0.1605205088853836, 0.0059028672985732555, 0.5145440697669983, -0.5805871486663818, -0.6469686627388, -0.7945104241371155, -0.32674872875213623, 0.6385307312011719, 0.9020934700965881, 0.22149576246738434, 0.3580525517463684, -0.32613617181777954, 0.8719685077667236, -0.014228619635105133, -0.0527837760746479, 0.7291850447654724, -0.1923280954360962, -0.4538205862045288, -0.5441048741340637, 0.04607590660452843, -0.30552738904953003, -0.3800218403339386, -0.6437456607818604, 0.40926867723464966, 0.19569987058639526, 0.5396968722343445, 0.576056182384491, 0.48758643865585327, -0.04364379122853279, -0.1026141569018364, 0.5414526462554932, 0.15800510346889496, 0.1762271225452423, 0.28696852922439575, 0.5933294892311096, 0.015854012221097946, 0.3302764892578125, -0.025556428357958794, -0.6372058391571045, -0.6444022059440613, 0.5728144645690918, -0.042387139052152634, 0.018681088462471962, 0.2601221203804016, -0.39086204767227173, -0.7959203720092773, -0.17239131033420563, 0.12330220639705658, 0.11559808254241943, -0.12666049599647522, 0.22226771712303162, 0.14696446061134338, -0.13605362176895142, 0.01576712168753147, 0.4495609700679779, 0.4754182696342468, 0.7594303488731384, 1.1984381675720215, 0.46889063715934753, -0.043539706617593765, 0.03063974902033806, 0.11188515275716782, -0.09066512435674667, -0.0911054015159607, -0.43544453382492065, 0.06156029924750328, -0.2664928436279297, -0.014366617426276207, 0.3071947693824768, 0.050755370408296585, -0.7015551328659058, 0.4068931043148041, -0.3149881958961487, -0.2108915001153946, -0.5058776140213013, 0.3407067656517029, 0.10960964858531952, -0.35637006163597107, -0.30400046706199646, -0.1737164556980133, -0.08336520195007324, -0.2002129852771759, 0.6830241084098816, 0.7184948325157166, 0.8543636798858643, 0.4670622944831848, 0.23920078575611115, 0.10137929022312164, -0.08980586379766464, -0.2171967327594757, -0.3695553243160248, 0.061073414981365204, -0.3330681025981903, 0.11329302191734314, -0.10467280447483063, 0.2959781289100647, 0.2082829475402832, 0.5336600542068481, -0.6968430280685425, 0.2826197147369385, -0.16791439056396484, -0.5025879740715027, -0.0022978500928729773, 0.4382316470146179, 0.34877249598503113, -0.32591915130615234, 0.05779384821653366, 0.1721576750278473, -0.11198025941848755, 0.31657153367996216, 0.5509302020072937, 0.4798509478569031, 0.4028039574623108, 0.4070678651332855, -0.06842053681612015, -0.40046676993370056, -0.7115684151649475, -0.444748193025589, -0.04689142480492592, -0.3264491856098175, -0.6064443588256836, -0.47074094414711, 0.05166059359908104, 0.7818354368209839, -0.297043114900589, -0.20662620663642883, -0.9908483028411865, 0.6521708369255066, 0.05390540510416031, -0.15372896194458008, 0.34991323947906494, 0.08292412757873535, -0.25128865242004395, -0.07705061137676239, 0.24639254808425903, 0.144880473613739, 0.05043288320302963, -0.04558030143380165, -0.2934054136276245, -0.5590759515762329, -0.4449584484100342, -0.567904531955719, -0.9093894362449646, -0.5143923759460449, -0.4508659541606903, 0.08550867438316345, -0.2817932963371277, -0.7897360920906067, -0.4029260575771332, -0.8342733383178711, -0.5359600782394409, 0.2624608278274536, 0.6191940903663635, -0.2005634754896164, -0.9978208541870117, -0.468267560005188, -0.15967535972595215, 0.08223103731870651, -0.07730050384998322, 0.18567845225334167, 0.11123856902122498, 0.14915254712104797, -0.11326739937067032, -0.2523704767227173, -0.34906309843063354, -0.16167029738426208, -0.8909052610397339, -0.33708852529525757, -0.2909078598022461, -0.3038870692253113, -0.09657599031925201, -0.24486197531223297, -0.2522416114807129, -0.22149953246116638, -0.17714086174964905, -0.1104876697063446, -0.46599042415618896, -0.5548012256622314, -0.49237215518951416, -0.1219571903347969, 0.40043655037879944, 0.007885102182626724, 0.2963598668575287, -0.9459245204925537, -0.7139483690261841, -0.09974812716245651, -0.1621180921792984, 0.2302434742450714, 0.3650249242782593, 0.3840786814689636, -0.4236471652984619, -0.6250277757644653, -0.6180634498596191, -0.2222200632095337, 0.14869777858257294, 0.3391391634941101, -0.03609486296772957, 0.4993249773979187, 0.08733873814344406, -0.286903440952301, -0.044664349406957626, -0.4412420988082886, 0.3117254972457886, 0.12036297470331192, 0.29217442870140076, -0.0964837297797203, -0.9330025911331177, -0.2792557179927826, 0.15425802767276764, -0.08601194620132446, -0.6440846920013428, -0.12252121418714523, -0.35121846199035645, 0.2400444746017456, 0.17000675201416016, 0.03614825755357742, -0.21075524389743805, -0.36445626616477966, -0.6163691282272339, -0.8524408340454102, -0.26885122060775757, 0.3247056305408478, 0.6704907417297363, 0.30829787254333496, 0.4389454424381256, 0.39244920015335083, 0.47860032320022583, -0.04689912125468254, 0.21680323779582977, 0.38993528485298157, 0.9263719320297241, 0.262631893157959, 0.6725841164588928, 0.5053393244743347, -0.6308742165565491, -1.401513695716858, 0.24291232228279114, -0.06940355896949768, 0.03151983767747879, -0.3439941108226776, 0.03321899101138115, -0.5291787981987, -0.31563201546669006, -0.03076319582760334, -0.12450755387544632, -0.19393396377563477, -0.1137448102235794, -0.21647921204566956, 0.08154384791851044, 0.6293057799339294, 0.6736390590667725, 0.27015653252601624, 0.832472562789917, 0.40663039684295654, 0.4358765184879303, 0.6566210389137268, 0.2994854152202606, -0.23972058296203613, -0.18604989349842072, 0.12630833685398102, 0.7226088643074036, 1.1308106184005737, 0.8645223379135132, -0.2523272931575775, 0.6712354421615601, -0.006656770594418049, -0.13148283958435059, -1.1437700986862183, 0.31175631284713745, 0.03524574264883995, 0.08674147725105286, 0.389560729265213, 0.5084177255630493, -0.0020522931590676308, 0.07700346410274506, 0.030751671642065048, 0.41046395897865295, 1.0529537200927734, 0.6320255994796753, 0.7788146734237671, 0.38927897810935974, 0.29013878107070923, 0.7013742923736572, 0.2597303092479706, -0.11778564751148224, -0.3873932361602783, -0.5754780769348145, 0.2847299575805664, -0.5099130868911743, 0.03111405298113823, 0.6602711081504822, 0.9804922342300415, 0.4751545190811157, -0.05551238730549812, 0.01490667276084423, -0.22892925143241882, 0.06279025226831436, -0.016109544783830643, -0.06771935522556305, -0.47711604833602905, 0.13648732006549835, 0.2805476784706116, 0.1783180683851242, 0.36117392778396606, 0.8117050528526306, 0.7339147925376892, 0.6144046783447266, 0.6798362135887146, 0.4305919110774994, 0.9070765972137451, 0.5201394557952881, 0.06280510872602463, -0.6140372157096863, -0.5315113663673401, -0.26575273275375366, -0.3835122883319855, -0.27646079659461975, -0.5263749361038208, 0.31283774971961975, 0.5746508240699768, 0.5334619879722595, -0.016355067491531372, -0.176957368850708, 0.2582942843437195, 0.12211494892835617, 0.27240777015686035, -0.5245670080184937, -0.5910168886184692, 0.07888391613960266, 0.1521691381931305, -0.15765222907066345, 0.2004280686378479, 0.9047470092773438, 0.6545692682266235, 0.13601750135421753, 0.7385969758033752, 0.5656681060791016, 0.5266552567481995, 0.2973134517669678, -0.553399920463562, -0.5617509484291077, -0.2397948056459427, -0.7312091588973999, -0.3021181523799896, 0.05093636363744736, -0.034985627979040146, 0.9560225605964661, 1.0108383893966675, -0.2181340456008911, -0.07020185887813568, 0.1352529674768448, 0.29554659128189087, -0.2041468620300293, 0.4491986334323883, -0.2363022118806839, 0.1921050101518631, 0.368744820356369, -0.08337008208036423, 0.29106253385543823, 0.7001023292541504, 0.8485649824142456, 0.9443761110305786, 0.7925285696983337, 0.17233754694461823, 0.24230682849884033, 0.0633135586977005, -0.06904800236225128, -0.38108739256858826, 0.05250873416662216, 0.23323141038417816, 0.23870642483234406, 0.31300172209739685, 0.12688621878623962, 0.11016078293323517, -0.20032930374145508, 1.7327585220336914, -0.31679850816726685, -0.2548057436943054, 0.028544437140226364, -0.4974447786808014, -0.24268889427185059, 0.1935732066631317, -0.31859683990478516, 0.04713878408074379, -0.09643835574388504, -0.43795040249824524, -0.4478263854980469, 0.1474805474281311, 0.1462545394897461, -0.08113676309585571, -0.06014120206236839, -0.19027060270309448, 0.14184530079364777, -0.1486382633447647, -0.48617082834243774, -0.33349883556365967, -0.1497546136379242, -0.2021825760602951, 0.10591979324817657, -0.040150292217731476, -0.3043749928474426, 0.17875167727470398, -0.3205875754356384, 1.3734042644500732, 0.4400923252105713, -0.02180575020611286, -0.6545408964157104, -0.648378312587738, -0.22814179956912994, -0.0038782714400440454, 0.08438976109027863, -0.25552913546562195, -0.7486282587051392, -0.9302695393562317, -0.8870521187782288, -0.5545549988746643, -0.579917311668396, -0.8167855739593506, -0.9778522253036499, -0.2384175956249237, -0.04714575409889221, -0.013352829031646252, -0.21348939836025238, 0.05791172385215759, -0.06382125616073608, -0.48868241906166077, -0.25214532017707825, 0.25945454835891724, -0.20816688239574432, -0.17530734837055206, -0.16407522559165955, 1.1525413990020752, 0.3406938314437866, -0.019314751029014587, 0.0005505860899575055, 0.10333452373743057, -0.17786657810211182, 0.20714518427848816, 0.5346074104309082, 0.06525873392820358, -0.0627262070775032, -0.0846698135137558, -0.38243237137794495, -0.44143763184547424, -0.5411864519119263, -0.5664306879043579, -0.3165154755115509, 0.1343858689069748, 0.49175959825515747, 0.036640699952840805, -0.015377632342278957, -0.05022388696670532, 0.26435524225234985, -0.15948545932769775, 0.4137502610683441, 0.5807321071624756, 0.7882185578346252, -0.5190381407737732, 0.05506289005279541, 0.913948655128479, -0.20834632217884064, 0.012210332788527012, 0.5758329629898071, -0.29071661829948425, 0.48118913173675537, 0.659764289855957, 0.4667069911956787, 0.7298986315727234, 0.6329188942909241, 0.3578442931175232, -0.07169139385223389, -0.0338030569255352, -0.08407215029001236, 0.11875739693641663, 0.2536519169807434, 0.2557179033756256, 0.5300135016441345, 0.12207164615392685, 0.008415205404162407, -0.4669228792190552, -0.09493652731180191, 0.29997456073760986, 0.568874716758728, 1.2364143133163452, 0.20865383744239807, -0.4478713870048523, -0.4772190451622009, -0.5051858425140381, -0.04445931315422058, -0.014912412501871586, 0.005455725826323032, -0.5386260151863098, 0.27239134907722473, 0.8060823678970337, 0.923828661441803, 0.7637133002281189, 0.4400911331176758, -0.0011979339178651571, -0.11827193945646286, 0.5110871195793152, 0.544793963432312, 0.37147051095962524, 0.42471185326576233, 0.19347521662712097, 0.06993424147367477, 0.012326720170676708, -0.3319039046764374, -0.08100739866495132, 0.28147652745246887, 0.421726793050766, 0.7101306319236755, 0.7759391665458679, -0.039433784782886505, -0.2698409855365753, -0.6615450978279114, -0.4966822564601898, 0.05176165699958801, -0.047421712428331375, 0.018063418567180634, -0.782222330570221, -0.9543177485466003, -0.5008677840232849, 0.2527078092098236, 0.5813704133033752, 0.7302761673927307, 0.9528580904006958, 0.4023420810699463, 0.1749764382839203, -0.10484863817691803, 0.05463366582989693, 0.7087011933326721, 0.6208032965660095, 0.27973315119743347, -0.028049981221556664, -0.21999868750572205, 0.31262823939323425, 0.5278404355049133, 0.7522755861282349, 0.2457178831100464, 0.4932502210140228, -0.07740017771720886, -0.5767527222633362, -0.665490448474884, -0.6921412944793701, 0.047159112989902496, 0.08443299680948257, -0.00636262446641922, -0.8571590185165405, -0.5981491208076477, -0.9969272613525391, -0.7158305644989014, -0.0902944877743721, 0.06494758278131485, -0.15593434870243073, 0.16743727028369904, -0.12741152942180634, -0.08307473361492157, -0.014493390917778015, -0.09963005781173706, 0.009521149098873138, 0.18130655586719513, -0.0027316745836287737, -0.34887680411338806, 0.35370582342147827, -0.051635727286338806, 0.05381200462579727, 0.39408227801322937, 0.4680284857749939, 1.0073268413543701, 0.17031258344650269, 0.8553515672683716, -0.07174745947122574, -0.05151795223355293, -0.030623316764831543, -0.07077774405479431, 0.5627812147140503, 0.24855957925319672, -1.1593644618988037, -0.41369909048080444, -0.10790468752384186, -0.7860646843910217, -0.39207372069358826, -0.8692786693572998, -0.6268994808197021, -0.3906208574771881, -0.8499346375465393, -0.5281262993812561, -0.33141860365867615, -0.3835849463939667, -0.6301296949386597, -0.027006862685084343, -0.26805466413497925, -0.3737431466579437, -0.18046821653842926, -0.12351331114768982, -0.16024000942707062, 0.3502879738807678, 0.17759816348552704, -0.05466141924262047, 0.20318765938282013, 0.05905897170305252, 0.08024502545595169, 0.05417368561029434, -0.07299301773309708, -0.3917373716831207, 0.8341756463050842, 0.4133549630641937, 0.5362826585769653, 0.2087818682193756, 0.18236678838729858, 0.6013427972793579, 0.40888869762420654, 0.08586180210113525, -0.10187739133834839, -0.33468273282051086, -0.028996894136071205, -0.8449988961219788, -0.7432588934898376, 0.6881690621376038, -0.06121964007616043, -0.7178040146827698, -0.2748795747756958, 0.13521263003349304, -0.5073145031929016, -0.9624932408332825, 0.6355463266372681, -0.0578153058886528, -0.01858159899711609, 0.04641827195882797, 0.07461770623922348, 0.04608968645334244, 0.006637483835220337, -0.036447782069444656, -0.28630298376083374, -0.2775365710258484, 0.020689407363533974, -0.23520809412002563, 0.17004944384098053, 0.251411497592926, -0.7595757246017456, -0.2915648818016052, -0.1748499870300293, -0.9290199875831604, -0.9943912625312805, 0.22624924778938293, 0.1144968718290329, -0.15874354541301727, -0.0954938605427742, -0.0935196727514267, 0.5504816174507141, 0.46817469596862793, -0.18914678692817688, -0.48138609528541565, 0.07757390290498734, 0.042610473930835724, 0.05087185651063919, -0.01866794377565384], [-0.08226494491100311, 0.00040459632873535156, -0.016988225281238556, 0.06379935890436172, 0.0209939107298851, -0.04365101829171181, 0.01589483767747879, -0.07213985174894333, 0.016756027936935425, -0.06088864430785179, 0.06675302237272263, 0.02052082121372223, 0.001387965283356607, 0.09781010448932648, -0.07601633667945862, -0.09202547371387482, 0.07744597643613815, 0.0034633278846740723, -0.031646985560655594, 0.05448129028081894, -0.0026408880949020386, 0.06696189194917679, 0.018212459981441498, 0.053621046245098114, 0.06584078818559647, -0.05530645698308945, -0.0789441242814064, -0.056503646075725555, -0.06460569053888321, 0.07835695892572403, -0.08467143774032593, 0.01670968532562256, 0.005903594195842743, -0.1065148413181305, -0.4713083803653717, -0.587299108505249, -0.48325708508491516, -0.7206019759178162, -0.8443991541862488, -1.4015144109725952, -1.4180827140808105, -1.1481637954711914, -0.41241031885147095, -1.1595690250396729, -1.1983095407485962, -1.0416157245635986, -0.3667409420013428, -0.5008772611618042, -0.2940845787525177, -0.49158406257629395, -0.7917805314064026, -0.683921217918396, 0.05435682088136673, 0.06637976318597794, -0.021012969315052032, 0.04022803157567978, -0.02841242402791977, 0.05241962522268295, -0.033066220581531525, -0.4221093952655792, -0.4946717917919159, -0.19613483548164368, -0.6396201252937317, -1.2930963039398193, -1.1700178384780884, -1.56906259059906, -1.932976245880127, -2.0980868339538574, -2.3717360496520996, -2.0481512546539307, -1.8382673263549805, -1.6667736768722534, -1.187677264213562, -0.2481355220079422, -0.34908968210220337, 0.15512938797473907, 0.29863736033439636, -1.0211877822875977, -0.9549786448478699, -0.7597712874412537, -0.14114132523536682, -0.43879714608192444, -0.02365703135728836, -0.06299307942390442, 0.06367368251085281, 0.056408755481243134, 0.03083604946732521, -0.7093029022216797, -0.8729140162467957, -0.7809928059577942, -1.3388640880584717, -1.7037564516067505, -1.364350438117981, -1.5989079475402832, -1.1948857307434082, -0.8058100342750549, -2.4620180130004883, -2.665848731994629, -3.224802017211914, -2.2276949882507324, -1.5893405675888062, -0.729240894317627, -0.32220539450645447, -0.06987079977989197, -0.6254960298538208, 0.39221495389938354, 0.7520478367805481, 0.9758870005607605, 0.9258092045783997, -0.2831708788871765, 0.292250394821167, 0.031139492988586426, 0.025570973753929138, -0.032273147255182266, -0.07167650759220123, -0.07374244928359985, -0.4171793758869171, -0.19158370792865753, 0.8497065901756287, 0.06717666983604431, -0.27032461762428284, -1.7514923810958862, -1.3704568147659302, -0.9039385318756104, -1.3874225616455078, -1.4358677864074707, -3.011103630065918, -2.339432954788208, -1.0114154815673828, -1.1893582344055176, -0.3319236636161804, -0.4422342777252197, -0.30350756645202637, 0.2881585657596588, 0.26681894063949585, 0.36289694905281067, -0.9128398299217224, -0.575831949710846, -0.8808322548866272, -0.2450999617576599, 0.036197684705257416, 0.011952199041843414, -0.9165215492248535, -0.12018672376871109, -0.9371277689933777, 0.4897209107875824, 0.0046623386442661285, 0.15777066349983215, 0.4502089023590088, 0.07098927348852158, 0.1266484409570694, -0.02730586566030979, 0.01800481230020523, -0.11745535582304001, 0.008222740143537521, -0.3660980463027954, -0.5793250799179077, 0.09151611477136612, -0.16736158728599548, -0.2038949877023697, -0.17069289088249207, -0.6112350225448608, -0.45614978671073914, 0.014018027111887932, 0.16570395231246948, 0.4513118267059326, -0.2010507881641388, 0.6387128233909607, -0.07479474693536758, -0.406282514333725, -0.08132442831993103, -0.2955717146396637, -0.5169758200645447, -0.05453895777463913, 0.08143103867769241, 0.1867194026708603, 0.32278701663017273, 0.5180422067642212, 0.5642630457878113, 0.09919416159391403, 0.2963857054710388, 0.18373790383338928, 0.15411138534545898, -0.13847294449806213, -0.004895723424851894, 0.6098979115486145, -0.051218532025814056, 0.06206485256552696, 0.35630902647972107, 0.42240381240844727, 0.2863408327102661, -0.045060306787490845, -0.1313214749097824, -0.3355686366558075, 0.31091785430908203, 0.06439194828271866, 0.32698389887809753, 0.09791186451911926, 0.30303919315338135, 0.3005112409591675, 0.08866450935602188, -0.22466124594211578, 0.30963191390037537, 0.09960173070430756, 0.20108486711978912, 0.3008413314819336, 0.4096042215824127, 0.052079930901527405, -0.04326422140002251, 0.15939590334892273, -0.5604380965232849, -0.8138224482536316, -0.03771615028381348, 0.2327168881893158, -0.10989514738321304, 0.12281351536512375, 0.34701618552207947, 0.1269218921661377, -0.003364808624610305, 0.403749942779541, -0.15463504195213318, -0.36532309651374817, 0.18851447105407715, 0.02998286858201027, -0.6897012591362, 0.5684707760810852, 0.12997666001319885, -0.34738031029701233, -0.21646256744861603, 0.17800578474998474, 0.14192786812782288, 0.4417003393173218, 0.5060132741928101, 0.13868750631809235, 0.0375044047832489, 0.15876856446266174, 0.1780516654253006, -0.20340128242969513, -0.20696716010570526, -0.348705530166626, -0.27161920070648193, -0.10199185460805893, 0.2034565657377243, 0.22477972507476807, -0.057382240891456604, 0.23549054563045502, -0.17876988649368286, -0.025730175897479057, -0.04241755232214928, -0.03464651107788086, -0.2702862024307251, -0.5934720039367676, 0.42934733629226685, 2.1910979747772217, 0.025544293224811554, 0.20986562967300415, -0.4377685487270355, 0.15505270659923553, 0.2003486305475235, 0.4962998032569885, 0.2990688383579254, -0.06226331368088722, 0.2044474482536316, 0.335823118686676, 0.46158722043037415, -0.02657613344490528, -0.07494238018989563, -0.003295357571914792, -0.05584617331624031, 0.13191629946231842, -0.1448814570903778, -0.21502064168453217, 0.3111518919467926, -0.22479912638664246, 0.4203904867172241, -0.23639313876628876, -0.15497155487537384, -0.49191907048225403, -0.3464159369468689, 0.6879756450653076, 0.32005593180656433, 2.354862928390503, -0.26238009333610535, 0.2331550419330597, -0.025097621604800224, -0.003861546516418457, -0.35459238290786743, -0.052424050867557526, 0.14233578741550446, 0.24038271605968475, 0.1828562468290329, 0.22478510439395905, 0.025748251006007195, -0.4357362687587738, -0.6194325089454651, 0.01789822243154049, 0.4276444613933563, 0.21013835072517395, 0.1229047104716301, 0.040584489703178406, -0.09073453396558762, -0.2547023296356201, -0.1383490413427353, -0.5376700758934021, -0.0872410237789154, 0.24393053352832794, -0.2359938621520996, 0.5476794242858887, 0.9885666966438293, -0.608180582523346, 0.5780628323554993, -0.064083993434906, -0.3175675570964813, -0.09862755984067917, -0.14996127784252167, -0.25813028216362, 0.2969851791858673, 0.14967308938503265, 0.48815616965293884, 0.260416179895401, -0.06371674686670303, -0.7641907334327698, -0.3163750171661377, 0.2599489688873291, 0.5950563549995422, 0.639617919921875, 0.3606680631637573, 0.11866788566112518, 0.07447340339422226, -0.22869232296943665, -0.18164199590682983, -0.7282481789588928, -0.4950721561908722, 0.02912621572613716, -1.3096399307250977, 0.24620911478996277, 0.7235313653945923, 0.97893226146698, 0.18471166491508484, -0.014263876713812351, -0.4204712212085724, -0.4410983622074127, -0.06187313050031662, -0.0031309721525758505, 0.09090274572372437, -0.22609256207942963, 0.10675125569105148, -0.4071275591850281, -0.7314364314079285, -0.5677461624145508, -0.3024887144565582, 0.8788326978683472, 0.7518869042396545, 0.373086541891098, 0.6118036508560181, 0.4475986659526825, 0.36700013279914856, 0.1781068593263626, -0.40485018491744995, -0.6952803730964661, -0.32492074370384216, -0.03929906338453293, -0.029606323689222336, 0.315736323595047, -0.5872178077697754, 0.3555735647678375, -0.13808324933052063, 0.13278941810131073, -0.5338155031204224, -0.056457702070474625, 0.06212653964757919, 0.599122941493988, -0.27058103680610657, -0.1604333221912384, -0.09820238500833511, -0.5363975167274475, -0.7360991835594177, -0.24282750487327576, 0.1848776787519455, 0.8033402562141418, 0.7993932962417603, 0.36628276109695435, 0.4042636454105377, 0.144260436296463, 0.18127623200416565, -0.3669162392616272, -0.45432227849960327, -0.35357874631881714, -0.23581960797309875, 0.22440172731876373, 0.011295734904706478, -0.7678031921386719, -0.4415987432003021, 0.5592476725578308, 0.06137321516871452, 0.6875243186950684, -0.13424980640411377, -0.5795853734016418, -0.28919243812561035, 0.445523738861084, -0.3557722866535187, 0.09456615895032883, -0.23878329992294312, -0.6658844947814941, -0.5727872252464294, 0.015519770793616772, 0.2308056801557541, 0.7311749458312988, 0.8485845327377319, 0.44414612650871277, 0.1391594558954239, 0.6770421266555786, 0.41895878314971924, -0.11086531728506088, -0.40000930428504944, -0.07728986442089081, -0.2841436266899109, 0.21881882846355438, -1.299544095993042, -0.6198238134384155, -0.17240071296691895, 0.4530288875102997, -0.29047754406929016, 0.6523559093475342, 0.6882076263427734, -0.5068364143371582, -0.33755725622177124, 0.1668792963027954, -0.15040087699890137, -0.0764494463801384, 0.056128598749637604, -0.026818523183465004, -0.2742355465888977, 0.0040548439137637615, 0.04769012704491615, 0.9488880038261414, 0.6542117595672607, 0.6574180722236633, 0.48793137073516846, -0.1696886569261551, 0.1816888004541397, 0.2549245357513428, 0.36008304357528687, 0.19692832231521606, -0.18063107132911682, -0.23707374930381775, -0.6059952974319458, 0.417868047952652, 0.5383936762809753, -0.4104471802711487, -0.629473090171814, -0.3650757372379303, 0.37712666392326355, -0.16797226667404175, -0.25058531761169434, 0.012260273098945618, 0.10444308072328568, -0.016693277284502983, -0.3595547676086426, -0.34383678436279297, 0.08558321744203568, 0.14223207533359528, 0.28983503580093384, 0.5658668875694275, 0.8621110320091248, 0.40378713607788086, -0.0623224638402462, -0.3007771968841553, -0.07743474841117859, 0.059855684638023376, -0.033365398645401, 0.20669010281562805, -0.03418153524398804, -1.2506749629974365, -1.6288803815841675, 0.02621152624487877, 0.06492198258638382, -0.16451115906238556, 0.4682479500770569, -0.8317564725875854, 0.24227558076381683, -0.05174252763390541, -0.3612414300441742, -0.03854934498667717, 0.3133634328842163, 0.10191179066896439, 0.13649310171604156, -0.23477476835250854, 0.1333533227443695, 0.23848791420459747, 0.35102251172065735, 0.45943623781204224, 0.04120374098420143, -0.5330249071121216, -0.3644728362560272, -0.9962906241416931, -0.7027928829193115, -0.1761489361524582, -0.34323757886886597, 0.037154704332351685, 0.022566817700862885, 0.3813142478466034, 0.4696328341960907, -0.4242720603942871, 0.2238989919424057, 0.304949551820755, 0.40338969230651855, 0.08796671032905579, -0.19674214720726013, -0.358043909072876, -0.6531593203544617, -0.3594159185886383, -0.4399644136428833, -0.7465510368347168, -0.5344218611717224, -0.03818477690219879, -0.38034963607788086, -0.2402966320514679, -0.062049463391304016, -0.18162833154201508, 0.09653271734714508, -0.5912538170814514, -0.7932236790657043, -1.1497305631637573, -0.7746988534927368, -0.3734826147556305, -0.4029984176158905, -0.6569077968597412, -0.4132179617881775, 0.3345162272453308, 1.0418267250061035, 0.22204716503620148, -0.31539270281791687, 0.22071927785873413, -0.06312780827283859, 0.4072040617465973, 0.3412996530532837, -0.5552092790603638, -0.5831773281097412, 0.09492111206054688, -0.5108609199523926, -1.0736792087554932, -1.0614856481552124, -0.2932969033718109, -0.6774078607559204, -0.8586204051971436, -0.1594104766845703, -0.674752414226532, -0.5383087992668152, -0.851456880569458, -1.1923997402191162, -0.7441917657852173, -0.711078405380249, -0.3628939390182495, -0.4037703573703766, -0.9704395532608032, -0.6814243793487549, 0.2825257480144501, -1.3462204933166504, -0.5213045477867126, 0.027988016605377197, -0.0958487018942833, 0.3446505069732666, 0.2700411379337311, -0.37102121114730835, -0.021196328103542328, -0.9585246443748474, -0.491538405418396, -0.6201772689819336, -0.7956082820892334, -0.7714629173278809, -0.542418360710144, -0.36542779207229614, -0.175256609916687, -0.06333540380001068, -0.5129438042640686, -0.55085688829422, -0.5120416283607483, -0.8145923614501953, -0.3399484157562256, -0.278892457485199, 0.27310994267463684, 0.30431878566741943, -0.3326427638530731, -0.5099775791168213, 0.30687782168388367, -0.7759588360786438, 0.0045889271423220634, -0.25317806005477905, -0.7635147571563721, 0.06024254113435745, 0.3073353171348572, 0.15662947297096252, 0.23737044632434845, -0.8349483609199524, -0.31934958696365356, -0.11624384671449661, 0.043135229498147964, -0.3215424120426178, -0.38095492124557495, -0.2059139758348465, -0.31545695662498474, -0.34370824694633484, -0.7499401569366455, -0.38767340779304504, -1.1888889074325562, -0.48705700039863586, -0.3422473669052124, -0.3335643708705902, 0.3569549322128296, 0.29116034507751465, -0.4433557093143463, 0.34512707591056824, 0.0034254691563546658, -0.9849516749382019, 0.01981787383556366, -0.2960677742958069, -0.3173767328262329, -1.172052264213562, -0.5539076924324036, 0.31181249022483826, 0.024981103837490082, 0.12816265225410461, -0.13808992505073547, 0.4522636830806732, 0.18543125689029694, 0.20189400017261505, -0.3493439555168152, 0.06906216591596603, -0.1873888373374939, -0.3387037515640259, -0.5368601679801941, -0.5005879998207092, -0.9018550515174866, -0.5344802141189575, -0.461763471364975, -0.25869160890579224, 0.09360823035240173, 0.4103987216949463, -0.3173943758010864, 0.19537414610385895, 0.24278323352336884, -0.9212819933891296, 0.053466394543647766, -0.07638361304998398, -0.05455077067017555, -1.0714031457901, -1.0610836744308472, 0.1694803386926651, -0.4115588963031769, 0.13032479584217072, -0.019712397828698158, 0.026531560346484184, 0.025569843128323555, -0.34195780754089355, -0.09949787706136703, -0.14459581673145294, -0.12862832844257355, -0.34091368317604065, -0.4362984001636505, -0.46954187750816345, -0.6047741174697876, -0.2489444613456726, 0.010311881080269814, -0.20214831829071045, -0.40619564056396484, 0.10321201384067535, 0.1714628040790558, -0.006723084952682257, 0.1707298308610916, -0.642770528793335, 0.028881050646305084, 0.04565248638391495, -0.0178106427192688, 0.18786852061748505, -0.7200798392295837, 0.15798413753509521, 0.27077731490135193, 0.017399094998836517, -0.09053226560354233, -0.16711927950382233, -0.5215224623680115, -0.14391648769378662, -0.14597250521183014, -0.40813198685646057, -0.10740906745195389, -0.37474483251571655, -0.5613287091255188, -0.3950553238391876, -0.2901971638202667, -0.714846670627594, -0.9144976139068604, -0.5678420662879944, -0.33965158462524414, -0.2808350920677185, 0.4045036733150482, -0.31335482001304626, -0.13045856356620789, -0.0011010417947545648, 0.019692718982696533, 0.023164987564086914, -0.03462687134742737, -0.06057686731219292, 0.896390974521637, 1.0007871389389038, 0.18813633918762207, -0.494554340839386, 0.6362529397010803, 0.34384793043136597, 0.23408763110637665, -0.05986262112855911, 0.08502224832773209, -0.15299585461616516, -0.4420410394668579, -0.3977445363998413, -0.6986439228057861, -0.1388237476348877, -0.5063633918762207, -0.5400882363319397, -0.37747716903686523, -0.5520895719528198, -0.5043606758117676, -0.46921467781066895, -0.5287122130393982, 0.39426571130752563, 0.4189477562904358, -0.05794759467244148, 0.07043122500181198, 0.04858357459306717, 0.062074847519397736, 0.07051057368516922, 0.35904619097709656, 0.7431775331497192, 0.18608124554157257, 0.8516101241111755, 0.02514677867293358, 0.030857492238283157, 0.7924133539199829, 0.4265853464603424, -0.02183261513710022, -0.8157092928886414, -0.11872383207082748, 0.10011748969554901, 0.03397079557180405, -0.28950345516204834, -0.6685711145401001, -0.12510868906974792, -0.17760205268859863, -0.51206374168396, 0.0736163780093193, 0.019775468856096268, 0.6299164295196533, 0.598143994808197, 0.3303717374801636, -0.021675236523151398, -0.06485985964536667, -0.0567193478345871, 0.03403588384389877, 0.06778580695390701, 0.05231819301843643, 0.4827561378479004, 1.1471219062805176, 1.944372296333313, 2.718111753463745, 2.406789779663086, 2.3763442039489746, 0.9046261310577393, 0.37614646553993225, 0.47488826513290405, 1.2234255075454712, 2.278316020965576, 0.3221729099750519, 1.0462170839309692, 2.125154733657837, 0.5957139730453491, 1.048863410949707, 0.07100190222263336, 0.16233229637145996, 0.21859748661518097, 0.5223536491394043, -0.026521630585193634, 0.06365742534399033, -0.07536667585372925, 0.046547628939151764], [-0.063333660364151, -0.0696004331111908, 0.04944228380918503, -0.004917897284030914, -0.07860621809959412, -0.05991238355636597, -0.011625491082668304, -0.051538340747356415, -0.017485350370407104, -0.05567113682627678, 0.0011266916990280151, 0.054837457835674286, 0.08110430836677551, -0.3299233317375183, -0.444612979888916, -0.04498939961194992, 0.0004025474190711975, -0.08417762070894241, -0.08383063971996307, -0.07688452303409576, -0.07277861982584, -0.018374964594841003, 0.02012949436903, 0.06810668855905533, -0.07617898285388947, 0.07790229469537735, -0.0491991862654686, -0.015505515038967133, 0.04546644538640976, 0.009030714631080627, 0.05600681155920029, -0.003948919475078583, -0.03149209916591644, 0.2224930226802826, 1.202927589416504, 1.1731371879577637, 0.3301458954811096, 0.21940802037715912, 0.28127729892730713, -0.22729980945587158, -0.11398054659366608, -0.3262422978878021, -0.07185433804988861, -0.23148341476917267, -0.9087610840797424, -0.5533553957939148, 1.4045872688293457, 1.1575604677200317, 1.1891441345214844, 1.2530030012130737, 0.9543724060058594, 0.5606023073196411, -0.04653796926140785, 0.07467658072710037, 0.07062681764364243, 0.060677669942379, 0.0283593088388443, 0.054158903658390045, 0.07931280881166458, -0.3488658666610718, -0.1416606605052948, 0.11532316356897354, 0.6034643650054932, 1.000961422920227, 0.48506197333335876, 0.11557908356189728, 0.774033784866333, 0.9213118553161621, 0.15499049425125122, -0.11346498876810074, 0.11207972466945648, 0.9080798029899597, 0.3721970319747925, -0.10416968166828156, 0.46813544631004333, 0.3402501344680786, 0.03410370275378227, 0.38843217492103577, 0.2764087915420532, -0.19033114612102509, 0.17508640885353088, -0.17352092266082764, -0.0545053668320179, -0.001292496919631958, -0.08131983131170273, -0.05965743586421013, 0.5992171764373779, 0.6911017298698425, -0.40510788559913635, -0.443101704120636, 0.32348182797431946, 0.54496169090271, -0.5423728227615356, -0.42077919840812683, -0.9400002956390381, -0.9330033659934998, -0.6283957362174988, -0.19997835159301758, -0.07190807163715363, -0.08556529879570007, -0.1742241084575653, 0.08442999422550201, 0.1959998607635498, 0.4303606450557709, 0.1007247343659401, -0.26716190576553345, 0.5122354030609131, 0.30968061089515686, -0.0282406285405159, -0.7202968597412109, -0.17718654870986938, -0.055388882756233215, 0.027608923614025116, -0.016473786905407906, 0.33410945534706116, 0.5190176367759705, -0.38929396867752075, -0.1566365361213684, -0.7623477578163147, -0.10105977207422256, -0.6217485666275024, -0.4341248571872711, -0.4902280271053314, -0.412608802318573, -0.5797988176345825, -0.0476948544383049, -0.10232212394475937, -0.3515685498714447, -0.050114259123802185, 0.2493244707584381, 0.15310458838939667, -0.09546511620283127, 0.21575358510017395, 0.07563653588294983, -0.0011116022942587733, 0.5402067303657532, -0.09172910451889038, -0.6846776604652405, -0.7752004861831665, 0.21172212064266205, -0.061144858598709106, 0.04632133990526199, 1.3042134046554565, -0.45238253474235535, -0.6422172784805298, -0.33919987082481384, -0.5069302916526794, 0.25194138288497925, -0.8462268710136414, -0.7742490172386169, -0.2019365280866623, -0.17938902974128723, 0.07568731904029846, 0.07735928148031235, 0.30183401703834534, 0.20055674016475677, 0.19585807621479034, 0.3549492061138153, 0.005410889163613319, 0.019864464178681374, 0.03390898555517197, 0.19064852595329285, -0.32563456892967224, 0.35086315870285034, 0.4413822591304779, -0.13450725376605988, -0.807435929775238, -0.10435310006141663, 0.021645084023475647, -0.029401609674096107, 0.5319264531135559, -0.8458965420722961, -1.0764014720916748, -0.536828339099884, -0.2988909184932709, -0.5967987775802612, -0.899446964263916, -0.6864443421363831, -0.1574791520833969, 0.23259888589382172, -0.006109008565545082, -0.2616899013519287, 0.050601404160261154, 0.32869288325309753, 0.24235504865646362, -0.01992330700159073, -0.08663493394851685, -0.09052497893571854, -0.48058104515075684, -0.07116807997226715, -0.12799221277236938, 0.2321629375219345, 0.4419282376766205, 0.17364901304244995, -0.41755107045173645, -0.43987053632736206, 0.08093159645795822, -0.004719432443380356, -0.5982504487037659, -0.44577720761299133, -0.40932026505470276, -0.4749698042869568, -0.8372488021850586, -0.6377306580543518, -0.7180678844451904, 0.07324855029582977, 0.31855446100234985, 0.3695562779903412, 0.3953518867492676, 0.22549821436405182, 0.6956765055656433, 0.4160110652446747, -0.04540165886282921, -0.15666699409484863, -0.4135803282260895, -0.7305086255073547, 0.17971034348011017, 0.3656409680843353, -0.03318453207612038, 0.12138785421848297, 0.3243975043296814, -0.7548527717590332, 0.67008376121521, -0.6605512499809265, -0.4662991166114807, 0.44779348373413086, -1.154313564300537, -0.08185762912034988, -0.6646715402603149, -1.2100391387939453, -0.8029763698577881, -0.6256764531135559, -0.47686120867729187, -0.6012673377990723, -0.07858690619468689, -0.43017786741256714, 0.07477528601884842, 0.5808541178703308, 0.6581208109855652, 0.10495481640100479, -0.6648533344268799, -0.44745275378227234, -0.7800496220588684, -0.567389726638794, -0.19589854776859283, 0.13331784307956696, -0.5220856070518494, 0.04440731927752495, -0.02569511905312538, 0.19580936431884766, 0.9770865440368652, 0.006096376571804285, 0.08684098720550537, 0.33729955554008484, -1.064281940460205, 0.5187208652496338, -0.7423222064971924, -0.6532856822013855, -0.8871816396713257, -0.3634130656719208, -0.54466712474823, -0.7693367004394531, -0.41245710849761963, -0.5627449154853821, -0.16181008517742157, 0.1551649272441864, 0.5430883765220642, 0.1731400489807129, -0.8382172584533691, -0.9968829154968262, -1.9653364419937134, -2.432203531265259, -2.2250123023986816, -1.2897835969924927, -1.8537489175796509, -1.7736430168151855, -0.7059157490730286, 0.8928534984588623, 0.7689109444618225, -0.1807374507188797, 0.11916182190179825, 0.4247897267341614, -0.008634340949356556, -0.6698047518730164, -1.410368800163269, -1.0083465576171875, -0.3284871578216553, -0.11173168569803238, -0.7596275210380554, -0.5104109644889832, -0.39375296235084534, -0.16547226905822754, -0.2503435015678406, 0.44798290729522705, 0.6002619862556458, 0.2869403660297394, -0.6993452906608582, -0.8368898630142212, -1.6486738920211792, -1.27133309841156, -1.6566734313964844, -1.501511573791504, -1.4305295944213867, -1.7152924537658691, -1.384714961051941, -0.17878898978233337, -0.2891039550304413, -0.6253628134727478, 0.03168557584285736, -0.6758809089660645, -0.5232292413711548, -1.0766793489456177, -0.5509419441223145, -0.20792809128761292, -0.5256248712539673, -0.0522574707865715, -0.10124891996383667, -0.4038560688495636, 0.10548461973667145, 0.23537971079349518, -0.40177974104881287, -0.1308782547712326, 0.4386644959449768, 0.16448304057121277, -0.2470780462026596, -0.8301432132720947, -1.1156373023986816, -0.0883774533867836, -0.1491059809923172, -0.3675425350666046, -0.6687600612640381, -0.24093344807624817, -0.9172307252883911, -0.44287657737731934, -0.6747912168502808, -0.4413188695907593, -0.06853048503398895, -0.3526584804058075, 0.20965071022510529, 0.09969436377286911, 0.6705414652824402, 0.23863418400287628, -0.4050043523311615, -0.279429167509079, 0.24683095514774323, -0.049049220979213715, -0.06408800184726715, 0.24599017202854156, -0.07866711914539337, -0.3064681589603424, 0.5163833498954773, 0.6274847984313965, -0.059673406183719635, -0.1049778014421463, 0.19559842348098755, 0.07665425539016724, -0.12191760540008545, -0.4664304256439209, -0.38380664587020874, -0.1797674000263214, -0.44352683424949646, -0.10593117028474808, -0.33203765749931335, -0.08261845260858536, 0.21601147949695587, -0.6567285656929016, 0.5208791494369507, 0.5613378286361694, 0.7833226323127747, 0.2349250465631485, 0.07055814564228058, -0.0884917676448822, -0.10170028358697891, 0.23911067843437195, 0.13257160782814026, -0.09500712156295776, 0.04875972494482994, 0.09631745517253876, 0.8156031370162964, 0.6916462182998657, 0.16861368715763092, -0.7576979994773865, -0.3017648160457611, 0.4074659049510956, 0.44237303733825684, 0.027418622747063637, -0.24498341977596283, -0.25934162735939026, -0.35991528630256653, -0.6144358515739441, 0.007300789002329111, -0.5800682306289673, 0.16668346524238586, -0.23508021235466003, 0.24723109602928162, 0.6270009875297546, 0.5254189968109131, 0.54172682762146, 0.7015382647514343, 0.3280786871910095, 0.21328814327716827, 0.5174261927604675, 0.06079396232962608, -0.3774266242980957, -0.04212374612689018, 0.39533093571662903, 0.7553456425666809, 0.3676503598690033, 0.23740653693675995, -0.21247991919517517, 0.08892153948545456, 0.20244485139846802, 0.6139357089996338, 0.2600920498371124, 0.5446239113807678, -0.4045824110507965, -0.08151654899120331, 0.25970664620399475, 0.25755569338798523, 0.6292912364006042, 0.08090537786483765, -0.2182905673980713, 0.5183461308479309, -0.261191189289093, -0.6926798224449158, 0.31649401783943176, 0.46923357248306274, 0.3033740520477295, 0.30323755741119385, 0.5903500914573669, -0.21541590988636017, -0.032624416053295135, -0.20254038274288177, 0.38515397906303406, 0.42695102095603943, -0.08145851641893387, 0.20411457121372223, -0.05342668294906616, 0.0983777716755867, 0.7066103219985962, 0.3924899399280548, 0.3044641315937042, 0.596774160861969, -0.29796668887138367, 0.43018418550491333, 0.17981097102165222, -0.2699011564254761, -0.40265005826950073, 0.21566931903362274, 0.3896957337856293, 0.7011348605155945, -0.6284878849983215, -0.10423140972852707, 0.05633093789219856, 0.6011808514595032, 0.5257679224014282, -0.0003497236466500908, 0.014067200943827629, -0.19499744474887848, -0.058957524597644806, -0.8269827961921692, 0.08933089673519135, 0.32906684279441833, -0.02853705734014511, -0.11928323656320572, -0.2398207038640976, 0.16073566675186157, 0.027747346088290215, 0.2509399950504303, 0.06443145871162415, 0.09889873117208481, 0.25377899408340454, 0.6898896098136902, -0.6889830231666565, -0.2917787432670593, -0.9305276870727539, -0.05799297243356705, 0.690790593624115, 0.8215556144714355, -0.35484784841537476, -0.4447023272514343, 0.43566617369651794, 0.12242351472377777, -0.13310803472995758, 0.1330319046974182, -0.26651349663734436, -0.35049811005592346, -0.33272629976272583, -0.6658711433410645, 0.0021435804665088654, 0.5607973337173462, 0.33486685156822205, -0.361625075340271, -0.1947682648897171, -0.27826133370399475, 0.14193286001682281, 0.6046115756034851, 0.48279842734336853, 0.05727961286902428, 0.05681498348712921, 0.3296547532081604, -0.32348042726516724, -0.2931179404258728, -0.7932379841804504, -0.10039910674095154, 0.17933666706085205, 0.4756486117839813, 0.396526962518692, 0.034328050911426544, -0.27406737208366394, -0.43505915999412537, -0.3603844940662384, 0.18976815044879913, -0.3494010865688324, -0.13829928636550903, -0.4826160669326782, 0.24817615747451782, 0.7638935446739197, 0.7184837460517883, 0.42608097195625305, -0.5656253695487976, -0.0897415429353714, -0.12121512740850449, 0.036040958017110825, 0.6075913310050964, -0.035300713032484055, -0.15245315432548523, -0.31646499037742615, 0.9657757878303528, -0.05919709429144859, -0.03619598597288132, -0.28955596685409546, 0.5272741317749023, -0.05190274491906166, 0.16067612171173096, 0.2717044949531555, -0.38216954469680786, -0.28091681003570557, -0.1671045869588852, 0.2956693768501282, 0.13081444799900055, -0.022318590432405472, -0.29125893115997314, -0.011953296139836311, -0.03673013299703598, 0.4023646116256714, 0.23733456432819366, 0.2952881157398224, 0.05185631662607193, 0.051816899329423904, -0.1366005688905716, -0.027544686570763588, 0.007628853898495436, -0.10754340887069702, -0.3792685270309448, 0.15941181778907776, 0.1973492056131363, 0.13875968754291534, -0.22491547465324402, 0.12254450470209122, 0.007874265313148499, -0.7397866249084473, 0.22542314231395721, -0.6104310750961304, -0.09739813208580017, -0.04410351812839508, 0.013321323320269585, -0.6863943934440613, 0.055325645953416824, 0.1517334133386612, -0.5329838991165161, -0.06292752921581268, -0.15651240944862366, 0.036023251712322235, 0.29700368642807007, 0.4441484808921814, 0.05462048202753067, -0.1335560381412506, -0.056537941098213196, -0.022879943251609802, 0.11833809316158295, -0.014180805534124374, -0.0516313761472702, 0.11989790201187134, -0.20960891246795654, -0.4733613431453705, 0.44605812430381775, 0.4261552095413208, 0.3452206552028656, -0.05017182230949402, -0.2316046804189682, -0.4266415238380432, -0.47231701016426086, -1.224654197692871, -0.06303849816322327, -0.553372323513031, -0.5931830406188965, -0.1623123288154602, -0.287364661693573, -0.09856318682432175, 0.10916800051927567, 0.5012331604957581, 0.29704564809799194, 0.04667434096336365, -0.01882285811007023, -0.32747170329093933, -0.018566664308309555, 0.12708109617233276, -0.2511788606643677, -0.5388135313987732, 0.02584480680525303, -0.14546820521354675, -0.7678579092025757, -0.6291859149932861, -0.4689316749572754, -0.0772356316447258, 0.3087725341320038, 0.3473397493362427, 0.11755482107400894, 0.3845798373222351, -0.15022289752960205, -1.1209907531738281, -0.13595396280288696, 0.1421273946762085, -0.1512182652950287, 0.026847071945667267, -0.21522904932498932, -0.5304179787635803, 0.011846736073493958, 0.1460641473531723, -0.014612775295972824, 0.5057739615440369, 0.26425978541374207, -0.09038324654102325, 0.236257404088974, 0.48999693989753723, 0.1337994784116745, 0.012842383235692978, -0.463191419839859, 0.3156972825527191, -1.3245075941085815, -0.6960611939430237, -0.37356096506118774, -0.2521515190601349, 0.059097371995449066, 0.04781416803598404, -0.16004371643066406, 0.8773661255836487, -0.0364452600479126, -0.8720190525054932, 0.4590752124786377, -0.08524373918771744, -0.6468597054481506, 0.15255139768123627, -0.5152217745780945, -0.21707206964492798, 0.28044137358665466, -0.2194012552499771, -0.1438671350479126, 0.06289578229188919, -0.2545703947544098, 0.18137340247631073, 0.2690016031265259, -0.43531331419944763, -0.41073089838027954, -0.5239124894142151, -0.25456002354621887, -1.6347168684005737, -1.1815320253372192, -0.8913225531578064, -0.16221420466899872, 0.05430801957845688, -0.08489779382944107, -0.06756000965833664, 0.1323547065258026, -0.23448273539543152, -0.4614623188972473, -1.1220415830612183, 0.7415281534194946, 0.2828051745891571, -0.9812703132629395, 0.27615997195243835, -0.29388919472694397, -0.004289219621568918, -0.4924010932445526, -1.3532936573028564, -1.171514630317688, -0.8940597176551819, -0.646228015422821, -0.17917382717132568, -0.5096449851989746, -0.6984818577766418, -0.5476628541946411, -0.5363776087760925, -0.8777790069580078, -0.8485057353973389, -0.9799810647964478, 0.07842770963907242, 0.7282576560974121, -0.05558864772319794, -0.0387522391974926, 0.07152917236089706, 0.0199285838752985, -0.2114088088274002, -0.9678767919540405, -1.5121992826461792, -0.262407511472702, -1.0725712776184082, -1.6463156938552856, -0.6297114491462708, -1.4202680587768555, -0.9822543859481812, -1.7308669090270996, -2.1237428188323975, -1.6448713541030884, -2.361536741256714, -2.4933505058288574, -1.7086477279663086, -2.3722763061523438, -2.010082483291626, -1.4167168140411377, 0.13096344470977783, 0.2341524362564087, 0.4507763385772705, -0.4427735507488251, 0.17347575724124908, 0.22316785156726837, -0.01907423883676529, 0.08198315650224686, -0.03355259820818901, 0.06043871492147446, -0.19665950536727905, -0.606986939907074, -0.4065214991569519, -0.11071936786174774, -0.6978413462638855, 0.11396218836307526, -0.39366835355758667, -0.6584621667861938, -1.299949049949646, -1.3938252925872803, -1.5187852382659912, -2.470458507537842, -2.0656578540802, -1.9087443351745605, -2.774181604385376, -2.5962297916412354, -1.1858558654785156, -1.4606846570968628, -0.39448872208595276, 0.21181556582450867, -1.0492255687713623, 0.007619435898959637, -0.040912240743637085, 0.06509005278348923, -0.04223431646823883, 0.023215077817440033, 0.04787873476743698, 0.010851584374904633, -0.07324231415987015, 0.014965694397687912, 0.03194480389356613, -0.2498810589313507, -0.14971815049648285, -0.21268203854560852, -0.18169869482517242, -0.7449489831924438, -0.8009467124938965, -0.7288579940795898, -0.9112837910652161, -1.5311137437820435, -1.1592721939086914, -0.8772543668746948, -0.9916175007820129, -0.9890154600143433, -0.9242855310440063, -0.051452912390232086, 0.4115789532661438, 0.6232985854148865, 0.23081932961940765, -0.003919444978237152, 0.03672613948583603, 0.0003987625241279602, 0.07321279495954514], [0.0657714381814003, -0.06543586403131485, 0.06208439916372299, 0.059302009642124176, 0.08291491121053696, 0.054458193480968475, -0.06440377980470657, 0.05322860926389694, 0.03676079958677292, 0.08541359752416611, -0.059253472834825516, -0.016785725951194763, 0.43854305148124695, 0.4391687214374542, 0.08709605038166046, -0.03769390285015106, -0.0414552316069603, -0.08225135505199432, 0.04037965089082718, 0.06341580301523209, -0.022928409278392792, -0.026152528822422028, 0.06067713350057602, 0.06571406871080399, 0.034890882670879364, 0.032400794327259064, -0.07774468511343002, 0.03023337572813034, -0.04377346485853195, 0.03421373665332794, -0.04105902835726738, -0.062208324670791626, 0.07887426763772964, -0.07875890284776688, -0.11088668555021286, 0.038819849491119385, 